tree
version=v4
num_class=1
num_tree_per_iteration=1
label_index=0
max_feature_idx=64
objective=quantile
feature_names=n_items n_categories has_dessert has_rice has_bread has_gravy has_dry has_biryani has_nv_biryani has_mutton has_fish has_chicken has_egg has_paneer has_mushroom has_chole has_indochinese is_nonveg_counter is_south star_score menu_strength month dom is_monday is_friday is_month_start is_month_end dt_prev_holiday dt_next_holiday pan_ekadashi pan_poornima pan_amavasya pan_pradosham pan_shravan pan_navratri pan_sankashti pan_shivaratri pan_any n_active n_active_veg n_active_nonveg oth_has_biryani oth_has_nv_biryani oth_has_paneer oth_has_mutton oth_has_chicken oth_has_fish oth_max_star star_minus_oth star_rank lag1 roll3 roll7 roll14 roll7_std wd_lag1 wd_roll4 share_roll7 wd_share_roll4 tlc_lag1 tlc_roll5 tlc_roll10 tlc_wd_roll4 Counter_Name weekday
feature_infos=[5:14] [5:12] none [0:1] [0:1] [0:1] [0:1] [0:1] [0:1] none [0:1] [0:1] [0:1] [0:1] none none [0:1] [0:1] [0:1] [0:5] [0:15] [1:12] [1:31] [0:1] [0:1] [0:1] [0:1] [0:1] [0:1] [0:1] none none [0:1] [0:1] [0:1] none [0:1] [0:1] [2:4] none [1:2] [0:1] [0:1] [0:1] [0:1] [0:1] [0:1] [0:5] [-5:5] [1:4] [99:1331] [125.33333333333333:909.66666666666663] [149.5:838.28571428571433] [158:771.14285714285711] [19.974984355438178:335.42056046246211] [118:1331] [127:1244] [0.10223277342012721:0.43936987319319981] [0.080496780128794854:0.5657789622090702] [523:2370] [760.60000000000002:1910.8] [1116.0999999999999:1889.9000000000001] [945.75:2328.25] -1:2:3:1:0 -1:3:1:0:4:2
tree_sizes=707 736 740 750 740 743 744 741 758 758 754 753 734 749 760 758 750 741 760 760 731 761 739 733 758 733 741 760 742 742 746 746 762 743 742 748 741 748 745 743 745 749 742 739 743 744 750 742 743 753 741 745 743 749 753 744 751 746 745 750 742 761 775 739 748 745 746 743 744 746 762 745 749 744 768 755 739 767 736 749 744 762 744 768 757 749 768 767 756 769 751 751 764 758 742 752 754 767 750 748 756 767 748 761 768 749 755 761 748 772 751 770 757 751 753 753 762 770 753 751 753 752 771 748 745 743 744 748 757 756 760 755 750 757 754 767 751 743 754 755 743 775 747 746 755 770 743 748 767 751 739 776 740 750 756 737 747 751 753 747 732 769 752 765 753 747 754 746 745 746 757 761 747 755 758 756 740 757 751 764 757 751 752 750 756 751 757 745 744 756 764 748 752 759 737 751 770 753 749 768 751 775 744 751 749 758 770 746 752 746 752 749 752 749 758 753 752 751 752 751 746 773 759 762 759 757 763 770 757 755 753 759 758 754 779 754 748 773 750 753 750 749 767 765 753 757 737 753 758 749 758 760 765 771 746 771 756 760 752 753 747 752 783 763 755 756 751 754 757 755 748 773 748 767 759 764 757 765 755 756 757 757 770 742 747 756 745 755 756 758 754 754 759 760 760 758 759 750 750 768 758 757 755 760 760 742 753 749 769 756 752 755 764 763 781 761 758 756 764 777 757 759 776 766 759 757 754 752 759 758 762 755 747 754 759 748 760 760 751 758 757 765 757 754 754 754 761 757 755 752 757 763 745 745 757 754 759 751 752 747 756 755 757 777 767 755 758 763 757 738 759 755 754 743 755 764 758 762 756 756 754 772 754 771 759 750 757 752 749 755 755 744 762 767 755 773 757 748 773 757 752 751 755 755 749 751 750 759 749 744 765 746 755 752 750 749 762 759 757 756 748 759 761 759 754 769 757 737 754 772 759 764 762 756 752 755 774 760 756 774 753 754 753 756 761 767 757 761 778 763 775 771 767 752 764 746 759 768 759 774 763 756 761 779 763 764 742 764 764 762 764 765 760 755 758 761 756 762 761 764 766 753 761 757 744 759 764 760 749 757 774 760 749 774 756 760 758 756 757 755 762 756 759 750 756 761 760 766 756 766 761 759 750 760 766 758 757 757 747 757 747 735 741 749 764 754 754 753 748 753 782 747 753 756 751 762 756 757 761 762 756 758 751 748 754 744 765 752 750 756 743 744 752 763 763 758 756 751 761 758 757 764 750 757 770 757 755 751 758 748 754 751 764 752 757 755 758 761 754 757 757 758 769 758 766 742 769 748 757 759 758 764 756 742 754 762 748

Tree=0
num_leaves=7
num_cat=0
split_feature=56 56 61 53 61 57
split_gain=17.788 0.602911 0.835215 0.29619 0.026622 0.0160417
threshold=715.87500000000011 594.87500000000011 1808.7000000000003 483.6785714285715 1369.8500000000001 0.30368257524859804
decision_type=10 8 10 10 10 10
left_child=1 4 3 -3 -1 -5
right_child=-2 2 -4 5 -6 -7
leaf_value=725.47901108980182 740.77901144027715 727.29101170063018 727.75901176929472 725.77301159620288 723.80501107692714 725.64701180219652
leaf_weight=22 41 29 21 20 268 55
leaf_count=22 41 29 21 20 268 55
internal_value=726.7 726.698 726.7 726.699 726.697 726.698
internal_weight=456 415 125 104 290 75
internal_count=456 415 125 104 290 75
is_linear=0
shrinkage=1


Tree=1
num_leaves=7
num_cat=0
split_feature=56 55 48 56 58 53
split_gain=17.2026 1.21114 1.2922 0.214018 0.169002 0.103639
threshold=721.62500000000011 654.50000000000011 -1.2499999999999998 594.87500000000011 0.32644778145792447 493.1785714285715
decision_type=10 10 2 8 8 10
left_child=1 3 -3 -1 -5 -6
right_child=-2 2 -4 4 5 -7
leaf_value=-2.8201511276721942 14.826629284858702 -0.4844104291677479 1.7205896459341044 0.080633314610480969 -0.25173074512481664 -1.01109035637617
leaf_weight=279 41 36 30 20 20 36
leaf_count=279 41 36 30 20 20 36
internal_value=0.000115631 -0.00176761 0.00185915 -0.00245833 -0.000962964 -0.00177049
internal_weight=462 421 66 355 76 56
internal_count=462 421 66 355 76 56
is_linear=0
shrinkage=0.03


Tree=2
num_leaves=7
num_cat=0
split_feature=56 56 21 56 55 60
split_gain=15.2865 2.01943 0.944676 0.395949 0.21298 0.0650365
threshold=746.87500000000011 653.75000000000011 6.5000000000000009 594.87500000000011 633.50000000000011 1569.7000000000003
decision_type=10 10 2 8 10 10
left_child=1 3 -3 -1 5 -5
right_child=-2 2 -4 4 -6 -7
leaf_value=-2.7471459015247222 15.515830125932693 1.71199191070103 -0.46140648907827808 -0.40617890431022485 0.27476976393198876 -0.52941364656035905
leaf_weight=312 25 26 32 20 24 42
leaf_count=312 25 26 32 20 24 42
internal_value=-0.000253087 -0.00160087 0.00342857 -0.00236725 -0.000527473 -0.00143284
internal_weight=481 456 58 398 86 62
internal_count=481 456 58 398 86 62
is_linear=0
shrinkage=0.03


Tree=3
num_leaves=7
num_cat=1
split_feature=56 56 64 61 20 55
split_gain=14.5956 1.76118 0.507578 0.739568 0.50626 0.183712
threshold=746.87500000000011 657.87500000000011 0 1785.6750000000002 3.0000000000000004 561.50000000000011
decision_type=10 10 1 8 2 10
left_child=1 2 3 5 -3 -1
right_child=-2 4 -4 -5 -6 -7
leaf_value=-1.9963295505441541 14.708355140615559 0.54191007438551375 -3.430131600961098 0.51550923105076463 2.1734938892102491 -0.39842633277112965
leaf_weight=50 28 24 252 23 21 55
leaf_count=50 28 24 252 23 21 55
internal_value=4.58508e-05 -0.00143023 -0.0021039 -0.000377623 0.0039 -0.0015
internal_weight=453 425 380 128 45 105
internal_count=453 425 380 128 45 105
cat_boundaries=0 1
cat_threshold=12
is_linear=0
shrinkage=0.03


Tree=4
num_leaves=7
num_cat=0
split_feature=56 55 62 59 55 60
split_gain=15.5418 0.891724 0.82812 0.508624 0.127667 0.418144
threshold=721.62500000000011 608.50000000000011 1864.5000000000002 1563.0000000000002 561.50000000000011 1642.9333333333336
decision_type=10 10 10 10 8 8
left_child=1 4 -3 -4 -1 -6
right_child=-2 2 3 -5 5 -7
leaf_value=-3.1571219637762069 13.241104885509793 -1.1656678195076144 -0.59280186678252689 1.9331081599868851 0.43539734029809929 -1.4310644328517965
leaf_weight=256 37 57 27 23 23 50
leaf_count=256 37 57 27 23 23 50
internal_value=-8.15907e-05 -0.0017415 0.000616071 0.00327273 -0.00250599 -0.00126923
internal_weight=473 436 107 50 329 73
internal_count=473 436 107 50 329 73
is_linear=0
shrinkage=0.03


Tree=5
num_leaves=7
num_cat=0
split_feature=56 55 62 62 52 56
split_gain=14.8491 1.29507 1.58727 2.21816 0.127813 0.0921595
threshold=746.87500000000011 585.50000000000011 1857.8750000000002 2022.8750000000002 507.64285714285717 586.50000000000011
decision_type=10 10 10 10 10 10
left_child=1 5 4 -4 -3 -1
right_child=-2 2 3 -5 -6 -7
leaf_value=-2.9636661603498218 13.21287178400561 -0.78847205825836375 1.7791119990697439 -0.060859695721638581 -1.6646977048137446 -0.35859178188683716
leaf_weight=274 28 20 26 39 57 31
leaf_count=274 28 20 26 39 57 31
internal_value=-0.000156251 -0.00157301 0.00077551 0.00407143 -0.00208537 -0.00266129
internal_weight=475 447 142 65 77 305
internal_count=475 447 142 65 77 305
is_linear=0
shrinkage=0.03


Tree=6
num_leaves=7
num_cat=0
split_feature=55 55 51 55 52 22
split_gain=11.4177 1.53937 0.75122 0.333945 0.525787 0.401734
threshold=835.50000000000011 687.00000000000011 549.33333333333337 561.50000000000011 501.50000000000006 10.500000000000002
decision_type=10 10 10 10 10 2
left_child=1 3 -3 -1 -5 -6
right_child=-2 2 -4 4 5 -7
leaf_value=-3.0036181996227889 12.642485724899197 0.033134650711016921 2.2113410665972064 0.13603667872079048 0.40006050469950633 -1.0424037436905409
leaf_weight=271 22 29 20 31 27 78
leaf_count=271 22 29 20 31 27 78
internal_value=-0.000298137 -0.00140564 0.00338889 -0.00201699 -0.000765958 -0.00177273
internal_weight=478 456 49 407 136 105
internal_count=478 456 49 407 136 105
is_linear=0
shrinkage=0.03


Tree=7
num_leaves=7
num_cat=0
split_feature=55 56 48 59 50 58
split_gain=13.6868 1.25907 1.15583 1.07651 1.42211 0.116194
threshold=940.00000000000011 548.62500000000011 -1.2499999999999998 1869.5000000000002 493.50000000000006 0.32355423161102764
decision_type=10 10 2 10 10 10
left_child=1 -1 5 4 -4 -3
right_child=-2 2 3 -5 -6 -7
leaf_value=-3.1225376204926154 14.276211096647019 -0.14000451082531132 0.064692543642514519 -0.86834893380567735 1.9781811358916019 -1.0233565547007968
leaf_weight=274 23 33 32 29 24 71
leaf_count=274 23 33 32 29 24 71
internal_value=-0.00034216 -0.00155769 0.000324742 0.00283333 0.00511475 -0.00176147
internal_weight=486 463 189 85 56 104
internal_count=486 463 189 85 56 104
is_linear=0
shrinkage=0.03


Tree=8
num_leaves=7
num_cat=1
split_feature=56 64 62 57 48 54
split_gain=15.041 1.44574 0.917028 1.2955 0.984414 0.374788
threshold=774.00000000000011 0 1857.8750000000002 0.29136417195250874 -1.2499999999999998 146.65157230831019
decision_type=10 1 8 10 2 10
left_child=1 2 5 -4 -5 -1
right_child=-2 -3 3 4 -6 -7
leaf_value=0.096900348445157783 12.647923934050954 -2.9585820830329181 -0.3964217344733007 0.044193028753974954 1.418740018785126 -0.95984843209034043
leaf_weight=42 29 252 23 28 29 64
leaf_count=42 29 252 23 28 29 64
internal_value=0.000273304 -0.00120542 0.000805969 0.00317647 0.00546774 -0.000972974
internal_weight=467 438 186 80 57 106
internal_count=467 438 186 80 57 106
cat_boundaries=0 1
cat_threshold=12
is_linear=0
shrinkage=0.03


Tree=9
num_leaves=7
num_cat=1
split_feature=56 56 21 64 60 1
split_gain=14.5993 1.54735 1.09145 0.662431 0.590732 0.290889
threshold=753.75000000000011 653.75000000000011 6.5000000000000009 0 1823.8000000000004 9.5000000000000018
decision_type=10 10 2 1 10 2
left_child=1 3 -3 4 5 -1
right_child=-2 2 -4 -5 -6 -7
leaf_value=-1.8983297850798309 13.276486999949714 1.461335046424235 -0.52947313316196831 -3.1605571398595296 0.44807131249836135 0.061166352176593039
leaf_weight=58 27 25 34 243 23 57
leaf_count=58 27 25 34 243 23 57
internal_value=0.000400423 -0.00101124 0.00332812 -0.00171762 3.9215e-05 -0.000875001
internal_weight=467 440 59 381 138 115
internal_count=467 440 59 381 138 115
cat_boundaries=0 1
cat_threshold=12
is_linear=0
shrinkage=0.03


Tree=10
num_leaves=7
num_cat=1
split_feature=55 64 59 52 54 48
split_gain=12.5254 1.84484 0.853293 0.374279 0.360326 0.639695
threshold=835.50000000000011 0 1573.5000000000002 508.78571428571433 146.65157230831019 -1.2499999999999998
decision_type=10 1 10 10 8 2
left_child=1 2 -1 -4 5 -3
right_child=-2 4 3 -5 -6 -7
leaf_value=-0.66545654760740591 13.022192424283498 -2.0232453431109105 1.709781989614956 1.3078689935816388 -2.494933807586901 0.14674061799154617
leaf_weight=59 24 101 22 21 213 29
leaf_count=59 24 101 22 21 213 29
internal_value=0.000132911 -0.0011 0.00225641 0.0054375 -0.00212011 -0.00088889
internal_weight=469 445 102 43 343 130
internal_count=469 445 102 43 343 130
cat_boundaries=0 1
cat_threshold=8
is_linear=0
shrinkage=0.03


Tree=11
num_leaves=7
num_cat=1
split_feature=56 64 57 57 59 52
split_gain=12.8856 1.7133 1.0811 0.487796 0.418903 0.403333
threshold=753.75000000000011 0 0.37109464564939809 0.31387930600597225 2198.0000000000005 465.35714285714289
decision_type=10 1 10 10 10 10
left_child=1 2 3 5 -3 -1
right_child=-2 4 -4 -5 -6 -7
leaf_value=-0.20038697485648643 11.796015801167888 -2.420621127517212 1.3501605184931444 -0.60231904760020472 0.087706732830483275 1.3867466684971061
leaf_weight=25 26 314 27 29 28 20
leaf_count=25 26 314 27 29 28 20
internal_value=6.96195e-05 -0.00122545 0.0020431 0.000227847 -0.00220168 0.0021
internal_weight=469 443 101 74 342 45
internal_count=469 443 101 74 342 45
cat_boundaries=0 1
cat_threshold=8
is_linear=0
shrinkage=0.03


Tree=12
num_leaves=7
num_cat=0
split_feature=56 55 0 50 50 56
split_gain=13.5324 1.28889 1.15191 1.49988 0.878298 0.214143
threshold=753.75000000000011 608.50000000000011 10.500000000000002 484.50000000000006 525.50000000000011 548.62500000000011
decision_type=10 10 2 10 10 10
left_child=1 5 3 -3 -5 -1
right_child=-2 2 -4 4 -6 -7
leaf_value=-3.0079997260372773 10.915645652522246 -0.62453290713134879 -0.72523791042183616 1.658087226622706 0.96647849477055214 -0.35627018664446214
leaf_weight=240 30 28 49 20 22 73
leaf_count=240 30 28 49 20 22 73
internal_value=5.13912e-05 -0.00138673 0.00123387 0.0036 0.00689362 -0.00238679
internal_weight=462 432 119 70 42 313
internal_count=462 432 119 70 42 313
is_linear=0
shrinkage=0.03


Tree=13
num_leaves=7
num_cat=0
split_feature=56 16 56 55 54 5
split_gain=14.61 3.36092 0.606206 0.252747 0.286941 0.197946
threshold=753.75000000000011 1.0000000180025095e-35 686.62500000000011 654.50000000000011 143.90979524895144 1.0000000180025095e-35
decision_type=10 2 10 8 10 2
left_child=1 2 3 5 -5 -1
right_child=-2 -3 -4 4 -6 -7
leaf_value=-1.8197499508810466 10.236862928612956 1.3119337854424835 0.94919632638529983 0.43296658922815973 -0.49818336226818627 -1.7890315037879891
leaf_weight=36 28 21 28 22 38 308
leaf_count=36 28 21 28 22 38 308
internal_value=-6.17355e-06 -0.0013952 -0.00200458 -0.00230318 -0.000461539 -0.00261318
internal_weight=481 453 432 404 60 344
internal_count=481 453 432 404 60 344
is_linear=0
shrinkage=0.03


Tree=14
num_leaves=7
num_cat=1
split_feature=56 56 21 64 55 22
split_gain=13.606 1.28058 0.600185 0.586467 0.464554 0.264657
threshold=753.75000000000011 657.87500000000011 6.5000000000000009 0 687.00000000000011 12.500000000000002
decision_type=10 10 2 1 8 2
left_child=1 3 -3 4 5 -1
right_child=-2 2 -4 -5 -6 -7
leaf_value=0.07174110900525868 10.133168943544353 1.2719881962040218 -0.92412108270440407 -2.540451124305164 0.42828309998669756 -0.75806889421300094
leaf_weight=46 32 23 30 259 20 70
leaf_count=46 32 23 30 259 20 70
internal_value=0.000185566 -0.00124503 0.00294828 -0.0018375 -0.000119206 -0.000892563
internal_weight=480 448 53 395 136 116
internal_count=480 448 53 395 136 116
cat_boundaries=0 1
cat_threshold=12
is_linear=0
shrinkage=0.03


Tree=15
num_leaves=7
num_cat=1
split_feature=55 64 51 19 55 59
split_gain=11.8404 2.01344 0.880693 0.694748 0.466293 0.303022
threshold=835.50000000000011 0 515.50000000000011 3.0000000000000004 665.00000000000011 2198.0000000000005
decision_type=10 1 10 2 10 10
left_child=1 2 3 -1 5 -3
right_child=-2 4 -4 -5 -6 -7
leaf_value=0.87073629191898172 10.685075281005494 -2.2955706090528993 1.1286970344784195 -1.3045141065558867 1.729949930619892 0.02195092180016759
leaf_weight=43 23 310 32 31 25 24
leaf_count=43 23 310 32 31 25 24
internal_value=1.21697e-05 -0.00111702 0.00233058 0.000607594 -0.00215775 -0.00251328
internal_weight=488 465 106 74 359 334
internal_count=488 465 106 74 359 334
cat_boundaries=0 1
cat_threshold=8
is_linear=0
shrinkage=0.03


Tree=16
num_leaves=7
num_cat=1
split_feature=56 64 1 50 56 50
split_gain=12.0825 1.84062 0.621932 1.12813 0.130421 0.08
threshold=753.75000000000011 0 10.500000000000002 484.50000000000006 625.50000000000011 413.50000000000006
decision_type=10 1 2 10 10 10
left_child=1 2 3 5 -3 -1
right_child=-2 4 -4 -5 -6 -7
leaf_value=-1.3942180431408318 9.3962307523518955 -2.0025340710096504 -0.25932911111101831 1.55061055333509 -0.24280447400550267 0.51707449235410929
leaf_weight=20 23 319 26 35 21 20
leaf_count=20 23 319 26 35 21 20
internal_value=-0.000153519 -0.00135202 0.0020431 0.0035625 -0.0023662 -6.35783e-10
internal_weight=464 441 101 75 340 40
internal_count=464 441 101 75 340 40
cat_boundaries=0 1
cat_threshold=8
is_linear=0
shrinkage=0.03


Tree=17
num_leaves=7
num_cat=0
split_feature=56 56 52 52 59 56
split_gain=13.7287 1.24328 1.74061 0.434311 0.254667 0.0309605
threshold=753.75000000000011 617.62500000000011 588.14285714285722 492.78571428571433 2198.0000000000005 553.62500000000011
decision_type=10 8 10 8 10 10
left_child=1 4 3 -3 5 -1
right_child=-2 2 -4 -5 -6 -7
leaf_value=-2.4481463583288505 10.2866360914217 1.288835156502427 1.2111468382430168 -0.69829930529043305 -0.059217431084069787 -0.4401408774603382
leaf_weight=232 32 35 20 52 24 76
leaf_count=232 32 35 20 52 24 76
internal_value=0.000119747 -0.0013446 0.00141964 -0.000554349 -0.00224332 -0.00247284
internal_weight=471 439 107 87 332 308
internal_count=471 439 107 87 332 308
is_linear=0
shrinkage=0.03


Tree=18
num_leaves=7
num_cat=1
split_feature=56 64 56 62 62 50
split_gain=11.0772 0.888861 0.501132 0.642783 0.720928 0.559421
threshold=774.00000000000011 0 567.87500000000011 2048.7500000000005 1974.7500000000002 512.50000000000011
decision_type=10 1 8 10 8 10
left_child=1 2 -1 4 5 -4
right_child=-2 -3 3 -5 -6 -7
leaf_value=-0.99858260665520249 9.1230365187288704 -2.242472612928716 -1.3860981159932364 -0.48686294480023529 1.1492503268216134 0.16498755283621075
leaf_weight=74 28 263 26 25 30 33
leaf_count=74 28 263 26 25 30 33
internal_value=-0.000241736 -0.00145395 0.000177339 0.00141176 0.00258511 0.000515624
internal_weight=479 451 188 114 89 59
internal_count=479 451 188 114 89 59
cat_boundaries=0 1
cat_threshold=12
is_linear=0
shrinkage=0.03


Tree=19
num_leaves=7
num_cat=1
split_feature=56 64 19 50 59 19
split_gain=10.9693 1.96531 0.789255 1.56213 0.375375 0.433623
threshold=753.75000000000011 0 1.0000000180025095e-35 439.50000000000006 2074.0000000000005 3.0000000000000004
decision_type=10 1 2 10 10 2
left_child=1 2 -1 -4 -3 -6
right_child=-2 4 3 -5 5 -7
leaf_value=-0.2103246104263771 9.0838850510272682 -2.2227971012830809 -1.0949757078332674 1.4239216424971799 0.27626282033647337 -1.1543170251576924
leaf_weight=40 30 257 23 37 46 39
leaf_count=40 30 257 23 37 46 39
internal_value=0.000113207 -0.00115436 0.00234783 0.00461538 -0.00220168 -0.000500001
internal_weight=472 442 100 60 342 85
internal_count=472 442 100 60 342 85
cat_boundaries=0 1
cat_threshold=8
is_linear=0
shrinkage=0.03


Tree=20
num_leaves=7
num_cat=0
split_feature=56 56 60 48 54 56
split_gain=13.269 1.02168 1.17932 0.649766 0.968092 0.161476
threshold=753.75000000000011 548.62500000000011 1802.7 -1.2499999999999998 150.37117899439559 659.83333333333337
decision_type=10 10 10 2 10 10
left_child=1 -1 3 -3 -5 -6
right_child=-2 2 -4 4 5 -7
leaf_value=-2.2406841139477045 8.4058298822925419 -0.89802415168259031 0.57833034372668046 0.67522845327298087 -0.46735718489751976 0.41348244522344896
leaf_weight=259 31 95 36 20 27 24
leaf_count=259 31 95 36 20 27 24
internal_value=-0.000132797 -0.00148713 0.000115941 -0.000982457 0.00114474 -0.001125
internal_weight=492 461 202 166 71 51
internal_count=492 461 202 166 71 51
is_linear=0
shrinkage=0.03


Tree=21
num_leaves=7
num_cat=1
split_feature=56 64 54 56 56 1
split_gain=11.1775 1.53152 0.916743 0.476993 0.813626 0.427756
threshold=753.75000000000011 0 223.17203956408943 548.62500000000011 555.62500000000011 10.500000000000002
decision_type=10 1 8 8 10 2
left_child=1 2 5 -3 -5 -1
right_child=-2 3 -4 4 -6 -7
leaf_value=0.50557738719796941 9.3896549872542767 -2.7291148086972883 1.2414263941387373 0.33608785212874237 -0.52800581622966203 -0.69406032529408657
leaf_weight=52 29 220 24 22 95 24
leaf_count=52 29 220 24 22 95 24
internal_value=0.000280254 -0.000997738 0.00208696 -0.00193466 -0.000418033 0.000518518
internal_weight=466 437 100 337 117 76
internal_count=466 437 100 337 117 76
cat_boundaries=0 1
cat_threshold=8
is_linear=0
shrinkage=0.03


Tree=22
num_leaves=7
num_cat=0
split_feature=56 56 21 50 5 52
split_gain=12.389 1.56462 0.619762 0.524993 0.404476 0.280692
threshold=753.75000000000011 653.75000000000011 6.5000000000000009 489.50000000000006 1.0000000180025095e-35 588.14285714285722
decision_type=10 8 2 10 2 10
left_child=1 4 -3 -4 -1 -6
right_child=-2 2 3 -5 5 -7
leaf_value=0.034066192077881974 8.1155046864053499 1.0150586960253927 -1.7605918042719235 0.65102481036329596 -0.94229330563946812 -1.3770743873864826
leaf_weight=37 32 22 22 26 266 77
leaf_count=37 32 22 22 26 266 77
internal_value=0.000172484 -0.00118681 0.0028 0.000679245 -0.00194805 -0.00226724
internal_weight=482 450 70 48 380 343
internal_count=482 450 70 48 380 343
is_linear=0
shrinkage=0.03


Tree=23
num_leaves=7
num_cat=0
split_feature=56 56 55 53 62 52
split_gain=10.3028 1.79238 0.717734 0.63556 0.628582 0.57956
threshold=753.75000000000011 653.75000000000011 628.50000000000011 623.607142857143 1839.1250000000002 509.9285714285715
decision_type=10 8 10 8 10 10
left_child=1 2 -1 5 -4 -3
right_child=-2 3 4 -5 -6 -7
leaf_value=-1.4939574908682576 8.6815597891662311 1.0812029749488177 -0.85185174028731381 0.99141538287679654 0.34361316080780585 -1.1348733339010084
leaf_weight=336 32 30 27 21 20 22
leaf_count=336 32 30 27 21 20 22
internal_value=1.21697e-05 -0.00121041 -0.00203351 0.00296154 0.00132692 0.000947368
internal_weight=488 456 383 73 47 52
internal_count=488 456 383 73 47 52
is_linear=0
shrinkage=0.03


Tree=24
num_leaves=7
num_cat=1
split_feature=56 64 59 56 54 56
split_gain=9.45633 1.26154 1.02248 0.305871 0.517208 0.505742
threshold=753.75000000000011 0 1573.5000000000002 548.62500000000011 146.65157230831019 598.75000000000011
decision_type=10 1 10 8 10 8
left_child=1 2 -1 -3 5 -5
right_child=-2 3 -4 4 -6 -7
leaf_value=-1.0774132345983083 7.8125324574904322 -2.4844862726906674 1.5233089878256596 0.42973849256002794 -1.1528375122917338 -1.3330670987911193
leaf_weight=59 29 233 42 22 58 35
leaf_count=59 29 233 42 22 58 35
internal_value=-0.000173914 -0.00131498 0.00152586 -0.00213223 -0.000875001 0.0011129
internal_weight=478 449 101 348 115 57
internal_count=478 449 101 348 115 57
cat_boundaries=0 1
cat_threshold=8
is_linear=0
shrinkage=0.03


Tree=25
num_leaves=7
num_cat=0
split_feature=55 55 62 52 19 62
split_gain=7.29234 1.51986 1.14078 1.38345 0.464908 0.574866
threshold=796.50000000000011 551.00000000000011 1848.2500000000002 581.357142857143 3.0000000000000004 2048.7500000000005
decision_type=10 8 8 10 2 10
left_child=1 -1 -3 4 5 -4
right_child=-2 2 3 -5 -6 -7
leaf_value=-2.68097804501613 8.1596769075080999 -0.25445001281221052 0.67479708323025089 0.99399531842844369 -0.88029092469933057 -0.72468076331580855
leaf_weight=234 32 118 32 21 21 21
leaf_count=234 32 118 32 21 21 21
internal_value=6.19764e-06 -0.00104204 0.000784403 0.00315 0.000987341 0.00243103
internal_weight=479 447 213 95 74 53
internal_count=479 447 213 95 74 53
is_linear=0
shrinkage=0.03


Tree=26
num_leaves=7
num_cat=0
split_feature=20 62 51 47 59 53
split_gain=5.50618 1.4207 1.80319 0.490379 0.385963 0.268212
threshold=11.250000000000002 1832.8750000000002 549.33333333333337 3.7500000000000004 1563.0000000000002 439.89285714285717
decision_type=2 8 10 2 10 10
left_child=1 5 3 4 -3 -1
right_child=-2 2 -4 -5 -6 -7
leaf_value=-0.07619543108277238 8.5688872425825071 -0.66880815397439752 1.4812022467256387 -3.9946489562209857 0.69217689661648929 -1.50516498607039
leaf_weight=23 29 42 32 46 30 259
leaf_count=23 29 42 32 46 30 259
internal_value=-7.08162e-05 -0.000974829 0.00135484 -0.000439025 0.00109091 -0.00221603
internal_weight=461 432 150 118 72 282
internal_count=461 432 150 118 72 282
is_linear=0
shrinkage=0.03


Tree=27
num_leaves=7
num_cat=1
split_feature=56 64 59 56 56 20
split_gain=5.81785 1.40619 0.906177 0.478775 0.732931 0.47443
threshold=753.75000000000011 0 1563.0000000000002 544.25000000000011 555.62500000000011 3.0000000000000004
decision_type=10 1 10 8 10 2
left_child=1 2 -1 -3 -5 -4
right_child=-2 3 5 4 -6 -7
leaf_value=-0.56540554948117705 7.1548430798185647 -2.4767802077755379 0.14345070324467693 0.095358870059717868 -1.0837325037814378 1.5313999441236601
leaf_weight=58 31 208 24 31 100 21
leaf_count=58 31 208 24 31 100 21
internal_value=-1.88292e-05 -0.000953021 0.00195763 -0.00185593 -0.000463236 0.0051
internal_weight=473 442 103 339 131 45
internal_count=473 442 103 339 131 45
cat_boundaries=0 1
cat_threshold=8
is_linear=0
shrinkage=0.03


Tree=28
num_leaves=7
num_cat=0
split_feature=55 55 50 57 48 0
split_gain=5.97226 1.34921 0.846804 0.999665 0.381584 1.8082
threshold=835.50000000000011 654.50000000000011 484.50000000000006 0.34038807440076574 -1.2499999999999998 8.5000000000000018
decision_type=10 8 10 10 2 2
left_child=1 4 -3 -4 -1 -6
right_child=-2 2 3 -5 5 -7
leaf_value=-1.1263967850438779 7.0651745289630252 -0.5172188818772564 0.11829827113235618 0.92989311022608923 -1.4562145621449469 0.47357638278961228
leaf_weight=220 27 38 37 22 114 34
leaf_count=220 27 38 37 22 114 34
internal_value=-7.24353e-05 -0.000925533 0.00214706 0.00426562 -0.00175335 -0.00054902
internal_weight=492 465 97 59 368 148
internal_count=492 465 97 59 368 148
is_linear=0
shrinkage=0.03


Tree=29
num_leaves=7
num_cat=0
split_feature=56 56 50 21 50 58
split_gain=6.79744 1.70261 0.977778 0.912006 0.716072 0.663001
threshold=730.12500000000011 544.25000000000011 675.50000000000011 10.500000000000002 325.50000000000006 0.37178923012727211
decision_type=10 8 10 2 10 10
left_child=1 -1 -2 4 -3 -6
right_child=2 3 -4 -5 5 -7
leaf_value=-2.0960761876172938 1.0350887128640338 -2.4325969838110333 7.8552201614145973 -0.95460940193083144 0.47141550483179079 -1.4545594167881042
leaf_weight=227 20 23 20 42 117 24
leaf_count=227 20 23 20 42 117 24
internal_value=0.000232217 -0.00091096 0.0113333 0.00105213 0.00205917 0.00285616
internal_weight=473 433 40 206 164 141
internal_count=473 433 40 206 164 141
is_linear=0
shrinkage=0.03


Tree=30
num_leaves=7
num_cat=0
split_feature=56 56 59 6 1 58
split_gain=5.17129 1.55493 0.912383 0.542594 0.572763 1.14792
threshold=753.75000000000011 548.62500000000011 1356.0000000000002 1.0000000180025095e-35 10.500000000000002 0.36369760632215165
decision_type=10 8 10 2 2 8
left_child=1 -1 -3 -4 5 -5
right_child=-2 2 3 4 -6 -7
leaf_value=-1.734384152759989 7.4243258878298644 -1.3546822851807234 -0.38570119095180594 0.82657778126253245 -0.027103470810870309 -0.51513021953456362
leaf_weight=239 27 54 26 61 40 22
leaf_count=239 27 54 26 61 40 22
internal_value=-0.000120254 -0.000953021 0.000966345 0.00216234 0.00297656 0.00432954
internal_weight=469 442 203 149 123 83
internal_count=469 442 203 149 123 83
is_linear=0
shrinkage=0.03


Tree=31
num_leaves=7
num_cat=0
split_feature=56 56 60 53 21 50
split_gain=6.67129 1.21866 0.822255 0.9462 0.270698 0.283063
threshold=753.75000000000011 544.25000000000011 1809.2000000000003 450.71428571428572 9.5000000000000018 525.50000000000011
decision_type=10 8 10 10 2 10
left_child=1 -1 3 -3 5 -5
right_child=-2 2 -4 4 -6 -7
leaf_value=-1.6260531341371534 6.7277903030976107 1.217577016192706 0.65004581469042744 0.050817688224509529 -0.78974805257310265 -0.48561809629156444
leaf_weight=246 28 24 32 56 54 39
leaf_count=246 28 24 32 56 54 39
internal_value=-0.000117769 -0.00105921 0.000642856 -0.000219102 -0.00114935 -0.000150001
internal_weight=479 451 205 173 149 95
internal_count=479 451 205 173 149 95
is_linear=0
shrinkage=0.03


Tree=32
num_leaves=7
num_cat=1
split_feature=55 55 64 20 62 58
split_gain=3.77314 1.09869 0.804293 0.852909 1.00063 0.356425
threshold=940.00000000000011 553.50000000000011 0 3.0000000000000004 2011.2500000000002 0.35225953774154695
decision_type=10 8 1 2 8 10
left_child=1 5 3 -3 -5 -1
right_child=-2 2 -4 4 -6 -7
leaf_value=-2.6652174456808653 6.6206826562353021 0.013900536696117651 -0.47493901906559249 1.476879124799227 0.53355209595854136 -0.11993751290013702
leaf_weight=206 23 73 100 20 23 34
leaf_count=206 23 73 100 20 23 34
internal_value=-0.00030372 -0.000950109 0.000597284 0.00215267 0.0054375 -0.00232653
internal_weight=479 456 216 116 43 240
internal_count=479 456 216 116 43 240
cat_boundaries=0 1
cat_threshold=24
is_linear=0
shrinkage=0.03


Tree=33
num_leaves=7
num_cat=0
split_feature=56 56 50 56 54 1
split_gain=7.21741 1.49843 0.977253 0.425408 0.792237 0.724567
threshold=753.75000000000011 653.75000000000011 484.50000000000006 548.62500000000011 146.65157230831019 10.500000000000002
decision_type=10 8 10 10 10 2
left_child=1 3 -3 -1 5 -5
right_child=-2 2 -4 4 -6 -7
leaf_value=-1.8795772458698772 6.7460626979743799 -0.64944185662792608 0.81041713374839519 0.46394314666544578 -0.26762112590419845 -0.15809854961914319
leaf_weight=236 29 34 43 25 72 31
leaf_count=236 29 34 43 25 72 31
internal_value=-7.07727e-10 -0.0010157 0.00267073 -0.00182114 -0.000406016 0.00216393
internal_weight=470 441 77 364 128 56
internal_count=470 441 77 364 128 56
is_linear=0
shrinkage=0.03


Tree=34
num_leaves=7
num_cat=0
split_feature=56 56 21 57 55 56
split_gain=6.59774 1.39599 1.05418 1.02969 1.16644 0.854568
threshold=774.00000000000011 544.25000000000011 9.5000000000000018 0.29136417195250874 565.00000000000011 660.37500000000011
decision_type=10 8 2 10 10 10
left_child=1 -1 3 -3 -5 -6
right_child=-2 2 -4 4 5 -7
leaf_value=-1.8724104442632685 6.4886008278374687 -0.47056508792956553 -0.70946137084685612 0.35370310725954662 -0.13894071514134643 0.82442377175819304
leaf_weight=243 31 46 63 24 58 28
leaf_count=243 31 46 63 24 58 28
internal_value=4.2168e-05 -0.000912206 0.000816964 0.00212422 0.00365217 0.00178022
internal_weight=493 462 219 156 110 86
internal_count=493 462 219 156 110 86
is_linear=0
shrinkage=0.03


Tree=35
num_leaves=7
num_cat=0
split_feature=55 55 22 57 60 51
split_gain=3.91283 1.30885 0.627725 0.876813 0.459336 0.409853
threshold=940.00000000000011 522.00000000000011 12.500000000000002 0.33370899416836491 1820.3000000000002 500.00000000000006
decision_type=10 8 2 10 10 10
left_child=1 -1 3 5 -4 -3
right_child=-2 2 4 -5 -6 -7
leaf_value=-2.2189222234402202 6.0250222707738921 -0.89486775202331814 -0.54788587167868696 0.60931461052706581 0.38810312401338315 0.12788067731259184
leaf_weight=220 23 43 118 25 25 28
leaf_count=220 23 43 118 25 25 28
internal_value=-0.000505134 -0.00115733 0.000381147 0.00219802 -0.000871622 0.000355262
internal_weight=482 459 239 96 143 71
internal_count=482 459 239 96 143 71
is_linear=0
shrinkage=0.03


Tree=36
num_leaves=7
num_cat=0
split_feature=56 51 56 54 19 61
split_gain=3.57983 2.86109 0.5057 0.425869 0.443929 0.223559
threshold=689.87500000000011 530.00000000000011 550.62500000000011 154.61372754465114 1.0000000180025095e-35 1695.5500000000004
decision_type=8 10 10 10 2 10
left_child=2 -2 -1 4 5 -4
right_child=1 -3 3 -5 -6 -7
leaf_value=-1.4913408712147933 -0.1085511828304085 5.6285438248554422 -1.4608235125113764 -0.62912591737953361 0.44817250267156661 0.038956333973313162
leaf_weight=250 36 34 23 78 33 27
leaf_count=250 36 34 23 78 33 27
internal_value=-0.000438272 0.0056 -0.00152164 -0.000198796 0.00126136 -0.000545455
internal_weight=481 70 411 161 83 50
internal_count=481 70 411 161 83 50
is_linear=0
shrinkage=0.03


Tree=37
num_leaves=7
num_cat=0
split_feature=56 56 53 60 22 58
split_gain=3.99038 1.04671 0.808917 0.544871 0.331809 0.207146
threshold=753.75000000000011 544.25000000000011 450.71428571428572 1776.7000000000003 9.5000000000000018 0.34408814863344644
decision_type=10 8 10 10 2 8
left_child=1 -1 -3 4 -4 -5
right_child=-2 2 3 5 -6 -7
leaf_value=-1.5163649719570649 6.0820346459920556 1.3446459675204561 0.025534101435089513 0.51894568471000768 -0.78545847014361758 0.0061341061571441192
leaf_weight=232 26 22 46 22 90 26
leaf_count=232 26 22 46 22 90 26
internal_value=-0.000345416 -0.00106998 0.000483412 -0.000222223 -0.00119149 0.00237736
internal_weight=464 438 206 184 136 48
internal_count=464 438 206 184 136 48
is_linear=0
shrinkage=0.03


Tree=38
num_leaves=7
num_cat=0
split_feature=55 55 55 62 59 22
split_gain=2.87711 0.894691 0.499157 0.559315 0.680527 0.563452
threshold=978.00000000000011 553.50000000000011 568.50000000000011 1595.3750000000002 1910.0000000000002 23.500000000000004
decision_type=10 8 8 8 8 2
left_child=1 -1 -3 -4 5 -5
right_child=-2 2 3 4 -6 -7
leaf_value=-1.984555418799592 6.0372710265566818 0.27652454660497305 -0.76854448021230171 0.47747837906043888 -0.22856776336666684 -0.35976404835632575
leaf_weight=232 21 23 55 65 57 24
leaf_count=232 21 23 55 65 57 24
internal_value=-0.000603735 -0.00114534 0.000209606 -0.000305826 0.000675496 0.00226596
internal_weight=477 456 224 201 146 89
internal_count=477 456 224 201 146 89
is_linear=0
shrinkage=0.03


Tree=39
num_leaves=7
num_cat=0
split_feature=55 55 59 61 61 56
split_gain=3.53441 1.19962 0.471001 0.704549 0.738083 0.866977
threshold=1037.5000000000002 518.50000000000011 1153.5000000000002 1561.2500000000002 1713.6000000000001 625.50000000000011
decision_type=10 8 10 10 10 10
left_child=1 -1 -3 -4 -5 -6
right_child=-2 2 3 4 5 -7
leaf_value=-1.9830497200640933 5.6382969566953296 -1.4197643594887475 1.4830678296605606 -0.26915501593666613 -0.05824847480843328 0.72562070744126639
leaf_weight=201 20 32 31 91 65 41
leaf_count=201 20 32 31 91 65 41
internal_value=-0.000191359 -0.000778971 0.000566037 0.00105579 0.000341583 0.002
internal_weight=481 461 260 228 197 106
internal_count=481 461 260 228 197 106
is_linear=0
shrinkage=0.03


Tree=40
num_leaves=7
num_cat=0
split_feature=55 55 54 52 22 51
split_gain=3.90339 1.5267 0.595765 1.04169 0.625709 0.422007
threshold=990.50000000000011 551.00000000000011 155.39817934185774 541.57142857142878 12.500000000000002 438.16666666666669
decision_type=10 8 10 10 2 10
left_child=1 -1 3 5 -4 -3
right_child=-2 2 4 -5 -6 -7
leaf_value=-1.9221556423011505 5.7921072009355834 0.10559544859588228 0.51672091453406432 -0.30637047597400124 -0.39645969828776589 0.66900913761072101
leaf_weight=228 22 20 44 44 77 36
leaf_count=228 22 20 44 44 77 36
internal_value=-0.000195379 -0.000852424 0.000915929 0.00257143 -0.000500001 0.00511475
internal_weight=471 449 221 100 121 56
internal_count=471 449 221 100 121 56
is_linear=0
shrinkage=0.03


Tree=41
num_leaves=7
num_cat=0
split_feature=56 57 56 53 54 62
split_gain=3.23693 1.82462 0.787966 0.857259 0.709709 0.417362
threshold=689.87500000000011 0.36231874042582163 544.25000000000011 450.71428571428572 122.71686343296994 1857.8750000000002
decision_type=10 10 8 10 10 10
left_child=2 -2 -1 -4 -5 -6
right_child=1 -3 3 4 5 -7
leaf_value=-1.4412855045333481 0.087762441772189115 3.9816215713035152 1.3023997746983969 0.41903740125385569 -0.87778374131844705 0.040475796974976441
leaf_weight=240 26 28 22 23 86 55
leaf_count=240 26 28 22 23 86 55
internal_value=-0.000185568 0.00640678 -0.00108585 0.000376963 -0.000426036 -0.00125343
internal_weight=480 54 426 186 164 141
internal_count=480 54 426 186 164 141
is_linear=0
shrinkage=0.03


Tree=42
num_leaves=7
num_cat=0
split_feature=56 51 55 54 50 22
split_gain=3.11176 1.19852 0.858936 0.551307 1.02403 0.534043
threshold=689.87500000000011 531.33333333333337 518.50000000000011 154.87873273288244 584.50000000000011 12.500000000000002
decision_type=10 10 8 10 10 2
left_child=2 -2 -1 4 -4 -5
right_child=1 -3 3 5 -6 -7
leaf_value=-1.9347233359071438 0.3111278712724001 3.3707122266789771 -0.16076447191493107 0.64980343615866409 0.61829854418720698 -0.7540545505292735
leaf_weight=202 23 29 71 40 31 73
leaf_count=202 23 29 71 40 31 73
internal_value=-0.000373418 0.00621053 -0.00125829 6.81811e-05 0.00162617 -0.00134746
internal_weight=469 52 417 215 102 113
internal_count=469 52 417 215 102 113
is_linear=0
shrinkage=0.03


Tree=43
num_leaves=7
num_cat=0
split_feature=56 53 55 54 50 22
split_gain=2.86146 1.2273 0.768487 1.1987 0.56732 0.248005
threshold=689.87500000000011 611.50000000000011 484.50000000000006 143.58696799850426 584.50000000000011 15.500000000000002
decision_type=10 10 8 8 10 2
left_child=2 -2 -1 4 5 -4
right_child=1 -3 3 -5 -6 -7
leaf_value=-2.0947469115889836 0.44293943857524709 4.0150215064436496 0.10367550085177898 -0.15061409120587865 0.78813743585519158 -0.44338724328474838
leaf_weight=160 28 29 24 165 30 22
leaf_count=160 28 29 24 165 30 22
internal_value=-5.18366e-05 0.00595161 -0.000967981 0.000109755 0.00311111 0.000823529
internal_weight=458 57 401 241 76 46
internal_count=458 57 401 241 76 46
is_linear=0
shrinkage=0.03


Tree=44
num_leaves=7
num_cat=0
split_feature=55 55 51 57 62 58
split_gain=2.86709 1.33727 0.800512 1.15453 0.83217 0.578632
threshold=990.50000000000011 551.00000000000011 612.33333333333337 0.33320707892197771 2011.2500000000002 0.35283075884852971
decision_type=10 8 8 8 10 8
left_child=1 -1 3 5 -5 -3
right_child=-2 2 -4 4 -6 -7
leaf_value=-1.7856171725483436 5.3348630739683118 0.11010038122179713 -0.83911668711818732 1.3890410094463921 0.050794800327347595 -0.66708296216871321
leaf_weight=228 20 85 42 28 23 40
leaf_count=228 20 85 42 28 23 40
internal_value=-0.000292994 -0.000838138 0.00083408 0.00172376 0.00530357 0.000115384
internal_weight=466 446 218 176 51 125
internal_count=466 446 218 176 51 125
is_linear=0
shrinkage=0.03


Tree=45
num_leaves=7
num_cat=0
split_feature=56 56 57 50 61 61
split_gain=2.2097 0.81077 0.709113 0.600242 0.783288 0.56361
threshold=689.87500000000011 495.87500000000006 0.36231874042582163 325.50000000000006 1569.1500000000003 1789.9000000000003
decision_type=10 8 10 10 10 10
left_child=1 -1 -2 -3 -5 -6
right_child=2 3 -4 4 5 -7
leaf_value=-2.382225345190585 0.34684314813830536 -1.6663596474737947 2.989094322466249 0.52878799556273537 -0.071354547971142171 0.45728476749554059
leaf_weight=173 22 49 29 26 131 37
leaf_count=173 22 49 29 26 131 37
internal_value=-0.00029873 -0.00104038 0.00530357 8.46767e-05 0.00084422 3.46814e-05
internal_weight=467 416 51 243 194 168
internal_count=467 416 51 243 194 168
is_linear=0
shrinkage=0.03


Tree=46
num_leaves=7
num_cat=0
split_feature=55 55 60 58 53 59
split_gain=2.66974 0.897867 0.730382 0.724777 0.50793 0.377885
threshold=990.50000000000011 474.50000000000006 1809.2000000000003 0.32990953631764336 466.71428571428578 1356.0000000000002
decision_type=10 8 10 10 8 10
left_child=1 -1 4 -4 -3 -6
right_child=-2 2 3 -5 5 -7
leaf_value=-1.7865364910501305 5.0698822483635819 1.3609469093290905 -0.14616646298725464 0.31657358438858546 -1.0516130764554865 -0.02850449804745683
leaf_weight=159 21 20 24 25 63 155
leaf_count=159 21 20 24 25 63 155
internal_value=-0.00023517 -0.000771619 0.000236301 0.00338889 -0.000469137 -0.000914799
internal_weight=467 446 287 49 238 218
internal_count=467 446 287 49 238 218
is_linear=0
shrinkage=0.03


Tree=47
num_leaves=7
num_cat=0
split_feature=55 56 21 50 54 56
split_gain=3.50773 1.53502 0.832195 0.490782 0.568706 0.760737
threshold=990.50000000000011 544.25000000000011 9.5000000000000018 350.00000000000006 154.61372754465114 598.75000000000011
decision_type=10 8 2 10 10 10
left_child=1 -1 3 -3 5 -5
right_child=-2 2 -4 4 -6 -7
leaf_value=-1.499614231825906 4.9330478846243668 -1.1547418179814071 -0.59588717278795389 0.51786966300663373 0.047298952118221264 0.18268232668800158
leaf_weight=231 20 24 70 25 62 41
leaf_count=231 20 24 70 25 62 41
internal_value=-0.000144352 -0.000740175 0.00103084 0.00225478 0.00297744 0.0048169
internal_weight=473 453 222 152 128 66
internal_count=473 453 222 152 128 66
is_linear=0
shrinkage=0.03


Tree=48
num_leaves=7
num_cat=0
split_feature=56 56 54 55 54 56
split_gain=2.93577 0.867752 0.544137 0.670045 0.303043 0.276239
threshold=730.12500000000011 544.25000000000011 154.87873273288244 610.50000000000011 307.68500431988758 659.83333333333337
decision_type=10 10 10 10 8 10
left_child=1 4 3 -3 -1 -4
right_child=-2 2 5 -5 -6 -7
leaf_value=-1.512920222813537 4.5161283766849021 0.34161630272152066 -0.63379264265190816 -0.18298962905243718 0.090666248813422126 0.30714995132900202
leaf_weight=225 37 44 67 46 20 25
leaf_count=225 37 44 67 46 20 25
internal_value=-0.000217485 -0.00095139 0.000609625 0.00221053 -0.0021 -0.000989691
internal_weight=464 427 182 90 245 92
internal_count=464 427 182 90 245 92
is_linear=0
shrinkage=0.03


Tree=49
num_leaves=7
num_cat=0
split_feature=20 58 60 50 55 55
split_gain=2.02409 0.906544 0.857899 0.43955 0.822326 0.429824
threshold=11.250000000000002 0.33223475609668807 1809.2000000000003 333.50000000000006 559.50000000000011 484.50000000000006
decision_type=2 10 10 10 10 8
left_child=1 5 3 -3 -5 -1
right_child=-2 2 -4 4 -6 -7
leaf_value=-3.1400795697365571 5.0929301153669027 -1.560004450538834 0.26748456283508826 0.32254091919339645 -0.031043762512691232 -0.059415275913308641
leaf_weight=147 25 35 29 26 93 123
leaf_count=147 25 35 29 26 93 123
internal_value=-4.96901e-05 -0.000543669 0.00106915 0.000113207 0.000991935 -0.00163636
internal_weight=478 453 183 154 119 270
internal_count=478 453 183 154 119 270
is_linear=0
shrinkage=0.03


Tree=50
num_leaves=7
num_cat=0
split_feature=56 20 50 55 62 62
split_gain=1.68557 1.22642 0.488207 0.767581 1.33617 0.350741
threshold=526.87500000000011 11.250000000000002 325.50000000000006 570.50000000000011 1864.5000000000002 1840.6250000000002
decision_type=10 2 10 10 10 10
left_child=-1 2 -2 4 -4 -5
right_child=1 -3 3 5 -6 -7
leaf_value=-1.3978643967212991 -1.318270015322029 5.1441421877685354 0.43319493799520276 -0.047886575985757532 -0.49986673005298504 0.13036880542060472
leaf_weight=229 26 21 28 58 20 83
leaf_count=229 26 21 28 58 20 83
internal_value=3.19142e-05 0.00179253 0.00102273 0.00156185 0.00464151 0.00039041
internal_weight=465 236 215 189 48 141
internal_count=465 236 215 189 48 141
is_linear=0
shrinkage=0.03


Tree=51
num_leaves=7
num_cat=0
split_feature=56 20 54 62 59 59
split_gain=1.76099 1.06944 0.609583 0.970935 0.591105 0.882666
threshold=495.87500000000006 11.250000000000002 148.67421675078964 1636.8750000000002 1533.0000000000002 1605.0000000000002
decision_type=8 2 10 8 10 10
left_child=-1 2 3 -2 -4 -6
right_child=1 -3 4 -5 5 -7
leaf_value=-1.8338324512245985 0.34268899984614204 4.4187702657585302 -1.3572402084859823 0.021436446069841315 1.0176065027906829 -0.032315403592225699
leaf_weight=179 28 25 64 86 27 75
leaf_count=179 28 25 64 86 27 75
internal_value=-0.000269939 0.0011129 0.000526315 0.00216807 -0.00063158 0.000785046
internal_weight=484 305 280 114 166 102
internal_count=484 305 280 114 166 102
is_linear=0
shrinkage=0.03


Tree=52
num_leaves=7
num_cat=0
split_feature=56 51 56 50 55 0
split_gain=1.89544 1.44159 0.789678 0.804224 0.93721 1.99056
threshold=689.87500000000011 562.33333333333337 493.37500000000006 325.50000000000006 570.50000000000011 10.500000000000002
decision_type=10 10 8 10 10 2
left_child=2 -2 -1 -4 5 -5
right_child=1 -3 3 4 -6 -7
leaf_value=-2.1495097983743161 0.091409389756917828 4.1946352160065778 -1.4355248214749707 -0.66812440793521599 -0.01956682620205653 0.28712525200586325
leaf_weight=162 32 21 56 43 121 36
leaf_count=162 32 21 56 43 121 36
internal_value=-6.93284e-05 0.00501724 -0.000765958 0.000275861 0.00117073 0.00360714
internal_weight=471 53 418 256 200 79
internal_count=471 53 418 256 200 79
is_linear=0
shrinkage=0.03


Tree=53
num_leaves=7
num_cat=0
split_feature=55 56 54 21 60 59
split_gain=1.66669 0.690928 0.687532 0.677083 0.742699 0.431463
threshold=1037.5000000000002 493.37500000000006 155.39817934185774 3.5000000000000004 1763.7000000000003 1573.5000000000002
decision_type=10 8 10 2 8 10
left_child=1 -1 3 -3 -5 -4
right_child=-2 2 5 4 -6 -7
leaf_value=-2.1535364732634807 3.7035593621033822 0.68970226899437104 -1.1292160909346327 -0.045384768075551633 0.16951558898723448 0.012825102314810925
leaf_weight=171 20 29 72 78 25 81
leaf_count=171 20 29 72 78 25 81
internal_value=-0.000349273 -0.000754881 0.000155172 0.00170803 0.000472222 -0.0011962
internal_weight=476 456 285 132 103 153
internal_count=476 456 285 132 103 153
is_linear=0
shrinkage=0.03


Tree=54
num_leaves=7
num_cat=0
split_feature=20 53 50 61 54 19
split_gain=2.21476 0.720728 1.19834 0.457366 0.477024 0.258365
threshold=11.250000000000002 447.96428571428578 333.50000000000006 1695.5500000000004 154.87873273288244 1.0000000180025095e-35
decision_type=2 10 10 10 10 2
left_child=1 2 -1 -3 5 -5
right_child=-2 3 -4 4 -6 -7
leaf_value=-2.6759505554555294 4.2123089523193995 -0.70360700102340668 0.39094815236337876 -0.078937916972889821 -0.11357560276088913 0.38856398200246633
leaf_weight=21 29 201 25 53 127 23
leaf_count=21 29 201 25 53 127 23
internal_value=-0.000241736 -0.000791209 0.00258823 -0.00120293 -0.000187501 0.00162963
internal_weight=479 450 46 404 203 76
internal_count=479 450 46 404 203 76
is_linear=0
shrinkage=0.03


Tree=55
num_leaves=7
num_cat=0
split_feature=58 59 52 62 58 55
split_gain=1.48757 1.28923 1.24351 1.05208 0.609653 0.501327
threshold=0.3350450349653385 1843.5000000000002 595.78571428571433 1636.8750000000002 0.33927390978566985 501.50000000000006
decision_type=8 10 10 8 10 10
left_child=5 4 3 -3 -2 -1
right_child=1 2 -4 -5 -6 -7
leaf_value=-2.4234203352100514 0.31135877816936658 0.6883019295786188 3.1825991781590162 -0.64279631357904909 -0.14313000305972187 -0.019385128117706117
leaf_weight=166 25 20 33 35 110 103
leaf_count=166 25 20 33 35 110 103
internal_value=-0.000253522 0.00153947 0.00425806 0.00125 -0.000321429 -0.00174088
internal_weight=492 223 88 55 135 269
internal_count=492 223 88 55 135 269
is_linear=0
shrinkage=0.03


Tree=56
num_leaves=7
num_cat=0
split_feature=56 53 20 54 60 61
split_gain=1.44513 1.11979 1.17705 0.732722 0.69827 0.292108
threshold=470.12500000000006 447.96428571428578 11.250000000000002 154.87873273288244 1764.4000000000003 1609.6000000000001
decision_type=8 8 2 10 10 10
left_child=-1 -2 3 4 -3 -5
right_child=1 2 -4 5 -6 -7
leaf_value=-2.6324749720520035 1.0000616224600778 -0.00017216839049622311 3.793214259845139 0.014719665575466482 0.37271276342522269 -0.20734863041415805
leaf_weight=132 25 103 22 26 35 145
leaf_count=132 25 103 22 26 35 145
internal_value=-4.86822e-05 0.000947368 0.000437499 -8.5988e-05 0.00151049 -0.00138068
internal_weight=488 356 331 309 138 171
internal_count=488 356 331 309 138 171
is_linear=0
shrinkage=0.03


Tree=57
num_leaves=7
num_cat=0
split_feature=20 58 50 52 61 20
split_gain=1.54652 0.863725 1.48003 1.39545 0.349792 0.391313
threshold=11.250000000000002 0.31646778331822445 579.50000000000011 620.64285714285722 1789.9000000000003 4.2500000000000009
decision_type=2 8 10 10 8 2
left_child=1 -1 4 -4 5 -3
right_child=-2 2 3 -5 -6 -7
leaf_value=-1.9190448363056012 3.7662860521602828 -0.61134387394844369 0.93195207149284853 -0.077179996246113616 0.035170456366399261 0.55080126189386458
leaf_weight=213 33 134 32 22 30 24
leaf_count=213 33 134 32 22 30 24
internal_value=-0.000535498 -0.00101087 0.000218623 0.00437288 -0.001057 -0.00161963
internal_weight=488 455 242 54 188 158
internal_count=488 455 242 54 188 158
is_linear=0
shrinkage=0.03


Tree=58
num_leaves=7
num_cat=0
split_feature=58 50 53 50 19 48
split_gain=1.14356 0.935877 0.901846 0.427771 0.479979 0.57899
threshold=0.3139059814763735 325.50000000000006 473.85714285714295 708.50000000000011 3.0000000000000004 -1.2499999999999998
decision_type=10 10 10 10 2 2
left_child=-1 -2 -3 4 5 -4
right_child=1 2 3 -5 -6 -7
leaf_value=-1.2429591034444525 -1.2235679544562184 1.2719907343105106 0.0085057150192248861 1.3581651688621197 -0.033804969446192094 0.47542814446648646
leaf_weight=207 46 20 73 20 90 20
leaf_count=207 46 20 73 20 90 20
internal_value=-0.000286903 0.00099635 0.00180263 0.00111058 0.000590425 0.00205102
internal_weight=476 269 223 203 183 93
internal_count=476 269 223 203 183 93
is_linear=0
shrinkage=0.03


Tree=59
num_leaves=7
num_cat=0
split_feature=56 61 58 51 56 21
split_gain=0.906109 0.832075 0.63145 0.468005 0.428473 0.502053
threshold=543.00000000000011 1808.7000000000003 0.34523456802657931 566.16666666666686 566.87500000000011 6.5000000000000009
decision_type=8 8 10 10 8 2
left_child=2 4 -1 -3 -2 -6
right_child=1 3 -4 -5 5 -7
leaf_value=-1.7039736905748819 0.035321758400630558 0.065912060865391198 0.19141486689026746 0.90141803791755271 0.22362531501906396 -0.46371337504092847
leaf_weight=207 34 27 36 20 72 88
leaf_count=207 34 27 36 20 72 88
internal_value=-0.000453988 0.000841463 -0.00172984 0.00421154 -6.03022e-05 -0.000727273
internal_weight=484 241 243 47 194 160
internal_count=484 241 243 47 194 160
is_linear=0
shrinkage=0.03


Tree=60
num_leaves=7
num_cat=0
split_feature=58 50 55 58 54 55
split_gain=1.52214 1.61873 0.872682 1.28696 0.621786 0.443771
threshold=0.34450595574613102 608.50000000000011 608.50000000000011 0.36218070819006992 220.74712058029431 484.50000000000006
decision_type=8 10 8 10 10 10
left_child=5 2 3 -2 -3 -1
right_child=1 4 -4 -5 -6 -7
leaf_value=-2.0891358114538416 0.54995710596639125 1.8685738704464845 -0.43113066591272514 -0.5680164250222457 1.2442231293277879 -0.070678909842286711
leaf_weight=142 21 22 70 46 21 148
leaf_count=142 21 22 70 46 21 148
internal_value=-0.000189474 0.00194595 0.000274647 0.002625 0.0066875 -0.00152542
internal_weight=470 180 137 67 43 290
internal_count=470 180 137 67 43 290
is_linear=0
shrinkage=0.03


Tree=61
num_leaves=7
num_cat=1
split_feature=64 58 54 54 59 48
split_gain=0.909721 0.662059 0.565206 0.908387 0.612428 0.526075
threshold=0 0.23815862905500229 143.58696799850426 135.24959279836455 2074.0000000000005 1.2500000000000002
decision_type=1 8 10 8 10 2
left_child=-1 -2 3 4 -3 -4
right_child=1 2 5 -5 -6 -7
leaf_value=-1.1415993012388559 -2.355946407982104 -0.4167791846807154 -0.022943355442330473 0.8247101135578192 0.41924981913538656 1.6933725473782144
leaf_weight=188 39 38 113 21 31 37
leaf_count=188 39 38 113 21 31 37
internal_value=-0.000362289 0.000724489 0.00134694 0.00315789 0.00125676 0.000193548
internal_weight=467 279 240 90 69 150
internal_count=467 279 240 90 69 150
cat_boundaries=0 1
cat_threshold=3
is_linear=0
shrinkage=0.03


Tree=62
num_leaves=7
num_cat=1
split_feature=56 59 53 64 62 55
split_gain=0.947073 0.765345 0.367951 0.529413 0.577425 0.304389
threshold=493.37500000000006 2181.0000000000005 447.96428571428578 0 1904.2500000000002 474.50000000000006
decision_type=8 10 10 1 8 10
left_child=5 2 -2 4 -4 -1
right_child=1 -3 3 -5 -6 -7
leaf_value=-2.4144385940343729 0.23522645841489936 0.76744459057429404 1.5547991672698638 -0.64887999412737041 -0.015025571946432545 0.01651435756268568
leaf_weight=128 27 27 24 113 110 38
leaf_count=128 27 27 24 113 110 38
internal_value=-0.000425848 0.000578431 6.45154e-05 -0.000321429 0.000926174 -0.00221053
internal_weight=467 301 274 247 134 166
internal_count=467 301 274 247 134 166
cat_boundaries=0 1
cat_threshold=24
is_linear=0
shrinkage=0.03


Tree=63
num_leaves=7
num_cat=0
split_feature=58 50 54 48 62 50
split_gain=1.06648 1.10844 1.2223 1.01068 1.06739 0.438261
threshold=0.3139059814763735 325.50000000000006 155.92985269754794 -1.2499999999999998 1535.3750000000002 695.00000000000011
decision_type=8 10 10 2 10 10
left_child=-1 -2 3 4 -3 -4
right_child=1 2 5 -5 -6 -7
leaf_value=-1.6856951711442756 -1.0615908851336138 0.17652262582826439 -0.065604244817710947 0.80843518745272347 -0.089830797883421479 1.6018714556934182
leaf_weight=195 53 21 110 30 43 20
leaf_count=195 53 21 110 30 43 20
internal_value=-0.000201259 0.000989361 0.00191266 0.00442424 0.002 -6.88765e-10
internal_weight=472 277 224 94 64 130
internal_count=472 277 224 94 64 130
is_linear=0
shrinkage=0.03


Tree=64
num_leaves=7
num_cat=0
split_feature=56 55 58 22 19 59
split_gain=1.39207 0.894033 0.75022 0.670048 0.847091 1.45921
threshold=495.87500000000006 990.50000000000011 0.36160429069174654 22.500000000000004 1.0000000180025095e-35 1869.5000000000002
decision_type=10 10 10 2 2 10
left_child=-1 2 3 4 -2 -6
right_child=1 -3 -4 -5 5 -7
leaf_value=-1.3508528452186801 -0.068392273646312091 3.3050665097414833 -0.54325997194883857 -0.1190556729399451 1.1453941996243089 0.019806985667989198
leaf_weight=186 61 23 73 55 31 40
leaf_count=186 61 23 73 55 31 40
internal_value=-0.000310127 0.00101042 0.000452829 0.00145312 0.00258394 0.00469737
internal_weight=469 283 260 187 132 71
internal_count=469 283 260 187 132 71
is_linear=0
shrinkage=0.03


Tree=65
num_leaves=7
num_cat=0
split_feature=55 54 58 55 59 22
split_gain=1.09052 1.0319 1.3076 1.21922 0.852669 0.770564
threshold=1163.0000000000002 155.39817934185774 0.33528042576193268 570.50000000000011 2074.0000000000005 17.500000000000004
decision_type=8 10 10 10 10 2
left_child=1 2 4 -4 -1 -5
right_child=-2 -3 3 5 -6 -7
leaf_value=-0.95011079841237545 2.8486297822859101 -0.60026751972306436 0.32036700736299445 -0.89298583990600877 0.28994179765487305 0.67251394637568285
leaf_weight=107 21 257 28 26 24 21
leaf_count=107 21 257 28 26 24 21
internal_value=-0.000331289 -0.000660257 0.000909952 0.0039375 -0.000904412 0.000749999
internal_weight=484 463 206 75 131 47
internal_count=484 463 206 75 131 47
is_linear=0
shrinkage=0.03


Tree=66
num_leaves=7
num_cat=0
split_feature=58 20 54 59 51 62
split_gain=1.21609 0.935419 1.13623 0.743456 0.368668 0.299077
threshold=0.3350450349653385 1.0000000180025095e-35 187.4126896191697 1884.5000000000002 518.66666666666686 1506.6250000000002
decision_type=10 2 10 10 10 8
left_child=5 -2 4 -4 -3 -1
right_child=1 2 3 -5 -6 -7
leaf_value=-2.7206350894848215 -0.077726151817140918 1.0271827818863359 -0.18699594515658391 1.4676491694487861 0.028796849866849931 -0.10711449531404119
leaf_weight=90 76 20 52 24 22 188
leaf_count=90 76 20 52 24 22 188
internal_value=-0.000201259 0.00159799 0.00321951 0.000888888 0.00689362 -0.0014629
internal_weight=472 194 118 76 42 278
internal_count=472 194 118 76 42 278
is_linear=0
shrinkage=0.03


Tree=67
num_leaves=7
num_cat=0
split_feature=56 54 56 48 52 59
split_gain=1.17665 0.745014 1.06712 0.991359 0.66284 0.251709
threshold=925.25000000000011 155.39817934185774 443.25000000000006 -1.2499999999999998 565.14285714285722 1409.5000000000002
decision_type=10 10 10 2 10 10
left_child=1 2 -1 4 5 -4
right_child=-2 -3 3 -5 -6 -7
leaf_value=-4.7147824884008118 3.2517861662824661 -0.51117841728155289 0.17820984817907204 0.79248475662059015 0.24917790652217603 -0.60165191483372193
leaf_weight=69 20 238 25 37 26 60
leaf_count=69 20 238 25 37 26 60
internal_value=-0.000343751 -0.000684783 0.00058108 0.002 0.000491379 -0.000833334
internal_weight=475 455 217 148 111 85
internal_count=475 455 217 148 111 85
is_linear=0
shrinkage=0.03


Tree=68
num_leaves=7
num_cat=0
split_feature=58 50 1 50 51 62
split_gain=1.19651 1.19662 0.633614 0.779989 0.776191 0.622935
threshold=0.33528042576193268 628.50000000000011 9.5000000000000018 325.50000000000006 544.66666666666686 1832.8750000000002
decision_type=10 10 2 10 10 10
left_child=5 2 -2 -4 -5 -1
right_child=1 -3 3 4 -6 -7
leaf_value=-1.2298567283018418 -0.24051894862004233 2.9433865376646842 -1.0048188947848169 0.29830754105578267 -0.020155256960194594 0.030287775452920399
leaf_weight=186 72 36 22 40 25 105
leaf_count=186 72 36 22 40 25 105
internal_value=-0.00021996 0.001575 0.000384146 0.00205435 0.00364286 -0.00142905
internal_weight=486 195 159 87 65 291
internal_count=486 195 159 87 65 291
is_linear=0
shrinkage=0.03


Tree=69
num_leaves=7
num_cat=0
split_feature=56 59 0 52 52 57
split_gain=0.915472 0.922191 0.833418 1.10523 1.46036 0.414181
threshold=495.87500000000006 1563.0000000000002 6.5000000000000009 584.92857142857156 484.50000000000006 0.30145236458985153
decision_type=10 10 2 10 10 8
left_child=-1 -2 -3 4 -4 -6
right_child=1 2 3 -5 5 -7
leaf_value=-1.1243284538415468 -0.50528409818791209 -1.2976104194527125 1.1002774771044597 1.4139214825820301 0.031809812108373185 -0.21299142593092973
leaf_weight=189 119 25 23 42 28 53
leaf_count=189 119 25 23 42 28 53
internal_value=-0.000241736 0.000813559 0.00219886 0.0030596 0.00126605 -0.000732559
internal_weight=479 290 171 146 104 81
internal_count=479 290 171 146 104 81
is_linear=0
shrinkage=0.03


Tree=70
num_leaves=7
num_cat=1
split_feature=64 50 50 20 56 50
split_gain=1.14257 0.673408 1.16035 0.912925 0.676095 0.718391
threshold=0 413.50000000000006 540.50000000000011 11.250000000000002 566.50000000000011 489.50000000000006
decision_type=1 10 10 2 8 10
left_child=1 -1 4 -4 -3 -6
right_child=-2 2 3 -5 5 -7
leaf_value=-1.3166615942207494 -1.3478670718661414 0.43485580206954355 -0.083301526874326889 3.3984032665604818 -0.19377155996076437 0.26748214379591867
leaf_weight=35 190 23 143 23 31 34
leaf_count=35 190 23 143 23 31 34
internal_value=-0.000179753 0.00099671 0.00157529 7.01747e-05 0.00425806 0.00235714
internal_weight=479 289 254 166 88 65
internal_count=479 289 254 166 88 65
cat_boundaries=0 1
cat_threshold=28
is_linear=0
shrinkage=0.03


Tree=71
num_leaves=7
num_cat=0
split_feature=58 48 58 0 52 51
split_gain=0.885167 0.847176 1.39425 1.09667 0.402482 0.89248
threshold=0.3139059814763735 -1.2499999999999998 0.36082294115830876 8.5000000000000018 583.78571428571445 630.00000000000011
decision_type=10 2 10 2 8 10
left_child=4 -2 3 -3 -1 -6
right_child=1 2 -4 -5 5 -7
leaf_value=-1.7488359328598762 -0.043983129077944681 0.00026977572224643371 -0.16878894201829781 0.59782036559098373 0.28551606471924501 -1.8091263574428094
leaf_weight=156 122 31 67 39 20 31
leaf_count=156 122 31 67 39 20 31
internal_value=-0.000356689 0.000806817 0.00238732 0.0052 -0.00179717 0.000482142
internal_weight=466 259 137 70 207 51
internal_count=466 259 137 70 207 51
is_linear=0
shrinkage=0.03


Tree=72
num_leaves=7
num_cat=0
split_feature=56 56 50 50 22 59
split_gain=1.0891 0.697092 0.773977 0.821709 0.758364 0.468709
threshold=998.50000000000011 493.37500000000006 325.50000000000006 516.50000000000011 12.500000000000002 2074.0000000000005
decision_type=10 8 10 10 2 10
left_child=1 -1 -3 4 -4 -5
right_child=-2 2 3 5 -6 -7
leaf_value=-1.7714098379600811 2.9266249109503226 -0.98561489894915033 0.36919797786600494 -0.09470771774944417 0.062041135336730897 0.16121260331521156
leaf_weight=159 20 51 44 81 62 48
leaf_count=159 20 51 44 81 62 48
internal_value=-9.57454e-05 -0.000433334 0.000453608 0.0011875 0.00308108 -0.000425374
internal_weight=465 445 286 235 106 129
internal_count=465 445 286 235 106 129
is_linear=0
shrinkage=0.03


Tree=73
num_leaves=7
num_cat=0
split_feature=56 56 54 53 59 56
split_gain=1.36042 0.728436 0.827822 1.00325 0.615788 0.4409
threshold=1065.0000000000002 380.50000000000006 141.3076674343358 498.75000000000006 2112.5000000000005 659.83333333333337
decision_type=8 10 10 10 10 10
left_child=1 -1 3 -3 -5 -4
right_child=-2 2 5 4 -6 -7
leaf_value=-4.1292071726059261 1.2074228784265841 0.49825900371055781 -0.094496638317663723 -0.6250163938060892 0.16615062345062756 0.18812989946616746
leaf_weight=88 32 27 219 47 23 58
leaf_count=88 32 27 219 47 23 58
internal_value=-2.40488e-05 -0.000462527 0.000126648 0.00244118 0.000399999 -0.000712767
internal_weight=494 462 374 97 70 277
internal_count=494 462 374 97 70 277
is_linear=0
shrinkage=0.03


Tree=74
num_leaves=7
num_cat=1
split_feature=64 52 53 54 59 58
split_gain=0.852154 1.0669 0.88086 0.740149 0.234375 0.174339
threshold=0 584.92857142857156 481.46428571428572 142.84181354332409 1577.5000000000002 0.32230609507792146
decision_type=1 10 10 10 10 10
left_child=1 2 3 -1 -4 -2
right_child=5 -3 4 -5 -6 -7
leaf_value=0.90414776237048422 -1.8060894838782962 1.0888435716233842 -0.014367875795948313 -0.24088187000178532 -0.71968300800397045 -0.1027920646398689
leaf_weight=23 136 45 40 20 75 148
leaf_count=23 136 45 40 20 75 148
internal_value=-0.000835367 0.000646788 -0.000515338 0.0029375 -0.001875 -0.00184615
internal_weight=487 203 158 43 115 284
internal_count=487 203 158 43 115 284
cat_boundaries=0 1
cat_threshold=24
is_linear=0
shrinkage=0.03


Tree=75
num_leaves=7
num_cat=0
split_feature=58 56 54 54 20 20
split_gain=0.981712 0.507287 0.657027 0.401536 0.608822 0.483482
threshold=0.49437763603968415 401.12500000000006 143.58696799850426 134.21214904239292 1.0000000180025095e-35 1.0000000180025095e-35
decision_type=10 8 10 8 2 2
left_child=1 -1 3 4 -3 -5
right_child=-2 2 -4 5 -6 -7
leaf_value=-3.8827589775709965 2.7699381655034356 -0.51520227967260324 -0.13721637906527048 0.23753268185398252 0.27075422745943978 -0.16577535002227148
leaf_weight=93 30 44 246 23 26 20
leaf_count=93 30 44 246 23 26 20
internal_value=-0.000566736 -0.000932167 -0.000403847 0.00144915 -6.67572e-10 0.0035625
internal_weight=482 452 359 113 70 43
internal_count=482 452 359 113 70 43
is_linear=0
shrinkage=0.03


Tree=76
num_leaves=7
num_cat=0
split_feature=20 62 60 22 62 50
split_gain=1.24515 0.88928 0.442672 0.405663 0.593751 0.454349
threshold=4.2500000000000009 1506.6250000000002 1722.0000000000002 11.500000000000002 1568.2500000000002 540.50000000000011
decision_type=2 10 10 2 8 8
left_child=3 -2 -3 4 -1 -6
right_child=1 2 -4 -5 5 -7
leaf_value=-0.69392920081419485 -0.75474970622571158 2.0483696801800408 1.3365594225568513 -0.30690151620981987 0.37016926365327441 -0.22844295821442337
leaf_weight=57 34 25 29 241 43 49
leaf_count=57 34 25 29 241 43 49
internal_value=-0.000484473 0.00264516 0.00488136 -0.00121519 1.94798e-05 0.00148454
internal_weight=478 88 54 390 149 92
internal_count=478 88 54 390 149 92
is_linear=0
shrinkage=0.03


Tree=77
num_leaves=7
num_cat=1
split_feature=64 62 54 57 58 1
split_gain=0.968512 1.17135 0.547088 0.56767 0.637775 0.410414
threshold=0 1559.0000000000002 143.90979524895144 0.32071404593821234 0.30244906191375132 6.5000000000000009
decision_type=1 10 10 10 10 2
left_child=-1 -2 3 4 -3 -4
right_child=1 2 5 -5 -6 -7
leaf_value=-0.91577967255195925 0.28662375061459378 -0.35835921309463376 0.6478411099413397 -0.38197270919832077 0.26219824030828409 -0.057845398177795958
leaf_weight=186 30 21 36 32 28 123
leaf_count=186 30 21 36 32 28 123
internal_value=-0.00029935 0.000842105 0.000122448 0.00205814 0.00394444 -0.000896342
internal_weight=456 270 240 81 49 159
internal_count=456 270 240 81 49 159
cat_boundaries=0 1
cat_threshold=3
is_linear=0
shrinkage=0.03


Tree=78
num_leaves=7
num_cat=0
split_feature=58 50 61 56 21 56
split_gain=1.17936 0.897118 0.68189 0.641871 0.706085 0.575753
threshold=0.31646778331822445 579.50000000000011 1673.6000000000001 578.62500000000011 6.5000000000000009 566.50000000000011
decision_type=8 10 8 8 2 8
left_child=-1 2 -2 -3 -5 -4
right_child=1 3 5 4 -6 -7
leaf_value=-1.0510379927840139 -0.3892854101854768 -0.014873886373097544 0.15675022780781139 2.6387981730280909 0.016433264019711905 0.0031944908487782715
leaf_weight=205 96 23 26 24 29 72
leaf_count=205 96 23 26 24 29 72
internal_value=-9.37507e-05 0.0012 9.04516e-05 0.00385185 0.00553448 0.00180582
internal_weight=475 270 194 76 53 98
internal_count=475 270 194 76 53 98
is_linear=0
shrinkage=0.03


Tree=79
num_leaves=7
num_cat=0
split_feature=56 54 56 58 54 55
split_gain=1.18372 0.938426 0.719679 0.805992 0.664161 0.423767
threshold=470.12500000000006 143.58696799850426 586.50000000000011 0.49437763603968415 135.24959279836455 665.00000000000011
decision_type=8 10 8 8 10 10
left_child=-1 4 -3 5 -2 -4
right_child=1 2 3 -5 -6 -7
leaf_value=-1.7969085980101545 0.1794695611334588 -0.43465401187101438 0.065174839965347259 2.5596342278372468 0.4706060271065744 -0.061558096972851493
leaf_weight=143 83 113 45 24 27 52
leaf_count=143 83 113 45 24 27 52
internal_value=-4.26836e-05 0.000911174 -0.000175733 0.00140476 0.00313043 8.82346e-05
internal_weight=487 344 234 121 110 97
internal_count=487 344 234 121 110 97
is_linear=0
shrinkage=0.03


Tree=80
num_leaves=7
num_cat=0
split_feature=58 59 6 51 59 55
split_gain=1.12064 1.04136 0.670372 0.54585 0.501291 0.497655
threshold=0.3139059814763735 1563.0000000000002 1.0000000180025095e-35 650.50000000000011 2074.0000000000005 610.50000000000011
decision_type=10 10 2 10 10 10
left_child=5 -2 -3 4 -4 -1
right_child=1 2 3 -5 -6 -7
leaf_value=-1.6634088565369733 -0.30858757537421061 -0.3093844074526988 0.59851471753356689 -0.061250775222696459 2.4732547513469707 0.27256591535958891
leaf_weight=192 113 23 58 22 29 20
leaf_count=192 113 23 58 22 29 20
internal_value=-0.00011039 0.00126 0.0030219 0.00397368 0.00498913 -0.00168664
internal_weight=457 245 132 109 87 212
internal_count=457 245 132 109 87 212
is_linear=0
shrinkage=0.03


Tree=81
num_leaves=7
num_cat=1
split_feature=64 52 50 50 21 50
split_gain=1.13079 1.35008 0.706712 0.795713 0.417104 0.383738
threshold=0 584.92857142857156 509.50000000000006 419.00000000000006 1.5000000000000002 633.50000000000011
decision_type=1 10 10 10 2 10
left_child=1 2 3 -1 -2 -3
right_child=4 5 -4 -5 -6 -7
leaf_value=-0.50336068903849129 0.26817061839994194 0.097700846556667095 -0.1831392644595892 0.88901914754674438 -0.58021623287221191 2.2510062835863729
leaf_weight=20 30 22 97 22 261 27
leaf_count=20 30 22 97 22 261 27
internal_value=-0.000241736 0.00150739 2.08326e-05 0.00306383 -0.00138235 0.00561111
internal_weight=479 188 139 42 291 49
internal_count=479 188 139 42 291 49
cat_boundaries=0 1
cat_threshold=24
is_linear=0
shrinkage=0.03


Tree=82
num_leaves=7
num_cat=0
split_feature=58 54 56 53 57 54
split_gain=0.679398 0.529945 0.842325 0.531127 0.469221 0.381027
threshold=0.49437763603968415 142.84181354332409 423.00000000000006 498.75000000000006 0.30800675652541504 129.82524720719979
decision_type=10 10 8 8 10 8
left_child=1 2 -1 -4 -5 -6
right_child=-2 -3 3 4 5 -7
leaf_value=-6.2606610831845035 2.3411173699541301 -0.40511313687732986 0.5819277890647977 -0.31602803208703667 -0.158813071434345 0.22025107960972445
leaf_weight=47 24 295 31 26 24 20
leaf_count=47 24 295 31 26 24 20
internal_value=-0.000743645 -0.00102455 0.000431372 0.00195283 0.000399999 0.00220408
internal_weight=467 443 148 101 70 44
internal_count=467 443 148 101 70 44
is_linear=0
shrinkage=0.03


Tree=83
num_leaves=7
num_cat=1
split_feature=64 62 52 48 58 11
split_gain=1.16884 0.989055 0.84701 0.447355 0.663832 0.96572
threshold=0 1559.0000000000002 584.92857142857156 -1.2499999999999998 0.35085093544256879 1.0000000180025095e-35
decision_type=1 8 10 2 8 2
left_child=1 -1 3 -3 5 -5
right_child=-2 2 -4 4 -6 -7
leaf_value=0.58370586841728944 -0.96479800946365402 -0.39058511925901307 0.42137568929585029 0.36547744638415869 -0.4634645246815618 -0.38055458387825952
leaf_weight=26 200 107 70 24 26 29
leaf_count=26 200 107 70 24 26 29
internal_value=-0.000135524 0.00109091 0.000505746 -0.000565446 0.00110714 0.00294828
internal_weight=482 282 256 186 79 53
internal_count=482 282 256 186 79 53
cat_boundaries=0 1
cat_threshold=28
is_linear=0
shrinkage=0.03


Tree=84
num_leaves=7
num_cat=0
split_feature=56 56 53 54 56 55
split_gain=1.00367 0.460611 0.585475 0.313395 0.651687 0.231963
threshold=1065.0000000000002 380.50000000000006 447.96428571428578 143.90979524895144 558.75000000000011 597.50000000000011
decision_type=8 10 10 10 10 10
left_child=1 -1 -3 4 -4 -5
right_child=-2 2 3 5 -6 -7
leaf_value=-4.3939803902150576 0.97642178039862404 0.61186371934487394 0.24823331712951308 -0.52120865777509018 -0.44903433101092216 -0.024497592295045608
leaf_weight=81 29 24 39 139 57 108
leaf_count=81 29 24 39 139 57 108
internal_value=-0.000479254 -0.000847683 -0.000379033 -0.000715518 0.000712871 -0.00127381
internal_weight=477 448 367 343 96 247
internal_count=477 448 367 343 96 247
is_linear=0
shrinkage=0.03


Tree=85
num_leaves=7
num_cat=0
split_feature=56 21 20 61 61 57
split_gain=1.24051 0.465949 0.538887 0.420487 0.643639 0.420194
threshold=526.87500000000011 6.5000000000000009 4.2500000000000009 1695.5500000000004 1824.8500000000001 0.29259533861642856
decision_type=8 2 2 10 10 10
left_child=-1 2 3 -2 -5 -3
right_child=1 5 -4 4 -6 -7
leaf_value=-0.81360272102457731 -0.24158146732666066 0.31388147765108465 1.4775452313447681 0.23205723899362854 -0.22248074217125582 -0.03114028744927537
leaf_weight=209 25 25 36 48 20 106
leaf_count=209 25 25 36 48 20 106
internal_value=-0.000816456 0.000566037 0.00181343 0.000520407 0.00172603 -0.000683824
internal_weight=469 260 129 93 68 131
internal_count=469 260 129 93 68 131
is_linear=0
shrinkage=0.03


Tree=86
num_leaves=7
num_cat=1
split_feature=64 62 48 61 55 61
split_gain=0.739631 1.16648 0.523174 0.308448 0.460976 0.270496
threshold=0 1559.0000000000002 1.2500000000000002 1723.3500000000001 449.50000000000006 1611.7500000000002
decision_type=1 8 2 8 8 10
left_child=1 -1 5 -2 -5 -3
right_child=3 2 -4 4 -6 -7
leaf_value=0.58854190969930498 -0.86037328192352058 0.037560488455949836 1.2732848066074778 -4.2825262245892315 0.33536048268869295 -0.097038458562671362
leaf_weight=27 117 40 46 34 34 178
leaf_count=27 117 40 46 34 34 178
internal_value=-0.000474013 0.000480391 -0.000156135 -0.001875 -0.000328768 -0.00078027
internal_weight=476 291 264 185 68 218
internal_count=476 291 264 185 68 218
cat_boundaries=0 1
cat_threshold=28
is_linear=0
shrinkage=0.03


Tree=87
num_leaves=7
num_cat=1
split_feature=64 60 22 59 59 54
split_gain=0.591487 0.638962 0.450183 1.17008 0.424835 0.56585
threshold=0 1524.6000000000001 11.500000000000002 1950.5000000000002 2112.5000000000005 162.11907214485055
decision_type=1 10 2 10 10 10
left_child=1 -1 3 -3 -4 -6
right_child=-2 2 4 -5 5 -7
leaf_value=0.79200286132754794 -0.88272719867839167 0.75811102594375035 -0.17009618116948658 -0.20749837519103881 0.40569593654816005 -0.0517367280851782
leaf_weight=36 192 36 120 54 21 26
leaf_count=36 192 36 120 54 21 26
internal_value=-0.00039796 0.000457792 -8.01534e-05 0.00157895 -0.000994187 0.00132692
internal_weight=485 293 257 90 167 47
internal_count=485 293 257 90 167 47
cat_boundaries=0 1
cat_threshold=28
is_linear=0
shrinkage=0.03


Tree=88
num_leaves=7
num_cat=0
split_feature=55 50 55 58 53 58
split_gain=0.612284 0.650431 0.296284 0.273837 0.480469 0.604034
threshold=654.50000000000011 628.50000000000011 670.50000000000011 0.31646778331822445 495.78571428571433 0.35422511475931523
decision_type=8 10 10 10 10 10
left_child=3 2 -2 -1 5 -5
right_child=1 -3 -4 4 -6 -7
leaf_value=-0.96012243190218294 0.36914737765111866 2.1393212425766706 -0.064360058547610344 0.38207237548617662 -0.090671774493776586 -0.10852823269807808
leaf_weight=185 20 29 62 24 115 24
leaf_count=185 20 29 62 24 115 24
internal_value=-0.000898708 0.00100862 -0.000413794 -0.00151275 -0.000589286 0.00181132
internal_weight=459 111 82 348 163 48
internal_count=459 111 82 348 163 48
is_linear=0
shrinkage=0.03


Tree=89
num_leaves=7
num_cat=1
split_feature=56 21 56 64 22 59
split_gain=0.691527 0.71515 0.427335 0.320304 0.495259 0.645989
threshold=380.50000000000006 1.5000000000000002 1086.1250000000002 0 11.500000000000002 1869.5000000000002
decision_type=8 2 8 1 2 10
left_child=-1 -2 3 4 5 -3
right_child=1 2 -4 -5 -6 -7
leaf_value=-4.5161850980184042 0.65685623230825585 0.94933258036005197 0.43552996677523148 -0.58132335901488752 -0.021384564699741197 -0.6618056724293544
leaf_weight=85 37 30 28 161 104 29
leaf_count=85 37 30 28 161 104 29
internal_value=-0.000463466 8.37556e-05 -0.000352942 -0.000674773 0.000286516 0.00239062
internal_weight=474 389 352 324 163 59
internal_count=474 389 352 324 163 59
cat_boundaries=0 1
cat_threshold=12
is_linear=0
shrinkage=0.03


Tree=90
num_leaves=7
num_cat=0
split_feature=47 59 51 20 58 60
split_gain=0.66402 0.584206 0.678618 0.632029 0.728002 0.35322
threshold=3.7500000000000004 1563.0000000000002 574.83333333333348 1.0000000180025095e-35 0.33927390978566985 1666.0000000000002
decision_type=2 10 10 2 8 10
left_child=1 -1 3 -3 -5 -6
right_child=-2 2 -4 4 5 -7
leaf_value=-0.31288180479904848 -1.8416112651961507 -0.026367338980247526 -0.051696874027692727 0.92085260635712796 0.39049512070565834 -0.32818938583099999
leaf_weight=157 122 30 87 20 22 26
leaf_count=157 122 30 87 20 22 26
internal_value=-0.000793178 -0.000103747 0.00102632 0.00267961 0.00419178 0.00181132
internal_weight=464 342 185 98 68 48
internal_count=464 342 185 98 68 48
is_linear=0
shrinkage=0.03


Tree=91
num_leaves=7
num_cat=0
split_feature=21 54 55 51 57 55
split_gain=0.826033 0.543006 0.521944 0.416964 0.681003 0.543068
threshold=1.5000000000000002 160.59916299653955 540.50000000000011 621.66666666666686 0.36231874042582163 570.50000000000011
decision_type=2 10 8 8 8 8
left_child=1 -1 -2 4 5 -4
right_child=2 -3 3 -5 -6 -7
leaf_value=0.75449322022744325 -0.95136179635104623 -0.31694565720356771 0.19033018148400394 -0.44932133734273322 0.60244317703010886 -0.029954809469547736
leaf_weight=20 197 23 28 44 37 119
leaf_count=20 197 23 28 44 37 119
internal_value=-0.00081184 0.0029375 -0.00122093 -0.00023176 0.000412698 -0.000532895
internal_weight=468 43 425 228 184 147
internal_count=468 43 425 228 184 147
is_linear=0
shrinkage=0.03


Tree=92
num_leaves=7
num_cat=1
split_feature=64 52 62 22 21 55
split_gain=0.918397 0.640691 0.563219 0.5268 0.487906 0.621661
threshold=0 584.92857142857156 2090.5000000000005 22.500000000000004 10.500000000000002 585.50000000000011
decision_type=1 10 10 2 2 8
left_child=1 2 3 4 5 -1
right_child=-2 -3 -4 -5 -6 -7
leaf_value=0.017086331409175835 -0.55353422050907319 0.60074551119576569 -0.82910906663261164 -0.17667663575834683 -0.86904714705715724 0.52705408583397662
leaf_weight=32 260 41 48 24 22 24
leaf_count=32 260 41 48 24 22 24
internal_value=-0.000861843 0.000713592 -0.000193549 0.00106542 0.00224096 0.00363934
internal_weight=451 191 150 102 78 56
internal_count=451 191 150 102 78 56
cat_boundaries=0 1
cat_threshold=24
is_linear=0
shrinkage=0.03


Tree=93
num_leaves=7
num_cat=0
split_feature=56 50 58 58 52 57
split_gain=0.849966 0.748659 0.421574 0.522858 0.405272 0.392185
threshold=526.87500000000011 649.50000000000011 0.36160429069174654 0.35225953774154695 638.64285714285722 0.29730458088370088
decision_type=8 10 8 10 10 10
left_child=-1 2 3 5 -3 -2
right_child=1 4 -4 -5 -6 -7
leaf_value=-0.80013371912706899 0.31312259442663015 0.49121537921118563 -0.16566899393066647 0.071761098002581056 -0.096822084518902091 -0.053853975070970277
leaf_weight=218 37 26 77 25 23 72
leaf_count=218 37 26 77 25 23 72
internal_value=-0.000360249 0.000792452 -1.38896e-05 0.000992805 0.00394444 2.63151e-05
internal_weight=478 260 211 134 49 109
internal_count=478 260 211 134 49 109
is_linear=0
shrinkage=0.03


Tree=94
num_leaves=7
num_cat=0
split_feature=56 54 55 1 62 1
split_gain=0.898534 1.23575 0.562537 0.787892 0.497631 0.439548
threshold=380.50000000000006 155.92985269754794 610.50000000000011 9.5000000000000018 1629.7500000000002 10.500000000000002
decision_type=8 10 10 2 10 2
left_child=-1 2 3 -2 -5 -4
right_child=1 -3 5 4 -6 -7
leaf_value=-4.1128501234572967 -0.98217445469671683 -0.054245161861017778 0.34581705731292706 0.37773845846822407 0.19293062068499217 -0.38457209243208057
leaf_weight=86 27 224 32 40 38 27
leaf_count=86 27 224 32 40 38 27
internal_value=-0.000150314 0.000473282 0.0024142 0.00368182 0.00513253 4.68743e-05
internal_weight=474 388 164 105 78 59
internal_count=474 388 164 105 78 59
is_linear=0
shrinkage=0.03


Tree=95
num_leaves=7
num_cat=0
split_feature=56 21 22 51 48 58
split_gain=0.939111 0.373135 0.449407 0.479207 0.617868 1.33137
threshold=380.50000000000006 11.500000000000002 22.500000000000004 673.83333333333337 -1.2499999999999998 0.35422511475931523
decision_type=10 2 2 10 2 10
left_child=-1 2 3 4 -2 -6
right_child=1 -3 -4 -5 5 -7
leaf_value=-2.8695537499075781 0.0092299173247341118 -1.6357683689171163 -0.12428389573733081 -0.24637180981160733 0.66799075004181874 -0.01331399253237942
leaf_weight=102 119 31 96 43 44 36
leaf_count=102 119 31 96 43 44 36
internal_value=-0.000384454 0.000328876 0.000629737 0.00131174 0.00192647 0.00388235
internal_weight=471 369 338 242 199 80
internal_count=471 369 338 242 199 80
is_linear=0
shrinkage=0.03


Tree=96
num_leaves=7
num_cat=0
split_feature=56 50 61 59 51 54
split_gain=0.787021 0.694291 0.95284 0.842918 0.705091 0.605972
threshold=493.37500000000006 325.50000000000006 1561.2500000000002 2154.5000000000005 513.50000000000011 165.11025080272239
decision_type=8 10 10 10 10 10
left_child=-1 -2 -3 4 5 -4
right_child=1 2 3 -5 -6 -7
leaf_value=-0.82068557863189862 -0.63265051842044862 0.41934083198733557 0.26344579491975811 0.34570994164331043 -0.082580225423404735 -0.72908666188990923
leaf_weight=156 48 32 48 40 109 29
leaf_count=156 48 32 48 40 109 29
internal_value=-0.000462527 0.000424437 0.00104943 0.000311688 -0.000565446 0.00157317
internal_weight=462 306 258 226 186 77
internal_count=462 306 258 226 186 77
is_linear=0
shrinkage=0.03


Tree=97
num_leaves=7
num_cat=1
split_feature=21 50 64 52 51 61
split_gain=0.692151 0.518627 0.418045 0.700263 1.41889 0.28216
threshold=1.5000000000000002 579.50000000000011 0 584.92857142857156 600.83333333333337 1723.3500000000001
decision_type=2 10 1 10 10 8
left_child=1 -1 5 -4 -5 -2
right_child=2 -3 3 4 -6 -7
leaf_value=-0.27965002697476898 -0.67919255284664026 1.8782497693132905 -0.017196956023999475 0.65709319140392097 -0.27829489657776352 -0.45718210122310698
leaf_weight=29 106 20 188 35 33 70
leaf_count=29 106 20 188 35 33 70
internal_value=-0.000376544 0.00283333 -0.000768879 4.42798e-05 0.00254794 -0.00182199
internal_weight=481 49 432 256 68 176
internal_count=481 49 432 256 68 176
cat_boundaries=0 1
cat_threshold=3
is_linear=0
shrinkage=0.03


Tree=98
num_leaves=7
num_cat=0
split_feature=16 58 50 59 0 50
split_gain=1.65584 1.24269 0.763468 0.292213 1.21533 0.234985
threshold=1.0000000180025095e-35 0.45933918135243768 675.50000000000011 2074.0000000000005 10.500000000000002 540.50000000000011
decision_type=2 8 10 10 2 10
left_child=1 3 -3 5 -5 -1
right_child=-2 2 -4 4 -6 -7
leaf_value=-0.081458981553448134 0.3360110042360126 0.21571509642506606 2.1013975385527468 -0.59371677325499939 0.30602349961686337 -0.76446442860665875
leaf_weight=166 20 42 20 51 21 139
leaf_count=166 20 42 20 51 21 139
internal_value=-0.000316811 -0.000736487 0.00304478 -0.00139005 0.000311688 -0.00179032
internal_weight=459 439 62 377 72 305
internal_count=459 439 62 377 72 305
is_linear=0
shrinkage=0.03


Tree=99
num_leaves=7
num_cat=0
split_feature=56 50 53 55 50 61
split_gain=1.12567 1.04802 1.00845 1.00447 0.419272 0.584278
threshold=493.37500000000006 333.50000000000006 584.92857142857156 695.00000000000011 649.50000000000011 1768.5000000000002
decision_type=8 10 10 10 10 10
left_child=-1 -2 3 4 5 -3
right_child=1 2 -4 -5 -6 -7
leaf_value=-1.2337067864934634 -0.55461613355832962 0.23924878044132303 -0.10046426870443056 -0.42144374439937127 0.52295024522620048 -0.023735468748383063
leaf_weight=168 56 96 81 31 22 21
leaf_count=168 56 96 81 31 22 21
internal_value=-0.000281251 0.000798076 0.00162891 0.00291429 0.00397917 0.00302459
internal_weight=475 307 251 170 139 117
internal_count=475 307 251 170 139 117
is_linear=0
shrinkage=0.03


Tree=100
num_leaves=7
num_cat=0
split_feature=56 53 55 54 48 60
split_gain=0.750356 0.707037 0.469132 0.468847 0.512938 0.39614
threshold=380.50000000000006 447.96428571428578 835.50000000000011 162.79674506932795 -1.2499999999999998 1801.6000000000001
decision_type=8 8 10 10 2 10
left_child=-1 -2 3 4 -3 -5
right_child=1 2 -4 5 -6 -7
leaf_value=-4.3588621261203206 0.41020983861930727 -0.0030404348300307766 1.8855616471689576 -0.30872342067566055 0.18714923984992021 0.13639061078325052
leaf_weight=82 24 141 25 134 39 34
leaf_count=82 24 141 25 134 39 34
internal_value=-0.00030372 0.000246268 -0.000103175 -0.000407933 0.000648648 -0.00152601
internal_weight=479 397 373 348 180 168
internal_count=479 397 373 348 180 168
is_linear=0
shrinkage=0.03


Tree=101
num_leaves=7
num_cat=1
split_feature=64 20 21 21 18 55
split_gain=0.789586 0.774873 0.801659 0.699022 0.574434 0.881739
threshold=0 4.2500000000000009 6.5000000000000009 1.5000000000000002 1.0000000180025095e-35 659.50000000000011
decision_type=1 2 2 2 2 10
left_child=1 4 -3 -2 -1 -6
right_child=3 2 -4 -5 5 -7
leaf_value=-0.62307381978286613 0.31761992154094149 1.9192664790105534 -0.10578036127823595 -0.19599826139413778 0.25932029184604627 -0.23611380557481906
leaf_weight=55 29 25 21 249 63 29
leaf_count=55 29 25 21 249 63 29
internal_value=-0.000321429 0.00111058 0.00435294 -0.00131058 5.92098e-05 0.00148454
internal_weight=471 193 46 278 147 92
internal_count=471 193 46 278 147 92
cat_boundaries=0 1
cat_threshold=24
is_linear=0
shrinkage=0.03


Tree=102
num_leaves=7
num_cat=0
split_feature=56 59 60 54 54 22
split_gain=0.749965 0.801866 0.792691 0.312269 0.327232 0.245146
threshold=380.50000000000006 1563.0000000000002 1535.6000000000001 155.92985269754794 135.24959279836455 5.5000000000000009
decision_type=8 10 10 10 8 2
left_child=-1 3 -3 4 -2 -4
right_child=1 2 5 -5 -6 -7
leaf_value=-4.8065982450463327 -0.43889548054798894 1.2801547245765026 -0.67249678751063169 -0.48944147250823888 0.23483399449362144 0.029496786418516163
leaf_weight=83 20 28 30 90 34 177
leaf_count=83 20 28 30 90 34 177
internal_value=-0.000334048 0.000242187 0.0013125 -0.00148993 0.000305084 0.00060849
internal_weight=462 379 235 144 54 207
internal_count=462 379 235 144 54 207
is_linear=0
shrinkage=0.03


Tree=103
num_leaves=7
num_cat=0
split_feature=47 50 53 21 43 3
split_gain=0.688578 0.64784 0.742915 0.664844 0.719293 0.614164
threshold=3.7500000000000004 325.50000000000006 552.89285714285722 9.5000000000000018 1.0000000180025095e-35 1.0000000180025095e-35
decision_type=2 10 10 2 2 2
left_child=1 -1 3 4 -3 -4
right_child=-2 2 5 -5 -6 -7
leaf_value=-0.77954896906487303 -1.6268919606248378 0.25998127997955955 1.2462416159324143 -0.044968256576841358 -0.037615496469519366 -0.039394918505634972
leaf_weight=60 139 85 35 41 20 102
leaf_count=60 139 85 35 41 20 102
internal_value=-0.000320329 0.000405172 0.00101042 0.00246358 0.00368182 -0.000570423
internal_weight=482 343 283 146 105 137
internal_count=482 343 283 146 105 137
is_linear=0
shrinkage=0.03


Tree=104
num_leaves=7
num_cat=1
split_feature=64 54 54 55 59 55
split_gain=0.529974 0.712954 0.792203 0.559515 0.564129 1.18133
threshold=0 143.58696799850426 129.44892282965455 555.50000000000011 1521.0000000000002 692.50000000000011
decision_type=1 10 10 10 10 10
left_child=1 2 -1 -3 -5 -6
right_child=-2 3 -4 4 5 -7
leaf_value=0.032654814387857771 -0.45506099952182211 -0.54976282953620426 0.50860992682099138 -0.20464487745461743 1.284621834910737 -0.068043430797508297
leaf_weight=53 190 84 25 52 23 49
leaf_count=53 190 84 25 52 23 49
internal_value=-0.000598753 0.000239202 0.00260241 -0.000676057 0.00060465 0.00225974
internal_weight=476 286 78 208 124 72
internal_count=476 286 78 208 124 72
cat_boundaries=0 1
cat_threshold=26
is_linear=0
shrinkage=0.03


Tree=105
num_leaves=7
num_cat=0
split_feature=20 56 56 55 60 55
split_gain=0.68223 0.638834 0.496435 0.759094 0.302421 0.319567
threshold=4.2500000000000009 617.62500000000011 429.37500000000006 436.50000000000006 1652.9000000000003 659.50000000000011
decision_type=2 10 8 8 8 10
left_child=2 -2 -1 -4 -5 -6
right_child=1 -3 3 4 5 -7
leaf_value=-2.0726057592055467 -0.10090347359491873 1.6769554518307932 0.3147138254249694 -0.23112754947811939 0.12415447679499061 -0.092226545154409423
leaf_weight=90 44 39 25 90 126 52
leaf_count=90 44 39 25 90 126 52
internal_value=-0.000101912 0.00228409 -0.000641753 -3.0202e-05 -0.000527473 0.000196721
internal_weight=466 83 383 293 268 178
internal_count=466 83 383 293 268 178
is_linear=0
shrinkage=0.03


Tree=106
num_leaves=7
num_cat=0
split_feature=58 53 59 57 60 60
split_gain=0.717608 0.93562 0.891829 0.617323 0.395034 0.226703
threshold=0.24765695571328486 473.25000000000006 2074.0000000000005 0.31899673031780623 1820.3000000000002 1725.0000000000002
decision_type=10 10 10 10 10 10
left_child=-1 -2 4 -4 5 -3
right_child=1 2 3 -5 -6 -7
leaf_value=-1.4210367665286769 0.3762202354745654 -0.033013053509483921 -0.012086801746995512 0.90127206452102926 0.33081514583721833 -0.48421463259801723
leaf_weight=97 37 165 27 38 36 72
leaf_count=97 37 165 27 38 36 72
internal_value=-0.000327045 0.000276315 -0.000244899 0.00278571 -0.0010036 -0.00145041
internal_weight=472 375 338 65 273 237
internal_count=472 375 338 65 273 237
is_linear=0
shrinkage=0.03


Tree=107
num_leaves=7
num_cat=1
split_feature=21 22 22 64 62 53
split_gain=0.644663 0.591196 0.568564 0.649901 0.590313 0.64
threshold=1.5000000000000002 18.500000000000004 22.500000000000004 0 1719.6250000000002 510.6785714285715
decision_type=2 2 2 1 10 10
left_child=1 -1 3 -2 5 -5
right_child=2 -3 -4 4 -6 -7
leaf_value=-0.037266524947127962 -0.43405385320593581 1.2203989683065704 -0.31030275909539701 -0.44785078564826919 0.0020235108812715094 0.13037398881270945
leaf_weight=26 132 25 110 20 155 20
leaf_count=26 132 25 110 20 155 20
internal_value=-0.000413794 0.002625 -0.000794118 -0.000153615 0.000928571 0.004
internal_weight=488 51 437 327 195 40
internal_count=488 51 437 327 195 40
cat_boundaries=0 1
cat_threshold=3
is_linear=0
shrinkage=0.03


Tree=108
num_leaves=7
num_cat=0
split_feature=55 21 50 62 54 20
split_gain=0.686824 0.629143 0.49277 0.902078 1.25156 0.584598
threshold=553.50000000000011 1.5000000000000002 325.50000000000006 1709.7500000000002 155.39817934185774 4.2500000000000009
decision_type=8 2 10 10 10 2
left_child=1 -1 -2 4 -4 -5
right_child=2 -3 3 5 -6 -7
leaf_value=0.29367733960327819 -0.4361129811957839 -0.55868157021994191 0.43122256462848496 -0.026689504143119987 0.0028087918685274311 1.2516182171567809
leaf_weight=30 26 207 27 106 40 36
leaf_count=30 26 207 27 106 40 36
internal_value=-7.54724e-05 -0.00120248 0.0010625 0.00155607 0.00429167 0.000163265
internal_weight=472 237 235 209 67 142
internal_count=472 237 235 209 67 142
is_linear=0
shrinkage=0.03


Tree=109
num_leaves=7
num_cat=1
split_feature=64 58 59 59 61 21
split_gain=0.811548 0.805426 0.427246 1.29014 0.359732 0.282712
threshold=0 0.49288724616613272 1573.5000000000002 1605.0000000000002 1585.9500000000003 9.5000000000000018
decision_type=1 8 10 10 10 2
left_child=4 2 -2 -4 -1 -5
right_child=1 -3 3 5 -6 -7
leaf_value=0.09906271086974798 -0.16963242735282338 1.6784603227890638 1.0099973774448492 0.015574061349078893 -0.74521422785510427 -0.098378133277007909
leaf_weight=41 64 31 20 132 149 43
leaf_count=41 64 31 20 132 149 43
internal_value=-0.000309279 0.000688524 0.000124999 0.000824999 -0.0017561 -8.3334e-05
internal_weight=480 290 259 195 190 175
internal_count=480 290 259 195 190 175
cat_boundaries=0 1
cat_threshold=3
is_linear=0
shrinkage=0.03


Tree=110
num_leaves=7
num_cat=0
split_feature=53 40 61 62 8 22
split_gain=0.547483 0.675733 1.0078 0.489252 0.380869 0.310211
threshold=475.14285714285717 1.5000000000000002 1461.0000000000002 1450.6250000000002 1.0000000180025095e-35 22.500000000000004
decision_type=8 2 10 8 2 2
left_child=1 2 -1 -2 5 -5
right_child=3 -3 -4 4 -6 -7
leaf_value=-0.046140749162215985 -1.1403208512683647 -2.3151029961353768 0.83101722120584509 -0.0052539710093959125 1.6334467631961951 -0.29962215695963013
leaf_weight=27 92 21 26 199 30 70
leaf_count=27 92 21 26 199 30 70
internal_value=-0.000542554 0.00174683 0.00346552 -0.000992425 -0.000384869 -0.000755475
internal_weight=465 74 53 391 299 269
internal_count=465 74 53 391 299 269
is_linear=0
shrinkage=0.03


Tree=111
num_leaves=7
num_cat=1
split_feature=64 50 58 56 1 6
split_gain=0.545674 0.458052 0.565637 0.533482 0.521476 0.359095
threshold=0 434.00000000000006 0.23815862905500229 631.37500000000011 10.500000000000002 1.0000000180025095e-35
decision_type=1 10 10 10 2 2
left_child=1 -1 -3 4 -4 -5
right_child=-2 2 3 5 -6 -7
leaf_value=-0.59767103764803642 -0.17764642391112073 -0.79012376366871662 0.85843639818270268 -0.36270114798858671 0.0050408254366120812 0.75632881352598325
leaf_weight=27 274 34 26 20 22 60
leaf_count=27 274 34 26 20 22 60
internal_value=-0.000467949 0.000749999 0.0014012 0.00230075 0.00464151 0.000705882
internal_weight=463 189 162 128 48 80
internal_count=463 189 162 128 48 80
cat_boundaries=0 1
cat_threshold=24
is_linear=0
shrinkage=0.03


Tree=112
num_leaves=7
num_cat=0
split_feature=58 57 56 61 58 41
split_gain=0.463817 0.428537 0.715819 1.24444 0.667575 0.481881
threshold=0.26737647989956687 0.3725181808203592 552.12500000000011 1597.7000000000003 0.34408814863344644 1.0000000180025095e-35
decision_type=10 10 10 10 10 2
left_child=-1 2 3 -2 -4 -5
right_child=1 -3 4 5 -6 -7
leaf_value=-1.0931842400653109 0.37201322606625231 -0.093279334917115625 0.11009623607267555 0.18935622284552039 -0.1125034215022833 -3.1582494333994164
leaf_weight=116 28 108 79 37 90 27
leaf_count=116 28 108 79 37 90 27
internal_value=-0.000520409 8.02068e-06 0.000665413 0.00272165 -0.000500001 0.000260869
internal_weight=485 369 261 92 169 64
internal_count=485 369 261 92 169 64
is_linear=0
shrinkage=0.03


Tree=113
num_leaves=7
num_cat=0
split_feature=54 55 54 56 55 20
split_gain=0.509386 0.465645 0.557767 0.467599 0.459284 0.405893
threshold=303.3158995496367 500.50000000000006 142.84181354332409 620.37500000000011 1163.0000000000002 3.0000000000000004
decision_type=10 8 8 8 8 2
left_child=1 -1 3 -3 5 -4
right_child=-2 2 4 -5 -6 -7
leaf_value=-1.0714675733892829 0.12768237757119091 0.16177507545129846 -0.33040995986788801 -0.33799776588629921 1.1465673072735818 -0.0098344391630478655
leaf_weight=182 20 52 84 22 24 89
leaf_count=182 20 52 84 22 24 89
internal_value=-0.000583683 -0.000805678 -1.08703e-05 0.00212658 -0.000846535 -0.00139888
internal_weight=473 453 271 74 197 173
internal_count=473 453 271 74 197 173
is_linear=0
shrinkage=0.03


Tree=114
num_leaves=7
num_cat=0
split_feature=53 58 56 59 59 57
split_gain=0.804271 1.38502 0.646848 0.53935 0.502643 0.360554
threshold=468.96428571428572 0.23815862905500229 459.25000000000006 2074.0000000000005 2185.5000000000005 0.29371112911959812
decision_type=8 10 8 10 8 10
left_child=1 -1 -2 5 -5 -4
right_child=2 -3 3 4 -6 -7
leaf_value=-1.8298850818812413 -1.3120995196707577 0.57394301942118209 0.087675905535811283 0.24178370414545228 -0.0091412170862312948 -0.057903309291808654
leaf_weight=23 91 35 43 38 28 204
leaf_count=23 91 35 43 38 28 204
internal_value=-0.000205568 0.00295238 -0.000689487 -2.83026e-05 0.00228169 -0.000678572
internal_weight=462 58 404 313 66 247
internal_count=462 58 404 313 66 247
is_linear=0
shrinkage=0.03


Tree=115
num_leaves=7
num_cat=0
split_feature=55 53 60 58 60 54
split_gain=0.488407 0.658349 0.592455 0.792382 0.515416 0.50517
threshold=345.00000000000006 450.71428571428572 1789.6000000000001 0.31646778331822445 1823.8000000000004 155.92985269754794
decision_type=10 10 10 10 10 10
left_child=-1 -2 5 -4 -5 -3
right_child=1 2 3 4 -6 -7
leaf_value=-1.2336027937263199 0.43821342672515767 0.017733796560542525 -0.61224595685070482 1.3057035281983294 0.067114031833745938 -0.37260789762737817
leaf_weight=96 20 106 31 24 29 158
leaf_count=96 20 106 31 24 29 158
internal_value=-0.000409382 9.6514e-05 -0.000237961 0.00188764 0.00398276 -0.000936804
internal_weight=464 368 348 84 53 264
internal_count=464 368 348 84 53 264
is_linear=0
shrinkage=0.03


Tree=116
num_leaves=7
num_cat=1
split_feature=64 62 22 54 62 57
split_gain=0.740386 1.3719 0.67542 0.429851 0.378199 0.470043
threshold=0 1535.3750000000002 11.500000000000002 303.3158995496367 1832.8750000000002 0.34165913829989358
decision_type=1 8 2 8 8 10
left_child=3 -2 4 -1 -3 -6
right_child=1 2 -4 -5 5 -7
leaf_value=-0.63579200343261355 0.83407757370043267 -0.0034711114545494235 -0.056389357581196224 0.49795476271204453 0.39316001566216652 0.21164298873286611
leaf_weight=166 22 26 161 20 45 21
leaf_count=166 22 26 161 20 45 21
internal_value=0.000122317 0.00108621 0.000430232 -0.00128358 0.00241237 0.0035493
internal_weight=461 275 253 186 92 66
internal_count=461 275 253 186 92 66
cat_boundaries=0 1
cat_threshold=3
is_linear=0
shrinkage=0.03


Tree=117
num_leaves=7
num_cat=1
split_feature=18 64 55 60 52 54
split_gain=1.00824 0.609758 0.723207 0.618367 0.514415 0.490299
threshold=1.0000000180025095e-35 0 592.50000000000011 1789.6000000000001 506.00000000000006 303.3158995496367
decision_type=2 1 8 10 10 8
left_child=-1 2 4 -4 -2 -3
right_child=1 5 3 -5 -6 -7
leaf_value=-0.38830036088400932 0.066186582001713776 -0.2411635863306861 -0.019432772672135744 1.3986803491306594 0.30675151207196399 0.42380240482176901
leaf_weight=161 20 159 72 21 21 22
leaf_count=161 20 159 72 21 21 22
internal_value=-0.000474013 0.000515624 0.00193289 0.000520407 0.00515217 -0.000627552
internal_weight=476 315 134 93 41 181
internal_count=476 315 134 93 41 181
cat_boundaries=0 1
cat_threshold=24
is_linear=0
shrinkage=0.03


Tree=118
num_leaves=7
num_cat=0
split_feature=58 59 57 54 51 58
split_gain=0.73805 0.776865 0.661915 0.514415 0.420004 0.54291
threshold=0.24765695571328486 2074.0000000000005 0.30699983870319053 192.83057263272767 544.66666666666686 0.31692574662066991
decision_type=8 10 10 10 8 10
left_child=-1 4 -3 -4 5 -2
right_child=1 2 3 -5 -6 -7
leaf_value=-1.3107742374511864 0.16664048597854095 -0.066608281873444877 0.50511412406542744 0.15495667289309095 -0.14751613718914994 -0.001500455574464732
leaf_weight=86 47 27 21 20 128 135
leaf_count=86 47 27 21 20 128 135
internal_value=-0.000409382 0.000172323 0.0029589 0.00515217 -0.000476191 0.000449197
internal_weight=464 378 68 41 310 182
internal_count=464 378 68 41 310 182
is_linear=0
shrinkage=0.03


Tree=119
num_leaves=7
num_cat=0
split_feature=58 53 59 60 60 58
split_gain=0.678823 0.738111 0.85389 1.03808 0.323014 0.37737
threshold=0.26737647989956687 468.96428571428572 2074.0000000000005 1813.0000000000002 1801.6000000000001 0.33223475609668807
decision_type=8 8 10 10 8 10
left_child=-1 -2 4 -4 -3 -6
right_child=1 2 3 -5 5 -7
leaf_value=-1.2302610926721032 0.28179134204882683 -0.081562481925021302 0.42873657683099781 -0.098274141757614911 -0.10568283864172306 0.68914447055522654
leaf_weight=103 40 209 44 20 23 25
leaf_count=103 40 209 44 20 23 25
internal_value=-0.000217485 0.000401639 -0.000101228 0.00286956 -0.00088168 0.00124528
internal_weight=464 361 321 64 257 48
internal_count=464 361 321 64 257 48
is_linear=0
shrinkage=0.03


Tree=120
num_leaves=7
num_cat=0
split_feature=24 21 22 51 57 37
split_gain=0.52609 0.588852 0.40415 0.522362 0.99375 0.551111
threshold=1.0000000180025095e-35 1.5000000000000002 11.500000000000002 603.50000000000011 0.35552781035887621 1.0000000180025095e-35
decision_type=2 2 2 10 10 2
left_child=1 -1 3 4 5 -3
right_child=-2 2 -4 -5 -6 -7
leaf_value=0.34900486684537158 -1.142906264434594 0.097658343141956289 -0.020687867930990842 -0.36698314513575264 1.5781833428876799 -0.49635304014279302
leaf_weight=39 94 64 203 26 20 31
leaf_count=39 94 64 203 26 20 31
internal_value=-0.000292532 0.000208762 -0.000206304 0.00100685 0.001875 0.000449999
internal_weight=477 383 344 141 115 95
internal_count=477 383 344 141 115 95
is_linear=0
shrinkage=0.03


Tree=121
num_leaves=7
num_cat=0
split_feature=3 54 54 53 50 51
split_gain=0.36953 0.626692 0.528514 0.646542 0.54512 0.626646
threshold=1.0000000180025095e-35 244.17431079718259 155.92985269754794 532.57142857142867 325.50000000000006 504.50000000000006
decision_type=2 10 10 10 10 10
left_child=1 -1 3 4 -2 -6
right_child=2 -3 -4 -5 5 -7
leaf_value=-0.43123055813834849 -1.5055279172735883 1.4312434967048189 -0.16327213281423827 -0.10716660189815713 0.36765929388503155 -0.019082843794058099
leaf_weight=25 22 24 210 71 53 51
leaf_count=25 22 24 210 71 53 51
internal_value=-0.00062473 0.00172222 -0.000924758 0.000193069 0.00146565 0.00236697
internal_weight=456 49 407 197 126 104
internal_count=456 49 407 197 126 104
is_linear=0
shrinkage=0.03


Tree=122
num_leaves=7
num_cat=1
split_feature=21 64 61 58 56 20
split_gain=0.589039 0.550886 0.532184 0.371607 0.621236 0.425527
threshold=1.5000000000000002 0 1461.0000000000002 0.22921437285087867 553.62500000000011 4.2500000000000009
decision_type=2 1 10 8 8 2
left_child=2 -2 -1 -3 -5 -6
right_child=1 3 -4 4 5 -7
leaf_value=-0.059583056977846945 -0.45953967067607582 -1.0545424499011502 1.0102552672538621 0.31177843973535796 -0.023341309394521264 0.57880721999942175
leaf_weight=24 179 28 25 52 130 42
leaf_count=24 179 28 25 52 130 42
internal_value=-0.000123712 -0.000488533 0.00283333 0.000426966 0.000864628 -3.3899e-05
internal_weight=480 431 49 252 224 172
internal_count=480 431 49 252 224 172
cat_boundaries=0 1
cat_threshold=3
is_linear=0
shrinkage=0.03


Tree=123
num_leaves=7
num_cat=0
split_feature=21 53 56 59 59 57
split_gain=0.88277 0.382063 0.731005 0.677697 0.371022 0.33762
threshold=1.5000000000000002 498.75000000000006 459.25000000000006 1563.0000000000002 2181.0000000000005 0.32775256309860928
decision_type=2 8 10 10 10 10
left_child=5 2 -2 -4 -3 -1
right_child=1 4 3 -5 -6 -7
leaf_value=-0.095074153905760045 -1.1328853393192218 -0.10019871419697216 -0.044509212824056808 0.45824734648034998 0.01204140230522115 0.84154343905757389
leaf_weight=20 40 292 39 35 34 27
leaf_count=20 40 292 39 35 34 27
internal_value=-0.00065244 -0.00107865 0.000403361 0.00212658 -0.00159517 0.00305769
internal_weight=487 440 114 74 326 47
internal_count=487 440 114 74 326 47
is_linear=0
shrinkage=0.03


Tree=124
num_leaves=7
num_cat=0
split_feature=21 58 50 59 52 61
split_gain=0.566266 0.734762 0.584197 0.363305 0.32806 0.284068
threshold=2.5000000000000004 0.31646778331822445 501.50000000000006 2154.5000000000005 567.78571428571433 1590.4000000000003
decision_type=2 10 10 10 10 10
left_child=1 -1 -3 5 -5 -2
right_child=3 2 -4 4 -6 -7
leaf_value=-0.8061538881231487 0.0050110647524403574 0.044719921126925077 1.2092288167834406 -0.69190824336732359 0.4244674973650327 -0.11196639961954408
leaf_weight=36 67 28 26 21 20 289
leaf_count=36 67 28 26 21 20 289
internal_value=-0.000835367 0.00126316 0.00335593 -0.0013209 0.00123913 -0.00162881
internal_weight=487 90 54 397 41 356
internal_count=487 90 54 397 41 356
is_linear=0
shrinkage=0.03


Tree=125
num_leaves=7
num_cat=0
split_feature=21 22 62 37 22 41
split_gain=0.494116 0.526312 0.516991 0.402989 0.293029 0.274415
threshold=1.5000000000000002 12.500000000000002 1864.5000000000002 1.0000000180025095e-35 18.500000000000004 1.0000000180025095e-35
decision_type=2 2 8 2 2 2
left_child=4 2 -2 5 -1 -4
right_child=1 -3 3 -5 -6 -7
leaf_value=-0.11517748728328522 -0.23653762400282791 -0.14870060982863603 0.9887528290111367 -0.011335217539070708 0.49182211488825733 0.15596578217746079
leaf_weight=23 102 257 20 35 22 21
leaf_count=23 102 257 20 35 22 21
internal_value=-0.000742269 -0.00105682 0.000196721 0.002 0.0021 0.00384783
internal_weight=480 435 178 76 45 41
internal_count=480 435 178 76 45 41
is_linear=0
shrinkage=0.03


Tree=126
num_leaves=7
num_cat=0
split_feature=56 54 56 55 54 22
split_gain=0.570223 0.543264 0.686544 0.617978 0.584925 0.508084
threshold=1065.0000000000002 155.92985269754794 413.75000000000006 570.50000000000011 118.44409035661917 19.500000000000004
decision_type=8 8 10 10 10 2
left_child=1 2 -1 4 -4 -6
right_child=-2 -3 3 -5 5 -7
leaf_value=-3.31714641979115 1.0345139746186733 -0.25645531013805845 0.4433471670893096 -0.01111356532427645 -0.095046132456094376 0.28254859064152138
leaf_weight=58 25 242 20 80 25 22
leaf_count=58 25 242 20 80 25 22
internal_value=-0.000515724 -0.000776549 0.000357142 0.00144079 0.00345833 0.00132692
internal_weight=472 447 205 147 67 47
internal_count=472 447 205 147 67 47
is_linear=0
shrinkage=0.03


Tree=127
num_leaves=7
num_cat=0
split_feature=53 58 59 52 51 62
split_gain=0.592215 0.932525 1.01607 0.481961 0.392312 0.292412
threshold=494.96428571428578 0.23815862905500229 1563.0000000000002 620.64285714285722 634.50000000000011 1511.2500000000002
decision_type=10 10 10 10 10 10
left_child=1 -1 5 -2 -5 -3
right_child=3 2 -4 4 -6 -7
leaf_value=-0.93336031386788743 -0.27335055903030536 0.182073664996316 0.18637646409941333 1.1282834362021481 -0.10620743120489556 -0.13095761228572658
leaf_weight=50 246 23 45 33 60 24
leaf_count=50 246 23 45 33 60 24
internal_value=-0.000623457 0.000979591 0.00272165 -0.00129942 0.000520407 -0.000403847
internal_weight=481 142 92 339 93 47
internal_count=481 142 92 339 93 47
is_linear=0
shrinkage=0.03


