tree
version=v4
num_class=1
num_tree_per_iteration=1
label_index=0
max_feature_idx=69
objective=poisson
feature_names=n_items n_categories has_dessert has_rice has_bread has_gravy has_dry has_biryani has_nv_biryani has_mutton has_fish has_chicken has_egg has_paneer has_mushroom has_chole has_indochinese is_nonveg_counter is_south star_score menu_strength month dom is_monday is_friday is_month_start is_month_end dt_prev_holiday dt_next_holiday pan_ekadashi pan_poornima pan_amavasya pan_pradosham pan_shravan pan_navratri pan_sankashti pan_shivaratri pan_any n_active n_active_veg n_active_nonveg oth_has_biryani oth_has_nv_biryani oth_has_paneer oth_has_mutton oth_has_chicken oth_has_fish oth_max_star star_minus_oth star_rank lag1 roll3 roll7 roll14 roll7_std wd_lag1 wd_roll4 share_roll7 wd_share_roll4 tlc_lag1 tlc_roll5 tlc_roll10 tlc_wd_roll4 fest_any fest_op_today adj_hol_important adj_hol_compulsory adj_hol_shutdown Counter_Name weekday
feature_infos=[5:14] [5:12] none [0:1] [0:1] [0:1] [0:1] [0:1] [0:1] [0:1] [0:1] [0:1] [0:1] [0:1] none [0:1] [0:1] [0:1] [0:1] [0:5] [0:15] [1:12] [1:31] [0:1] [0:1] [0:1] [0:1] [0:1] [0:1] [0:1] [0:1] [0:1] [0:1] [0:1] [0:1] [0:1] [0:1] [0:1] [2:4] none [1:2] [0:1] [0:1] [0:1] [0:1] [0:1] [0:1] [0:5] [-5:5] [1:4] [99:1331] [125.33333333333333:909.66666666666663] [149.5:863.57142857142856] [158:813.92857142857144] [19.974984355438178:335.42056046246211] [118:1331] [127:1244] [0.10223277342012721:0.46087850242410966] [0.080496780128794854:0.58902384453070922] [523:2388] [760.60000000000002:1982] [1116.0999999999999:1940.2] [945.75:2328.25] [0:1] none [0:1] [0:1] [0:1] -1:2:3:1:0 -1:3:1:4:2:0
tree_sizes=827 885 902 890 899 884 881 889 899 895 894 905 889 889 886 909 897 912 912 912 906 908 897 890 910 912 899 890 897 890 896 895 893 888 893 892 883 896 893 911 895 909 893 891 890 892 911 890 892 897 895 900 892 893 895 893 911 893 892 887 892 889 910 918 895 891 889 894 892 892 911 911 892 910 910 896 894 914 896 891 892 895 905 893 901 900 896 889 892 897 887 911 898 892 897 910 915 894 893 898 897 897 891 897 893 891 914 916 897 895 898 901 891 893 900 895 900 898 914 894 893 915 905 893 914 917 919 912 899 914 893 896 893 898 900 916 900 894 918 913 894 912 895 919 893 919 897 898 899 899 910 918 892 892 913 891 916 893 892 901 894 895 913 896 894 919 913 914 918 895 919 896 893 895 913 893 919 899 903 900 889 905 899 922 890 902 906 906 914 891 895 894 894 896 898 902 891 922 918 914 896 908 922 898 901 897 899 918 917 891 894 899 890 918 899 902 894 916 915 900 915 900 896 898 920 896 898 892 917 925 893 892 887 917 921 900 913 902 919 900 897 897 912 901 898 904 913 904 907 923 921 890 895 894 926 913 916 914 920 899 900 901 909 898 914 900 904 909 898 922 899 919 902 915 900 904 905 887 923 899 883 913 900 908 894 901 922 888 926 906 900 894 893 900 905 905 896 911 900 902 887 921 903 914 925 921 906 921 898 926 898 894 904 892 908 886 907 892 902 899 906 893 925 902 898 903 911 900 897 919 925 897 912 909 905 902 908 906 898 919 896 926 905 915 921 891 901 905 916 899 893 896 910 904 905 905 914 913 893 903 901 908 901 899 898 897 892 895 901 920 898 905 924 910 918 916 921 904 899 903 919 912 920 893 899 888 896 909 912 904 902 894 903 901 904 901 904 901 896 899 896 899 903 904 900 904 891 896 911 925 906 899 893 900 897 920 900 895 892 897 902 897 916 891 896 894 895 901 902 892 928 893 897 898 881 891 900 895 899 895 904 899 892 896 903 902 920 892 907 898 892 908 910 891 905 896 898 896 902 897 907 903 898 922 890 897 904 899 895 893 890 904 899 898 901 888 906 894 902 901 897 894 893 896 899 899 901 896 906 905 900 893 898 895 895 903 924 885 899 899 903 896 899 895 893 898 905 910 888 899 887 908 903 899 929 898 894 910 885 896 907 902 901 903 900 899 901 896 900 928 899 906 891 895 893 898 899 905 894 898 894 895 890 896 921 894 904 889 896 900 902 896 906 895 887 921 904 893 893 897 891 926 903 898 896 893 901 897 906 900 925 898 913 900 899 897 891 899 895 902 888 897 909 905 895 902 899 921 899 894 922 898 901 924 901 922 901 894 922 894 892 906 909 898 913 893 900 915 917 900 895 882 906 896 901 898 898 880 908 896 898 905 890 919 902 917 907 896 899 894 924 892 895 898 895 900 896 892 896 903 911 908 895 894 896 899 903 903 896 900 912 898 919 895 898 905 905 901 895 904 895 897 905 896

Tree=0
num_leaves=7
num_cat=0
split_feature=56 56 55 50 51 45
split_gain=10834.8 6119.2 1681.37 1192.79 348.984 312.923
threshold=746.87500000000011 380.50000000000006 558.50000000000011 654.50000000000011 281.00000000000006 1.0000000180025095e-35
decision_type=10 8 10 10 10 2
left_child=1 5 4 -2 -3 -1
right_child=3 2 -4 -5 -6 -7
leaf_value=6.2940192675715352 6.3043969459794305 6.2903639521736725 6.2988956102202662 6.3134431326898053 6.2958331806905861 6.289444622342427
leaf_weight=15306.3955078125 21866.279296875 10933.1396484375 287541.57275390625 32799.4189453125 264581.9794921875 111518.0244140625
leaf_count=14 20 10 263 30 242 102
internal_value=6.29697 6.29595 6.29729 6.30982 6.29562 6.29
internal_weight=744547 689881 563057 54665.7 275515 126824
internal_count=681 631 515 50 252 116
is_linear=0
shrinkage=1


Tree=1
num_leaves=7
num_cat=0
split_feature=55 55 55 58 50 57
split_gain=9942.09 5505.73 1391.78 1152.71 497.191 418.217
threshold=827.00000000000011 413.50000000000006 558.50000000000011 0.30079155776506833 654.50000000000011 0.17332151072919227
decision_type=10 10 10 8 10 10
left_child=1 3 -3 -1 -2 -5
right_child=4 2 -4 5 -6 -7
leaf_value=-0.0065699827902481857 0.0086747906854249476 -0.0010927764755215006 0.0020925769843432528 -0.0062300678744934114 0.016092599865368575 0.00017679118797352396
leaf_weight=141265.18408203125 11014.65576171875 209662.21032714844 300232.31774902344 11959.19677734375 31121.2958984375 39301.186157226562
leaf_count=130 10 192 274 11 28 36
internal_value=-1.84655e-07 -0.000849255 0.0007828 -0.00517165 0.0141538 -0.00131804
internal_weight=744556 702420 509895 192526 42136 51260.4
internal_count=681 643 466 177 38 47
is_linear=0
shrinkage=0.03


Tree=2
num_leaves=7
num_cat=1
split_feature=56 56 55 59 69 52
split_gain=10006.7 5868.4 1576.02 1033.33 444.631 315.947
threshold=746.87500000000011 380.50000000000006 551.00000000000011 1882.0000000000002 0 225.35714285714286
decision_type=10 8 10 10 1 10
left_child=1 -1 5 -2 -4 -3
right_child=3 2 4 -5 -6 -7
leaf_value=-0.006867716037738913 0.005918645967058332 -0.0061759052210217527 0.0031650407330249281 0.014841106029288599 0.00082745085991139716 -0.0011691724318045446
leaf_weight=125177.65002441406 16609.37158203125 11884.921142578125 124028.39318847656 39390.643798828125 178852.73132324219 248620.70935058594
leaf_count=116 15 11 113 35 163 228
internal_value=-3.52208e-07 -0.000992191 0.000313288 0.0121949 0.00178482 -0.00139761
internal_weight=744564 688564 563387 56000 302881 260506
internal_count=681 631 515 50 276 239
cat_boundaries=0 1
cat_threshold=8
is_linear=0
shrinkage=0.03


Tree=3
num_leaves=7
num_cat=2
split_feature=58 69 8 69 52 52
split_gain=7226.04 3673.37 4355.12 1677.52 753.779 370.71
threshold=0.30079155776506833 0 1.0000000180025095e-35 1 225.35714285714286 611.55952380952397
decision_type=10 1 2 1 10 10
left_child=3 2 -2 -1 -5 -4
right_child=1 -3 5 4 -6 -7
leaf_value=-0.006233528616721949 0.0028230949919280314 7.6679378616991887e-05 0.009423471184427169 -0.0088500919516459504 -0.0009337719257881843 0.015015978144086792
leaf_weight=134235.26977539062 140898.13366699219 275739.50793457031 15741.544311523438 11783.25390625 133032.02368164062 33143.019897460938
leaf_count=125 128 252 14 11 122 29
internal_value=-5.19613e-07 0.00228765 0.00549971 -0.00381773 -0.00157785 0.0132153
internal_weight=744573 465522 189783 279051 144815 48884.6
internal_count=681 423 171 258 133 43
cat_boundaries=0 1 2
cat_threshold=24 3
is_linear=0
shrinkage=0.03


Tree=4
num_leaves=7
num_cat=1
split_feature=56 56 55 59 69 57
split_gain=9225.33 5494.09 1384.1 1275.02 344.268 300.901
threshold=732.50000000000011 380.50000000000006 551.00000000000011 1882.0000000000002 0 0.17332151072919227
decision_type=10 8 10 10 1 10
left_child=1 -1 5 -2 -4 -3
right_child=3 2 4 -5 -6 -7
leaf_value=-0.0067640139758808875 0.0054555259604127217 -0.0060607180972927889 0.002910897299483065 0.01400295817266751 0.00081221817392361864 -0.001143754709413057
leaf_weight=123581.62182617188 25646.94970703125 11729.990844726562 115901.56958007812 40533.046264648438 179026.16137695312 248161.23669433594
leaf_count=116 23 11 105 35 163 228
internal_value=-6.75688e-07 -0.00104366 0.000230511 0.0106907 0.0016371 -0.0013657
internal_weight=744581 678401 554819 66180 294928 259891
internal_count=681 623 507 58 268 239
cat_boundaries=0 1
cat_threshold=8
is_linear=0
shrinkage=0.03


Tree=5
num_leaves=7
num_cat=0
split_feature=56 56 50 56 65 57
split_gain=8865.17 5372.65 1212.31 1020.9 384.798 303.886
threshold=732.50000000000011 380.50000000000006 654.50000000000011 527.87500000000011 1.0000000180025095e-35 0.17332151072919227
decision_type=10 8 10 10 2 10
left_child=1 -1 -2 5 -5 -3
right_child=2 3 -4 4 -6 -7
leaf_value=-0.0067088124609576139 0.0061465538630596983 -0.0060070024753335833 0.014236921315236453 0.0015698274399265284 -0.0029952745427949267 -0.0010378141961532722
leaf_weight=122748.53540039062 31573.384033203125 11659.113647460938 35318.48681640625 304587.3935546875 17575.86865234375 221125.361328125
leaf_count=116 28 11 30 277 16 203
internal_value=-8.27226e-07 -0.00102927 0.0104184 0.000227 0.00132077 -0.00128672
internal_weight=744588 677696 66891.9 554948 322163 232784
internal_count=681 623 58 507 293 214
is_linear=0
shrinkage=0.03


Tree=6
num_leaves=7
num_cat=0
split_feature=55 55 55 58 50 27
split_gain=8044.44 4910.54 1642.14 799.063 381.275 325.114
threshold=827.00000000000011 367.50000000000006 558.50000000000011 0.30362619369028826 654.50000000000011 1.0000000180025095e-35
decision_type=10 8 10 10 10 2
left_child=1 3 -3 -1 -2 -4
right_child=4 2 5 -5 -6 -7
leaf_value=-0.0068107341776026276 0.007588565095054893 -0.0013035993228119359 0.0021329359295901599 7.4880740459698237e-05 0.013911767075308471 -0.0031168714327092935
leaf_weight=117896.31018066406 11546.78369140625 261349.99304199219 291900.3671875 17407.979125976562 33477.216796875 11016.598999023438
leaf_count=112 10 241 264 16 28 10
internal_value=-9.69496e-07 -0.000792047 0.000438745 -0.00592485 0.0122903 0.001942
internal_weight=744595 699571 564267 135304 45024 302917
internal_count=681 643 515 128 38 274
is_linear=0
shrinkage=0.03


Tree=7
num_leaves=7
num_cat=0
split_feature=56 56 55 59 45 51
split_gain=8234.03 5145.12 1275.97 1075.2 313.337 302.629
threshold=732.50000000000011 380.50000000000006 551.00000000000011 1882.0000000000002 1.0000000180025095e-35 281.00000000000006
decision_type=10 8 10 10 2 10
left_child=1 4 5 -2 -1 -3
right_child=3 2 -4 -5 -6 -7
leaf_value=-0.002506718439723088 0.005142351226923427 -0.0062967876517966738 0.0015643026589118032 0.012895631809793452 -0.0071713062028187008 -0.0011072680807441631
leaf_weight=14759.491455078125 26047.764038085938 10541.64697265625 296231.88269042969 42147.989013671875 106426.38208007812 248446.6142578125
leaf_count=14 23 10 268 35 102 229
internal_value=-1.09997e-06 -0.00100281 0.000219579 0.00993434 -0.00660322 -0.00131852
internal_weight=744602 676406 555220 68195.8 121186 258988
internal_count=681 623 507 58 116 239
is_linear=0
shrinkage=0.03


Tree=8
num_leaves=7
num_cat=0
split_feature=47 4 24 24 51 50
split_gain=4487.73 3047.06 3626.67 1752.64 1606.42 384.544
threshold=3.7500000000000004 1.0000000180025095e-35 1.0000000180025095e-35 1.0000000180025095e-35 259.33333333333343 402.00000000000006
decision_type=2 2 2 2 10 10
left_child=1 2 -1 -2 -3 -6
right_child=3 4 -4 -5 5 -7
leaf_value=0.011779104050985064 -0.0011849583747540555 -0.009794923385799988 -2.0414987928918178e-07 -0.0067547361512456184 -0.00063891662258530569 0.0013042072648105857
leaf_weight=50764.153076171875 108734.38061523438 13506.703491210938 43837.983764648438 95507.015869140625 131924.24401855469 300333.83898925781
leaf_count=42 100 13 40 92 121 273
internal_value=-1.23091e-06 0.00143062 0.00632071 -0.00378951 0.000392813 0.00071117
internal_weight=744608 540367 94602.1 204241 445765 432258
internal_count=681 489 82 192 407 394
is_linear=0
shrinkage=0.03


Tree=9
num_leaves=7
num_cat=0
split_feature=56 56 55 50 57 18
split_gain=7643.14 4935.02 1223.65 964.811 275.683 236.367
threshold=732.50000000000011 380.50000000000006 551.00000000000011 654.50000000000011 0.17332151072919227 1.0000000180025095e-35
decision_type=10 8 10 10 10 2
left_child=1 5 4 -2 -3 -1
right_child=3 2 -4 -5 -6 -7
leaf_value=-0.0079106807440453442 0.0056782705182090521 -0.0058450916819547307 0.0015283734723481211 0.012766162685253572 -0.0010837104195952434 -0.0052402079186843076
leaf_weight=56524.223022460938 32291.981567382812 11450.562744140625 296879.85363769531 37196.269775390625 247082.55883789062 63188.673461914062
leaf_count=55 28 11 268 30 228 61
internal_value=-1.34698e-06 -0.000976465 0.000214331 0.00947247 -0.00129462 -0.00650117
internal_weight=744614 675126 555413 69488.3 258533 119713
internal_count=681 623 507 58 239 116
is_linear=0
shrinkage=0.03


Tree=10
num_leaves=7
num_cat=0
split_feature=56 56 4 55 45 51
split_gain=7367.32 4531.12 1349.42 964.018 301.201 289.807
threshold=693.12500000000011 380.50000000000006 1.0000000180025095e-35 551.00000000000011 1.0000000180025095e-35 549.83333333333337
decision_type=10 8 2 10 2 10
left_child=1 4 5 -3 -1 -2
right_child=2 3 -4 -5 -6 -7
leaf_value=-0.0024191471359167028 0.0077009080661720854 -0.0012770010906446104 0.0039982414243096565 0.0012856004235210943 -0.0070123818025441499 0.012603797257290879
leaf_weight=14655.904663085938 15721.522094726562 258198.76428222656 46130.673461914062 270564.51831054688 104281.35815429688 35067.266967773438
leaf_count=14 13 239 41 244 102 28
internal_value=-1.46459e-06 -0.00115579 0.00771268 3.42643e-05 -0.00644641 0.0110863
internal_weight=744620 647701 96919.5 528763 118937 50788.8
internal_count=681 599 82 483 116 41
is_linear=0
shrinkage=0.03


Tree=11
num_leaves=7
num_cat=1
split_feature=55 55 55 58 69 53
split_gain=6797.98 3765.87 1817.83 774.166 404.005 271.083
threshold=551.00000000000011 827.00000000000011 362.50000000000006 0.30362619369028826 0 611.50000000000011
decision_type=10 10 8 10 1 10
left_child=2 4 3 -1 -2 -3
right_child=1 5 -4 -5 -6 -7
leaf_value=-0.006581984464378088 0.00063799892885691085 0.0071760076624756133 -0.0013344299391135068 0.00063590671287766911 0.0027715381214049738 0.012191294871466724
leaf_weight=113238.90502929688 156144.56860351562 13556.614135742188 248805.51702880859 15164.636596679688 163573.69201660156 34141.636596679688
leaf_count=111 141 11 231 14 146 27
internal_value=-1.57588e-06 0.0029028 -0.00283056 -0.00572954 0.00172967 0.010766
internal_weight=744626 367417 377209 128404 319718 47698.3
internal_count=681 325 356 125 287 38
cat_boundaries=0 1
cat_threshold=7
is_linear=0
shrinkage=0.03


Tree=12
num_leaves=7
num_cat=0
split_feature=56 56 59 55 45 51
split_gain=6877.7 4339.31 1278.16 902.581 295.584 283.832
threshold=693.12500000000011 380.50000000000006 1882.0000000000002 551.00000000000011 1.0000000180025095e-35 281.00000000000006
decision_type=10 8 10 10 2 10
left_child=1 4 -2 5 -1 -3
right_child=2 3 -4 -5 -6 -7
leaf_value=-0.0023413612283504268 0.0041970544007764541 -0.0061136618409635976 0.011054342561848163 0.0012397586102181634 -0.0069076925468931879 -0.0010363059115215735
leaf_weight=14565.105346679688 52535.01513671875 10321.85498046875 45785.814453125 271333.11938476562 102914.97277832031 247174.69470214844
leaf_count=14 46 10 36 244 102 229
internal_value=-1.67604e-06 -0.00112622 0.00739042 3.23898e-05 -0.00634159 -0.00123986
internal_weight=744631 646310 98320.8 528830 117480 257497
internal_count=681 599 82 483 116 239
is_linear=0
shrinkage=0.03


Tree=13
num_leaves=7
num_cat=0
split_feature=56 56 50 55 51 51
split_gain=6631.96 4242.8 1312.24 875.867 277.787 276.093
threshold=693.12500000000011 380.50000000000006 654.50000000000011 551.00000000000011 281.00000000000006 675.33333333333337
decision_type=10 8 10 10 10 10
left_child=1 5 -2 4 -3 -1
right_child=2 3 -4 -5 -6 -7
leaf_value=-0.0067892008081782487 0.0044457462412527595 -0.006059800786177484 0.011514632539794813 0.0012197647324505181 -0.0010219340237665213 -0.0020470925107677154
leaf_weight=104378.31530761719 60091.878051757812 10258.942993164062 38958.844970703125 271669.71203613281 246918.67749023438 12359.243713378906
leaf_count=104 52 10 30 244 229 12
internal_value=-1.77695e-06 -0.00111076 0.00722618 3.1891e-05 -0.00122292 -0.00628717
internal_weight=744636 645585 99050.7 528847 257178 116738
internal_count=681 599 82 483 239 116
is_linear=0
shrinkage=0.03


Tree=14
num_leaves=7
num_cat=0
split_feature=56 56 50 55 57 47
split_gain=6395.96 4148.15 1243.88 849.946 260.638 240.935
threshold=693.12500000000011 380.50000000000006 654.50000000000011 551.00000000000011 0.17332151072919227 3.0000000000000004
decision_type=10 8 10 10 10 2
left_child=1 5 -2 4 -3 -1
right_child=2 3 -4 -5 -6 -7
leaf_value=-0.0024530480308016449 0.0043599429916996906 -0.0056737083976950778 0.011212257464567752 0.0012001174491117373 -0.0010017749949155191 -0.0067274308041185603
leaf_weight=13422.982421875 60359.62744140625 11237.787658691406 39410.034912109375 272001.287109375 245625.65209960938 102583.05969238281
leaf_count=13 52 11 30 244 228 103
internal_value=-1.87315e-06 -0.00109549 0.00706676 3.14001e-05 -0.00120619 -0.00623287
internal_weight=744640 644871 99769.7 528865 256863 116006
internal_count=681 599 82 483 239 116
is_linear=0
shrinkage=0.03


Tree=15
num_leaves=7
num_cat=1
split_feature=55 55 55 58 69 59
split_gain=6023.63 3168.13 1685.31 713.14 370.154 266.526
threshold=551.00000000000011 827.00000000000011 367.50000000000006 0.30362619369028826 0 898.00000000000011
decision_type=10 10 8 10 1 10
left_child=2 4 3 -1 -2 -4
right_child=1 -3 5 -5 -6 -7
leaf_value=-0.006349904112780495 0.00056958956018730118 0.009754576431553804 -0.0045340974637933743 0.00020286805643776959 0.0026047637507450065 -0.00093336088331791257
leaf_weight=111540.10760498047 156835.22546386719 49655.343139648438 20165.514526367188 17260.425415039062 165132.44250488281 224055.89489746094
leaf_count=112 141 38 19 16 146 209
internal_value=-1.96363e-06 0.00270132 -0.00269511 -0.00547178 0.0016135 -0.00123069
internal_weight=744645 371623 373022 128801 321968 244221
internal_count=681 325 356 128 287 228
cat_boundaries=0 1
cat_threshold=7
is_linear=0
shrinkage=0.03


Tree=16
num_leaves=7
num_cat=0
split_feature=55 55 55 58 51 27
split_gain=5845.44 3030.91 1651.08 700.202 364.146 300.785
threshold=551.00000000000011 827.00000000000011 367.50000000000006 0.30362619369028826 380.33333333333343 1.0000000180025095e-35
decision_type=10 10 8 10 10 2
left_child=2 5 3 -1 -4 -2
right_child=1 -3 4 -5 -6 -7
leaf_value=-0.0062954550791757226 0.0017602448286463178 0.0095152792537786541 -0.004228846765859876 0.00019980522057386779 -0.00076822687860564017 -0.0032549474518324176
leaf_weight=110834.08258056641 311340.45361328125 50142.080322265625 31409.997436523438 17263.927490234375 212511.15710449219 11147.262817382812
leaf_count=112 277 38 30 16 198 10
internal_value=-2.04381e-06 0.00265377 -0.00266221 -0.00542009 -0.00121387 0.00158688
internal_weight=744649 372630 372019 128098 243921 322488
internal_count=681 325 356 128 228 287
is_linear=0
shrinkage=0.03


Tree=17
num_leaves=7
num_cat=1
split_feature=55 55 55 58 69 51
split_gain=5672.61 2900.56 1617.38 687.427 357.265 355.605
threshold=551.00000000000011 827.00000000000011 367.50000000000006 0.30362619369028826 0 380.33333333333343
decision_type=10 10 8 10 1 10
left_child=2 4 3 -1 -2 -4
right_child=1 -3 5 -5 -6 -7
leaf_value=-0.0062411307000296533 0.00053578775791227409 0.0092840904166338629 -0.0041836363321440936 0.00019678915107280409 0.0025320640996241532 -0.00075736822335692087
leaf_weight=110138.52276611328 157178.74426269531 50621.472778320312 31277.449829101562 17267.377197265625 165821.26257324219 212347.96612548828
leaf_count=112 141 38 30 16 146 198
internal_value=-2.12055e-06 0.00260718 -0.00262964 -0.0053686 0.00156073 -0.00119726
internal_weight=744653 373621 371031 127406 323000 243625
internal_count=681 325 356 128 287 228
cat_boundaries=0 1
cat_threshold=7
is_linear=0
shrinkage=0.03


Tree=18
num_leaves=7
num_cat=1
split_feature=20 24 51 41 69 51
split_gain=4065.97 2357.67 1223.31 1218.44 927.533 919.405
threshold=11.250000000000002 1.0000000180025095e-35 259.33333333333343 1.0000000180025095e-35 0 459.16666666666669
decision_type=2 2 10 2 1 10
left_child=1 2 -1 -3 -4 -2
right_child=5 3 4 -5 -6 -7
leaf_value=-0.0093467545030372409 0.00020876521341294248 -2.5030830952727111e-05 0.0023882676984870389 -0.006162880022122493 -0.00034253120204579202 0.0099473495871653592
leaf_weight=11729.712951660156 10968.239990234375 42821.906799316406 157270.09741210938 90890.13232421875 388319.68334960938 42656.62890625
leaf_count=12 10 39 139 93 356 32
internal_value=-2.19268e-06 -0.000619729 0.000238588 -0.00419722 0.000444681 0.0079555
internal_weight=744656 691032 557319 133712 545590 53624.9
internal_count=681 639 507 132 495 42
cat_boundaries=0 1
cat_threshold=8
is_linear=0
shrinkage=0.03


Tree=19
num_leaves=7
num_cat=1
split_feature=55 55 55 58 51 69
split_gain=5386.85 2677.64 1553.08 666.713 343.499 330.115
threshold=551.00000000000011 827.00000000000011 367.50000000000006 0.30362619369028826 380.33333333333343 0
decision_type=10 10 8 10 10 1
left_child=2 5 3 -1 -4 -2
right_child=1 -3 4 -5 -6 -7
leaf_value=-0.0061432364116371417 0.00053257340727652788 0.0088850283521862555 -0.0041180896331804691 0.00020291396418781196 -0.00074143911301469438 0.0024491782668626563
leaf_weight=108906.90075683594 157211.48999023438 51470.897338867188 31087.255493164062 17260.373168945312 212109.02026367188 166613.63952636719
leaf_count=112 141 38 30 16 198 146
internal_value=-2.25615e-06 0.00252908 -0.00257425 -0.00527505 -0.00117308 0.0015188
internal_weight=744660 375296 369364 126167 243196 323825
internal_count=681 325 356 128 228 287
cat_boundaries=0 1
cat_threshold=7
is_linear=0
shrinkage=0.03


Tree=20
num_leaves=7
num_cat=1
split_feature=56 56 56 69 59 59
split_gain=5332.81 3397.91 1027.19 496.025 447.905 280.357
threshold=473.87500000000006 746.87500000000011 347.50000000000006 0 1651.0000000000002 2096.0000000000005
decision_type=10 10 8 1 10 10
left_child=2 3 -1 -2 -3 -5
right_child=1 4 -4 5 -6 -7
leaf_value=-0.0062157247558483767 0.0021713572463923506 0.0030198219060582694 -0.0020495988124008295 -0.00047848481153547543 0.0091879255679484222 0.0015400636712531656
leaf_weight=100209.95428466797 143034.04113769531 13235.58251953125 113696.02734375 237585.32971191406 53145.320556640625 83756.541748046875
leaf_count=104 126 11 108 217 39 76
internal_value=-2.32059e-06 0.00160938 -0.00400135 0.000701827 0.00795814 4.76439e-05
internal_weight=744663 530757 213906 464376 66380.9 321342
internal_count=681 469 212 419 50 293
cat_boundaries=0 1
cat_threshold=8
is_linear=0
shrinkage=0.03


Tree=21
num_leaves=7
num_cat=1
split_feature=56 56 56 69 50 51
split_gain=5187.66 3263.24 1009.23 479.94 425.888 232.995
threshold=473.87500000000006 746.87500000000011 347.50000000000006 0 558.50000000000011 259.33333333333343
decision_type=10 10 8 1 10 10
left_child=2 3 -1 -2 -3 -4
right_child=1 4 5 -5 -6 -7
leaf_value=-0.0061615932975277237 0.0021343375493547835 0.0029658003371641531 -0.0064357417318010026 4.6926018212839227e-05 0.0089676473431494538 -0.0016043807544481802
leaf_weight=99589.009033203125 143344.95874023438 13275.612182617188 9835.5276489257812 321357.30157470703 53635.866943359375 103627.70660400391
leaf_count=104 126 11 10 293 39 98
internal_value=-2.38436e-06 0.00158277 -0.00395769 0.000690872 0.00777691 -0.00202324
internal_weight=744666 531614 213052 464702 66911.5 113463
internal_count=681 469 212 419 50 108
cat_boundaries=0 1
cat_threshold=8
is_linear=0
shrinkage=0.03


Tree=22
num_leaves=7
num_cat=0
split_feature=55 55 55 58 51 65
split_gain=4965.9 2343.29 1459.42 631.847 331.812 301.205
threshold=551.00000000000011 827.00000000000011 367.50000000000006 0.30362619369028826 380.33333333333343 1.0000000180025095e-35
decision_type=10 10 8 10 10 2
left_child=2 5 3 -1 -4 -2
right_child=1 -3 4 -5 -6 -7
leaf_value=-0.0059908460301561972 0.0016312139625003455 0.0082708719286115027 -0.0040398777043495369 0.00019268755683043076 -0.00071021594137426688 -0.0033793152347533378
leaf_weight=107043.52813720703 313830.81762695312 52835.330932617188 30863.314819335938 17272.070678710938 211642.21112060547 11181.685424804688
leaf_count=112 277 38 30 16 198 10
internal_value=-2.44386e-06 0.00241139 -0.00248883 -0.00513173 -0.00113399 0.00145882
internal_weight=744669 377848 366821 124316 242506 325013
internal_count=681 325 356 128 228 287
is_linear=0
shrinkage=0.03


Tree=23
num_leaves=7
num_cat=0
split_feature=56 56 55 55 50 55
split_gain=4922.1 2902.32 1176.66 393.597 390.782 241.17
threshold=488.12500000000006 746.87500000000011 367.50000000000006 605.50000000000011 558.50000000000011 188.50000000000003
decision_type=10 10 8 10 10 10
left_child=2 3 5 -2 -3 -1
right_child=1 4 -4 -5 -6 -7
leaf_value=-0.0096045256623958526 -3.6550867169444556e-05 0.0028502602875170105 -0.0015628151000776521 0.0017722342754275555 0.0085750778231572771 -0.0052711474712369847
leaf_weight=13077.492736816406 239396.27661132812 13362.044677734375 127021.67620849609 197676.60656738281 54532.919189453125 99604.642395019531
leaf_count=14 219 11 120 174 39 104
internal_value=-2.49787e-06 0.00167793 -0.00354253 0.000781517 0.00744847 -0.00577414
internal_weight=744672 504968 239704 437073 67895 112682
internal_count=681 443 238 393 50 118
is_linear=0
shrinkage=0.03


Tree=24
num_leaves=7
num_cat=1
split_feature=56 56 56 69 50 59
split_gain=4790.22 2906.08 961.356 451.406 376.511 268.513
threshold=473.87500000000006 746.87500000000011 347.50000000000006 0 654.50000000000011 2096.0000000000005
decision_type=10 10 8 1 10 10
left_child=2 3 -1 -2 -3 -5
right_child=1 4 -4 5 -6 -7
leaf_value=-0.0060088846923697977 0.0020562860802006825 0.0043794435857857639 -0.0019454449599655662 -0.00048006014158816365 0.0089891512114038084 0.0014932850975957754
leaf_weight=97878.036499023438 144004.93505859375 25324.767822265625 112781.73760986328 237611.28674316406 43077.970581054688 83995.583618164062
leaf_count=104 126 20 108 217 30 76
internal_value=-2.55102e-06 0.00150868 -0.00383344 0.000660421 0.00728259 3.53297e-05
internal_weight=744674 534015 210660 465612 68402.7 321607
internal_count=681 469 212 419 50 293
cat_boundaries=0 1
cat_threshold=8
is_linear=0
shrinkage=0.03


Tree=25
num_leaves=7
num_cat=1
split_feature=55 55 55 58 27 69
split_gain=4569.1 2058.53 1365.33 602.424 283.307 319.742
threshold=551.00000000000011 827.00000000000011 367.50000000000006 0.30362619369028826 1.0000000180025095e-35 0
decision_type=10 10 8 10 2 1
left_child=2 4 3 -1 5 -2
right_child=1 -3 -4 -5 -6 -7
leaf_value=-0.0058364120333792516 0.00058243721615363145 0.0077150266097725578 -0.0010967816160685219 0.00021202005452400894 -0.0032937074977918445 0.0024947337444312812
leaf_weight=105219.10876464844 153222.49133300781 54134.114013671875 241851.67114257812 17249.969970703125 11184.501342773438 161814.9248046875
leaf_count=112 137 38 228 16 10 140
internal_value=-2.60027e-06 0.00229725 -0.00240367 -0.00498449 0.00139818 0.00156477
internal_weight=744677 380356 364321 122469 326222 315037
internal_count=681 325 356 128 287 277
cat_boundaries=0 1
cat_threshold=7
is_linear=0
shrinkage=0.03


Tree=26
num_leaves=7
num_cat=1
split_feature=56 56 56 50 69 51
split_gain=4546.04 2696.01 927.662 444.617 354.549 227.739
threshold=473.87500000000006 732.50000000000011 347.50000000000006 654.50000000000011 0 259.33333333333343
decision_type=10 10 8 10 1 10
left_child=2 4 -1 -3 -2 -4
right_child=1 3 5 -5 -6 -7
leaf_value=-0.0059065828056398938 0.001867355277441102 0.0040666768037249459 -0.0062984723256052869 0.0086011084663529715 3.6035182679992271e-05 -0.0014848160817744795
leaf_weight=96764.344299316406 135114.88330078125 35036.26171875 9678.5042114257812 43789.350952148438 321591.671875 102703.93292236328
leaf_count=104 118 28 10 30 293 98
internal_value=-2.64372e-06 0.00146218 -0.00375341 0.00658573 0.000577869 -0.00189943
internal_weight=744679 535532 209147 78825.6 456707 112382
internal_count=681 469 212 58 411 108
cat_boundaries=0 1
cat_threshold=8
is_linear=0
shrinkage=0.03


Tree=27
num_leaves=7
num_cat=0
split_feature=56 56 55 55 50 55
split_gain=4423.92 2481.11 1093.94 359.632 340.238 240.975
threshold=488.12500000000006 746.87500000000011 367.50000000000006 624.50000000000011 553.50000000000011 188.50000000000003
decision_type=10 10 8 10 10 10
left_child=2 3 5 -2 -3 -1
right_child=1 4 -4 -5 -6 -7
leaf_value=-0.0094577402765059701 7.8528004489664802e-05 0.0023114850510826067 -0.0014851777827146833 0.0018576871592626465 0.007797697853583101 -0.0050681280808956364
leaf_weight=12724.58837890625 275781.6435546875 12363.132202148438 126286.40966796875 162502.42492675781 57475.542358398438 97547.363464355469
leaf_count=14 251 10 120 142 40 104
internal_value=-2.68673e-06 0.00157501 -0.00339155 0.000738189 0.00682655 -0.00557474
internal_weight=744681 508123 236558 438284 69838.7 110272
internal_count=681 443 238 393 50 118
is_linear=0
shrinkage=0.03


Tree=28
num_leaves=7
num_cat=0
split_feature=20 47 51 59 59 50
split_gain=2923.17 2042.64 1128.03 804.839 727.838 681.379
threshold=11.250000000000002 3.7500000000000004 259.33333333333343 1914.5000000000002 1356.0000000000002 558.50000000000011
decision_type=2 2 10 10 10 10
left_child=1 2 -1 -3 -4 -2
right_child=5 3 4 -5 -6 -7
leaf_value=-0.0090167837353880495 -0.00020682529783824034 -0.0049580191040422576 -0.00095109061632791517 -0.00098203600446788606 0.0014928336509061279 0.0081054362518040921
leaf_weight=11071.502136230469 10982.447204589844 105207.57952880859 165725.89483642578 81174.883972167969 324259.37420654297 46261.448120117188
leaf_count=12 10 110 154 76 287 32
internal_value=-2.72729e-06 -0.000545119 0.000452258 -0.00322638 0.000666234 0.00651072
internal_weight=744683 687439 501057 186382 489985 57243.9
internal_count=681 639 453 186 441 42
is_linear=0
shrinkage=0.03


Tree=29
num_leaves=7
num_cat=0
split_feature=56 56 55 59 55 51
split_gain=4215.49 2420.72 885.856 440.174 356.767 212.49
threshold=473.87500000000006 732.50000000000011 345.00000000000006 1595.0000000000002 605.50000000000011 259.33333333333343
decision_type=10 10 8 10 10 10
left_child=2 4 -1 -3 -2 -4
right_child=1 3 5 -5 -6 -7
leaf_value=-0.0058550906503925136 -0.00016525225477566957 0.0019230081250771736 -0.006187000729326592 0.0073568294288097096 0.0015297643208488012 -0.0015168389734564825
leaf_weight=91041.054443359375 263113.59246826172 17032.604736328125 9554.6329956054688 63220.458129882812 194277.44970703125 106445.05737304688
leaf_count=99 241 14 10 44 170 103
internal_value=-2.76159e-06 0.00139792 -0.00364005 0.00620361 0.00055471 -0.00190156
internal_weight=744685 537644 207041 80253.1 457391 116000
internal_count=681 469 212 58 411 113
is_linear=0
shrinkage=0.03


Tree=30
num_leaves=7
num_cat=0
split_feature=20 47 51 59 59 50
split_gain=2730.06 1946.95 1088.79 775.426 693.803 624.84
threshold=11.250000000000002 3.7500000000000004 259.33333333333343 1914.5000000000002 1356.0000000000002 558.50000000000011
decision_type=2 2 10 10 10 10
left_child=1 2 -1 -3 -4 -2
right_child=5 3 4 -5 -6 -7
leaf_value=-0.0089312838594169108 -0.00019506606515017861 -0.0048688701687460752 -0.00093204253823118716 -0.00095658897013541978 0.0014541831511977075 0.0077558289145227711
leaf_weight=10912.827270507812 10973.662475585938 104272.33953857422 165499.85290527344 81026.712036132812 325025.82763671875 46975.412353515625
leaf_count=12 10 110 154 76 287 32
internal_value=-2.79731e-06 -0.000530454 0.000440572 -0.00315814 0.000649087 0.00625021
internal_weight=744687 686738 501439 185299 490526 57949.1
internal_count=681 639 453 186 441 42
is_linear=0
shrinkage=0.03


Tree=31
num_leaves=7
num_cat=0
split_feature=55 55 55 58 51 65
split_gain=3921.4 1610.22 1211.04 552.138 308.053 278.798
threshold=551.00000000000011 827.00000000000011 367.50000000000006 0.30362619369028826 380.33333333333343 1.0000000180025095e-35
decision_type=10 10 8 10 10 2
left_child=2 5 3 -1 -4 -2
right_child=1 -3 4 -5 -6 -7
leaf_value=-0.0055619318396409271 0.0014621397635846149 0.0067827390897005771 -0.0038536967656347914 0.00024657651075939645 -0.00062025332089138386 -0.0033612267107134149
leaf_weight=102125.49353027344 317074.20690917969 56462.010498046875 30342.993774414062 17210.606018066406 210308.62927246094 11164.1513671875
leaf_count=112 277 38 30 16 198 10
internal_value=-2.82653e-06 0.00210307 -0.00225329 -0.00472424 -0.00102796 0.00129808
internal_weight=744688 384700 359988 119336 240652 328238
internal_count=681 325 356 128 228 287
is_linear=0
shrinkage=0.03


Tree=32
num_leaves=7
num_cat=0
split_feature=56 56 50 56 27 45
split_gain=3921.57 2589.1 536.247 458.259 288.763 255.201
threshold=380.50000000000006 700.12500000000011 654.50000000000011 527.87500000000011 1.0000000180025095e-35 1.0000000180025095e-35
decision_type=8 10 10 10 2 2
left_child=5 3 -3 -2 -5 -1
right_child=1 2 -4 4 -6 -7
leaf_value=-0.001543344473244942 -0.00098918376910910846 0.0033052039029320829 0.0076105022047176576 0.00097608765186288924 -0.0037595506315265311 -0.0059338416184814497
leaf_weight=13694.668579101562 227804.53674316406 60493.381469726562 45716.615234375 293182.09741210938 12064.43310546875 91733.808837890625
leaf_count=14 214 49 30 261 11 102
internal_value=-2.85545e-06 0.000881251 0.00515841 2.9022e-05 0.000788907 -0.00536356
internal_weight=744690 639261 106210 533051 305247 105428
internal_count=681 565 79 486 272 116
is_linear=0
shrinkage=0.03


Tree=33
num_leaves=7
num_cat=0
split_feature=55 55 55 58 65 51
split_gain=3710.5 1439.8 1214.55 533.576 273.773 268.716
threshold=558.50000000000011 827.00000000000011 367.50000000000006 0.30362619369028826 1.0000000180025095e-35 380.33333333333343
decision_type=10 10 8 10 2 10
left_child=2 4 3 -1 -2 -4
right_child=1 -3 5 -5 -6 -7
leaf_value=-0.0054612657913249768 0.0014912714350039833 0.0064955080493919156 -0.0035517837923736916 0.00025447874659225751 -0.0033036030428193718 -0.00058561200382867924
leaf_weight=101036.01550292969 303389.46484375 57220.103393554688 31344.138427734375 17201.629638671875 11108.6591796875 223391.03015136719
leaf_count=112 264 38 31 16 10 210
internal_value=-2.8854e-06 0.00211831 -0.00211694 -0.00462972 0.0013219 -0.0009506
internal_weight=744691 371718 372973 118238 314498 254735
internal_count=681 312 369 128 274 241
is_linear=0
shrinkage=0.03


Tree=34
num_leaves=7
num_cat=0
split_feature=56 56 55 50 51 59
split_gain=3734.95 2426.65 505.763 492.083 247.083 245.159
threshold=380.50000000000006 700.12500000000011 558.50000000000011 654.50000000000011 675.33333333333337 898.00000000000011
decision_type=8 10 10 10 10 10
left_child=4 2 5 -3 -1 -2
right_child=1 3 -4 -5 -6 -7
leaf_value=-0.0057801727279593864 -0.004141971254159155 0.0031992242470589055 0.00095062560041179838 0.0073021127478000072 -0.0011237670813650194 -0.00064226822122763049
leaf_weight=92826.576843261719 19430.285278320312 60847.653076171875 266578.1044921875 46351.708374023438 11530.675415039062 247127.23699951172
leaf_count=104 19 49 234 30 12 233
internal_value=-2.90948e-06 0.000854788 2.66545e-05 0.00497332 -0.00526569 -0.000897388
internal_weight=744692 640335 533136 107199 104357 266558
internal_count=681 565 486 79 116 252
is_linear=0
shrinkage=0.03


Tree=35
num_leaves=7
num_cat=0
split_feature=56 56 55 58 45 59
split_gain=3640.75 2341.06 476.817 458.721 247.204 239.281
threshold=380.50000000000006 693.12500000000011 558.50000000000011 0.49969819732855209 1.0000000180025095e-35 898.00000000000011
decision_type=8 10 10 10 2 10
left_child=4 2 5 -3 -1 -2
right_child=1 3 -4 -5 -6 -7
leaf_value=-0.0014431585881837219 -0.0040973318147339991 0.0033155362807512465 0.00091550766611634869 0.0073016374030533092 -0.0057830979788911149 -0.00063310959404070885
leaf_weight=13592.68603515625 19349.971801757812 69913.797973632812 263298.01513671875 41353.870727539062 90216.609375 246968.56488037109
leaf_count=14 19 55 231 27 102 233
internal_value=-2.93501e-06 0.000841289 1.02076e-05 0.00479707 -0.00521485 -0.000884825
internal_weight=744694 640884 529617 111268 103809 266319
internal_count=681 565 483 82 116 252
is_linear=0
shrinkage=0.03


Tree=36
num_leaves=7
num_cat=0
split_feature=55 55 55 48 59 27
split_gain=3394.7 1319.88 1105.21 330.178 257.061 251.69
threshold=551.00000000000011 827.00000000000011 296.50000000000006 -4.4999999999999991 898.00000000000011 1.0000000180025095e-35
decision_type=10 10 8 2 10 2
left_child=2 5 -1 -4 -5 -2
right_child=1 -3 3 4 -6 -7
leaf_value=-0.0056270306688932575 0.0013563555404461582 0.0060977289291128684 -0.0033359622750635662 -0.0042220983982853236 -0.0005212563236557102 -0.0032334671549948298
leaf_weight=65857.694213867188 319076.89721679688 58304.220703125 58520.751892089844 18342.4609375 213465.90924072266 11126.732421875
leaf_count=74 277 38 61 18 203 10
internal_value=-2.95795e-06 0.00193646 -0.00211836 -0.00132244 -0.000814112 0.00120168
internal_weight=744695 388508 356187 290329 231808 330204
internal_count=681 325 356 282 221 287
is_linear=0
shrinkage=0.03


Tree=37
num_leaves=7
num_cat=0
split_feature=56 56 50 56 65 45
split_gain=3473.99 2196.86 457.813 399.568 278.969 240.838
threshold=380.50000000000006 693.12500000000011 654.50000000000011 527.87500000000011 1.0000000180025095e-35 1.0000000180025095e-35
decision_type=8 10 10 10 2 2
left_child=5 3 -3 -2 -5 -1
right_child=1 2 -4 4 -6 -7
leaf_value=-0.0013944371498757812 -0.00094202837181458837 0.0029956682188507495 0.0068766539404798519 0.00094032720848001236 -0.0030944063487573334 -0.0056877887647682835
leaf_weight=13543.637878417969 227034.78735351562 64961.84130859375 47257.41943359375 286314.66278076172 16300.144470214844 89282.974975585938
leaf_count=14 214 52 30 254 15 102
internal_value=-2.974e-06 0.000817145 0.00463006 9.27761e-06 0.000722989 -0.00512232
internal_weight=744695 641869 112219 529650 302615 102827
internal_count=681 565 82 483 269 116
is_linear=0
shrinkage=0.03


Tree=38
num_leaves=7
num_cat=0
split_feature=55 55 55 48 59 65
split_gain=3209.87 1218.25 1061.93 314.203 250.679 247.024
threshold=551.00000000000011 827.00000000000011 296.50000000000006 -4.4999999999999991 898.00000000000011 1.0000000180025095e-35
decision_type=10 10 8 2 10 2
left_child=2 5 -1 -4 -5 -2
right_child=1 -3 3 4 -6 -7
leaf_value=-0.0055280092956530953 0.0013199790484886222 0.0058466872422544072 -0.0032608416868329364 -0.0041684137934772936 -0.00050518793748298169 -0.0032421326918883257
leaf_weight=65161.671752929688 319853.64465332031 59009.81640625 58142.965393066406 18250.677673339844 213227.58526611328 11050.066650390625
leaf_count=74 277 38 61 18 203 10
internal_value=-2.99314e-06 0.00187577 -0.00206779 -0.00128926 -0.000794028 0.00116762
internal_weight=744696 389914 354783 289621 231478 330904
internal_count=681 325 356 282 221 287
is_linear=0
shrinkage=0.03


Tree=39
num_leaves=7
num_cat=1
split_feature=47 69 50 57 50 19
split_gain=2130.69 1736.93 1018.97 708.696 539.194 342.34
threshold=3.7500000000000004 0 654.50000000000011 0.2406233815272443 345.00000000000006 1.0000000180025095e-35
decision_type=2 1 10 8 10 2
left_child=1 2 4 -3 -1 -2
right_child=5 3 -4 -5 -6 -7
leaf_value=-0.0034437626077416664 -0.0038242707082944602 -0.0085135238290715773 0.0066250090799127616 -0.00021185302241501718 0.0023815939171889168 -0.0012066908644308319
leaf_weight=15736.5673828125 111969.79406738281 9526.6568603515625 52455.792602539062 323275.58508300781 156583.92529296875 75148.718566894531
leaf_count=15 120 11 34 298 131 72
internal_value=-3.00548e-06 0.000926596 0.00296392 -0.000449505 0.0018496 -0.00277304
internal_weight=744697 557579 224776 332802 172320 187119
internal_count=681 489 180 309 146 192
cat_boundaries=0 1
cat_threshold=24
is_linear=0
shrinkage=0.03


Tree=40
num_leaves=7
num_cat=0
split_feature=56 56 58 58 59 51
split_gain=3255.72 1993.83 426.369 380.702 256.159 232.997
threshold=380.50000000000006 693.12500000000011 0.2773559445682206 0.49969819732855209 1356.0000000000002 675.33333333333337
decision_type=8 10 10 10 10 10
left_child=5 2 -2 -3 -4 -1
right_child=1 3 4 -5 -6 -7
leaf_value=-0.0055068764332182694 -0.001607557011604412 0.0030450525687727259 -0.00057274213519102472 0.0066316608337470247 0.00099757226725673146 -0.00095283603930385735
leaf_weight=90125.024719238281 114697.61883544922 70967.759887695312 142301.33569335938 42640.809326171875 272575.85180664062 11389.322814941406
leaf_count=104 110 55 131 27 242 12
internal_value=-3.01917e-06 0.000785028 1.13827e-05 0.00439126 0.00045896 -0.00499595
internal_weight=744698 643183 529575 113609 414877 101514
internal_count=681 565 483 82 373 116
is_linear=0
shrinkage=0.03


Tree=41
num_leaves=7
num_cat=1
split_feature=55 55 55 65 69 24
split_gain=2964.11 1083.13 1008.63 236.838 245.753 235.774
threshold=551.00000000000011 827.00000000000011 296.50000000000006 1.0000000180025095e-35 0 1.0000000180025095e-35
decision_type=10 10 8 2 1 2
left_child=2 3 -1 4 -2 -4
right_child=1 -3 5 -5 -6 -7
leaf_value=-0.0053966064468887265 0.00041181910444865655 0.0055020732409002994 -0.0008432731578888183 -0.0032032530808253868 0.0020734392492878662 -0.0030909070426539567
leaf_weight=64260.440734863281 154994.89465332031 60006.693359375 237566.02423095703 11013.32568359375 165832.15405273438 51024.887145996094
leaf_count=74 137 38 227 10 140 55
internal_value=-3.03308e-06 0.001793 -0.00199756 0.00112228 0.00127077 -0.00124068
internal_weight=744698 391847 352851 331840 320827 288591
internal_count=681 325 356 287 277 282
cat_boundaries=0 1
cat_threshold=7
is_linear=0
shrinkage=0.03


Tree=42
num_leaves=7
num_cat=0
split_feature=56 56 58 58 51 45
split_gain=3104.94 1865.88 409.717 353.658 229.556 227.848
threshold=380.50000000000006 693.12500000000011 0.2773559445682206 0.49969819732855209 354.33333333333343 1.0000000180025095e-35
decision_type=8 10 10 10 10 2
left_child=5 2 4 -3 -2 -1
right_child=1 3 -4 -5 -6 -7
leaf_value=-0.001265074599076581 -0.0052541827435112886 0.0029383250882797089 0.00044967045256762589 0.0063786043545531563 -0.0010866840419082489 -0.0054649877375136258
leaf_weight=13415.10888671875 13483.37451171875 71392.425903320312 415128.31658935547 43147.986572265625 100957.47473144531 87174.048889160156
leaf_count=14 14 55 373 27 96 102
internal_value=-3.03946e-06 0.000762477 1.15415e-05 0.00423434 -0.00157774 -0.00490488
internal_weight=744699 644110 529569 114540 114441 100589
internal_count=681 565 483 82 110 116
is_linear=0
shrinkage=0.03


Tree=43
num_leaves=7
num_cat=0
split_feature=55 55 55 58 55 55
split_gain=2806.83 1003.16 969.725 251.244 203.664 202.056
threshold=558.50000000000011 296.50000000000006 827.00000000000011 0.31157851373694079 188.50000000000003 413.50000000000006
decision_type=10 8 10 10 10 8
left_child=1 4 -2 5 -1 -3
right_child=2 3 -4 -5 -6 -7
leaf_value=-0.0089044420969565628 0.0011448413865941707 -0.0033116012692533518 0.0052840951072276147 -0.00011732320259798097 -0.0045007724152443841 -0.0011667662913197976
leaf_weight=11549.733642578125 317969.1748046875 59047.627563476562 60654.8251953125 123818.05792236328 52066.519592285156 119593.32507324219
leaf_count=14 274 64 38 116 60 115
internal_value=-3.04997e-06 -0.00187613 0.00180795 -0.00115589 -0.0053004 -0.00187573
internal_weight=744699 366075 378624 302459 63616.3 178641
internal_count=681 369 312 295 74 179
is_linear=0
shrinkage=0.03


Tree=44
num_leaves=7
num_cat=0
split_feature=56 56 58 50 55 51
split_gain=2956.36 1753.19 387.878 351.795 234.424 225.044
threshold=380.50000000000006 693.12500000000011 0.2773559445682206 654.50000000000011 188.50000000000003 354.33333333333343
decision_type=8 10 10 10 10 10
left_child=4 2 5 -3 -1 -2
right_child=1 3 -4 -5 -6 -7
leaf_value=-0.0088508433049019637 -0.0051920686150762766 0.0026622073125721871 0.00043529713265771968 0.0060113860550445658 -0.0042876246535108924 -0.0010534365817842482
leaf_weight=11447.346130371094 13397.075866699219 66195.490234375 415517.46661376953 49213.098876953125 88213.955688476562 100715.01721191406
leaf_count=14 14 52 373 30 102 96
internal_value=-3.05368e-06 0.000739933 9.84145e-06 0.00409042 -0.00481185 -0.00153936
internal_weight=744699 645038 529630 115409 99661.3 114112
internal_count=681 565 483 82 116 110
is_linear=0
shrinkage=0.03


Tree=45
num_leaves=7
num_cat=0
split_feature=56 56 55 50 55 59
split_gain=2880.81 1693.01 365.292 337.012 231.649 220.052
threshold=380.50000000000006 693.12500000000011 558.50000000000011 654.50000000000011 188.50000000000003 898.00000000000011
decision_type=8 10 10 10 10 10
left_child=4 2 5 -3 -1 -2
right_child=1 3 -4 -5 -6 -7
leaf_value=-0.0087970917945475059 -0.0038910126998018685 0.0026155224751856724 0.00079611491854094947 0.0058860737515755894 -0.0042420360908039644 -0.00053881496476458981
leaf_weight=11346.474548339844 18987.236022949219 66371.950439453125 265301.11437988281 49509.829833984375 87836.536743164062 245346.705078125
leaf_count=14 19 52 231 30 102 233
internal_value=-3.06156e-06 0.000728337 9.68682e-06 0.00401289 -0.00476322 -0.000779619
internal_weight=744700 645517 529635 115882 99183 264334
internal_count=681 565 483 82 116 252
is_linear=0
shrinkage=0.03


Tree=46
num_leaves=7
num_cat=1
split_feature=56 56 58 58 55 69
split_gain=2807.09 1635.17 378.616 294.7 228.873 204.483
threshold=380.50000000000006 700.12500000000011 0.2773559445682206 0.49969819732855209 188.50000000000003 0
decision_type=8 10 10 10 10 1
left_child=4 2 -2 -3 -1 -4
right_child=1 3 5 -5 -6 -7
leaf_value=-0.0087431934962693934 -0.0015111033838132446 0.0027697521816019352 0.0014247656745771374 0.0059127922488737359 -0.0041967394219745349 -5.8599476869176966e-06
leaf_weight=11247.096557617188 113871.18017578125 68607.906127929688 130553.97314453125 44113.81982421875 87464.720947265625 288841.45538330078
leaf_count=14 110 52 113 27 102 263
internal_value=-3.06767e-06 0.000716932 2.29888e-05 0.00399983 -0.00471484 0.000439517
internal_weight=744700 645988 533267 112722 98711.8 419395
internal_count=681 565 486 79 116 376
cat_boundaries=0 1
cat_threshold=24
is_linear=0
shrinkage=0.03


Tree=47
num_leaves=7
num_cat=0
split_feature=56 56 55 59 55 59
split_gain=2735.16 1579.49 348.065 275.794 226.097 214.925
threshold=380.50000000000006 693.12500000000011 558.50000000000011 1882.0000000000002 188.50000000000003 898.00000000000011
decision_type=8 10 10 10 10 10
left_child=4 2 5 -3 -1 -2
right_child=1 3 -4 -5 -6 -7
leaf_value=-0.0086891538470974632 -0.0038439614519040185 0.0023957175688665805 0.00077601213470672632 0.0053113471627640099 -0.0041517371050922049 -0.00052436179463467261
leaf_weight=11149.189270019531 18906.40966796875 58007.376953125 265641.39013671875 58797.575073242188 87098.4228515625 245099.99102783203
leaf_count=14 19 46 231 36 102 233
internal_value=-3.07172e-06 0.000705715 9.32839e-06 0.00386343 -0.00466673 -0.000762103
internal_weight=744700 646453 529648 116805 98247.6 264006
internal_count=681 565 483 82 116 252
is_linear=0
shrinkage=0.03


Tree=48
num_leaves=7
num_cat=0
split_feature=56 56 56 50 65 56
split_gain=2664.97 1525.68 321.862 303.809 256.024 205.76
threshold=380.50000000000006 693.12500000000011 536.62500000000011 654.50000000000011 1.0000000180025095e-35 215.12500000000003
decision_type=8 10 10 10 2 10
left_child=5 2 -2 -3 -4 -1
right_child=1 3 4 -5 -6 -7
leaf_value=-0.0086209022287044822 -0.00079332588536967872 0.0024670574253886873 0.00090989380444440795 0.0055523573855832883 -0.002979286325320088 -0.0041456147323633364
leaf_weight=10339.679870605469 243233.41412353516 66939.4306640625 270276.88360595703 50317.7822265625 16142.689758300781 87450.615112304688
leaf_count=13 230 52 238 30 15 103
internal_value=-3.07453e-06 0.000694681 9.18211e-06 0.00379107 0.000690689 -0.00461888
internal_weight=744700 646910 529653 117257 286420 97790.3
internal_count=681 565 483 82 253 116
is_linear=0
shrinkage=0.03


Tree=49
num_leaves=7
num_cat=0
split_feature=56 56 55 59 51 59
split_gain=2596.48 1473.83 340.942 259.339 225.847 209.321
threshold=380.50000000000006 700.12500000000011 558.50000000000011 1595.0000000000002 675.33333333333337 898.00000000000011
decision_type=8 10 10 10 10 10
left_child=4 2 5 -3 -1 -2
right_child=1 3 -4 -5 -6 -7
leaf_value=-0.0050886211267438747 -0.0037938402785244645 0.0016294094319544432 0.00077200057558064002 0.0047311177770428987 -0.00053469946073382904 -0.00051080947261814707
leaf_weight=86282.029846191406 18821.063232421875 35006.321044921875 269616.97033691406 79047.369018554688 11057.723693847656 244869.10632324219
leaf_count=104 19 28 234 51 12 233
internal_value=-3.07638e-06 0.000683827 2.18548e-05 0.00377914 -0.00457131 -0.000745152
internal_weight=744701 647361 533307 114054 97339.8 263690
internal_count=681 565 486 79 116 252
is_linear=0
shrinkage=0.03


Tree=50
num_leaves=7
num_cat=2
split_feature=58 69 69 50 52 58
split_gain=2223.71 878.957 712.903 604.219 420.779 224.308
threshold=0.30216100256625528 0 1 654.50000000000011 225.35714285714286 0.2773559445682206
decision_type=10 1 1 10 10 8
left_child=2 3 -1 -2 -4 -6
right_child=1 -3 4 -5 5 -7
leaf_value=-0.0041459397848195413 0.0016591956843433639 2.7963013470506252e-05 -0.0071243136195188791 0.0052756203596800704 -0.0013327705933305742 0.001310343352569251
leaf_weight=108169.34466552734 164934.39477539062 274780.314453125 9166.971923828125 55594.346435546875 89344.653930664062 42710.566223144531
leaf_count=125 136 250 11 34 86 39
internal_value=-3.07656e-06 0.00116017 -0.00231336 0.00257078 -0.000909318 -0.000477906
internal_weight=744701 495309 249392 220529 141222 132055
internal_count=681 420 261 170 136 125
cat_boundaries=0 1 2
cat_threshold=24 3
is_linear=0
shrinkage=0.03


Tree=51
num_leaves=7
num_cat=0
split_feature=56 56 58 50 59 45
split_gain=2471.16 1382.34 338.508 269.871 224.104 221.942
threshold=380.50000000000006 693.12500000000011 0.2773559445682206 654.50000000000011 1356.0000000000002 1.0000000180025095e-35
decision_type=8 10 10 10 10 2
left_child=5 2 -2 -3 -4 -1
right_child=1 3 4 -5 -6 -7
leaf_value=-0.00083650361638249165 -0.0014453514644936129 0.0023459893284823886 -0.00056237624858823687 0.0052366439114568232 0.00090529023651810794 -0.0050496692364124978
leaf_weight=13006.195434570312 113314.59283447266 67409.422729492188 142198.43438720703 51106.803833007812 274167.58819580078 83497.588012695312
leaf_count=14 110 52 131 30 242 102
internal_value=-3.07722e-06 0.000663731 8.40449e-06 0.00359254 0.000404049 -0.00448186
internal_weight=744701 648197 529681 118516 416366 96503.8
internal_count=681 565 483 82 373 116
is_linear=0
shrinkage=0.03


Tree=52
num_leaves=7
num_cat=0
split_feature=56 56 55 50 55 59
split_gain=2407.4 1335.67 307.746 258.946 222.58 202.723
threshold=380.50000000000006 693.12500000000011 558.50000000000011 654.50000000000011 188.50000000000003 898.00000000000011
decision_type=8 10 10 10 10 10
left_child=4 2 5 -3 -1 -2
right_child=1 3 -4 -5 -6 -7
leaf_value=-0.00849144448338272 -0.0037288102709593686 0.0023055841786962803 0.00072694260938110369 0.0051314859761466304 -0.0039209683359919759 -0.00048898474587136134
leaf_weight=10805.065979003906 18711.471984863281 67567.750610351562 266475.65405273438 51375.133544921875 85267.270751953125 244498.20037841797
leaf_count=14 19 52 231 30 102 233
internal_value=-3.07553e-06 0.000653382 8.27206e-06 0.00352621 -0.00443508 -0.000719316
internal_weight=744701 648628 529685 118943 96072.3 263210
internal_count=681 565 483 82 116 252
is_linear=0
shrinkage=0.03


Tree=53
num_leaves=7
num_cat=0
split_feature=56 56 56 27 56 56
split_gain=2345.19 1290.67 289.015 248.119 217.075 201.962
threshold=380.50000000000006 693.12500000000011 536.62500000000011 1.0000000180025095e-35 1023.0000000000001 215.12500000000003
decision_type=8 10 10 2 10 10
left_child=5 2 -2 -4 -3 -1
right_child=1 4 3 -5 -6 -7
leaf_value=-0.0084189978368624969 -0.00075428087459957806 0.0024753483021667344 0.00083548779216189814 -0.0035915361701615361 0.0051214345797607136 -0.0039170012423416292
leaf_weight=10017.412414550781 242561.92291259766 74887.150390625 275242.88165283203 11885.133544921875 44476.005615234375 85629.884704589844
leaf_count=13 230 56 242 11 26 103
internal_value=-3.0725e-06 0.000643202 8.1422e-06 0.000652227 0.00346134 -0.00438859
internal_weight=744700 649053 529690 287128 119363 95647.3
internal_count=681 565 483 253 82 116
is_linear=0
shrinkage=0.03


Tree=54
num_leaves=7
num_cat=0
split_feature=56 56 58 58 51 27
split_gain=2284.51 1247.29 321.015 241.134 219.739 217.864
threshold=380.50000000000006 693.12500000000011 0.2773559445682206 0.49969819732855209 675.33333333333337 1.0000000180025095e-35
decision_type=8 10 10 10 10 2
left_child=4 2 -2 -3 -1 -4
right_child=1 3 5 -5 -6 -7
leaf_value=-0.0048606496799865244 -0.0014100457516183671 0.0023369625565912342 0.00050504862902596762 0.0051057847731449503 -0.00033530582884170506 -0.0037938205571440048
leaf_weight=84322.25634765625 113017.97265625 73883.551513671875 405782.55316162109 45893.572021484375 10906.302185058594 10893.969848632812
leaf_count=104 110 55 363 27 12 10
internal_value=-3.06822e-06 0.000633188 8.01393e-06 0.00339789 -0.00434238 0.000392646
internal_weight=744700 649472 529694 119777 95228.6 416677
internal_count=681 565 483 82 116 373
is_linear=0
shrinkage=0.03


Tree=55
num_leaves=7
num_cat=0
split_feature=56 56 58 50 51 59
split_gain=2225.32 1205.57 316.441 225.026 215.301 213.98
threshold=380.50000000000006 700.12500000000011 0.2773559445682206 654.50000000000011 675.33333333333337 1356.0000000000002
decision_type=8 10 10 10 10 10
left_child=4 2 -2 -3 -1 -4
right_child=1 3 5 -5 -6 -7
leaf_value=-0.0048117455592738114 -0.0013910144859242517 0.0022021786868459355 -0.00054299170981813476 0.0048541086292913267 -0.00033042262483145863 0.00088467672312032082
leaf_weight=83913.389953613281 112858.72412109375 64395.595458984375 143346.05072021484 52096.62060546875 10902.645812988281 277186.90380859375
leaf_count=104 110 49 132 30 12 244
internal_value=-3.06334e-06 0.000623335 1.94902e-05 0.00338818 -0.00429646 0.000398031
internal_weight=744700 649884 533392 116492 94816 420533
internal_count=681 565 486 79 116 376
is_linear=0
shrinkage=0.03


Tree=56
num_leaves=7
num_cat=1
split_feature=48 20 51 69 24 50
split_gain=1423.32 982.649 935.421 386.009 319.398 260.266
threshold=-4.4999999999999991 11.250000000000002 259.33333333333343 0 1.0000000180025095e-35 558.50000000000011
decision_type=2 2 10 1 2 10
left_child=4 2 -2 -4 -1 -3
right_child=1 5 3 -5 -6 -7
leaf_value=-0.00092350332125617227 -0.0078604757079861528 -0.0001828596910375732 0.0015321080166569765 -0.00019225169312349865 -0.004440012687460664 0.0048884680456283127
leaf_weight=35040.7158203125 12884.295043945312 10964.558471679688 165466.11163330078 397495.40380859375 69065.382629394531 53783.161865234375
leaf_count=33 16 10 139 366 85 32
internal_value=-3.0573e-06 0.000525668 0.000131672 0.000314599 -0.00325642 0.00402969
internal_weight=744700 640594 575846 562962 104106 64747.7
internal_count=681 563 521 505 118 42
cat_boundaries=0 1
cat_threshold=8
is_linear=0
shrinkage=0.03


Tree=57
num_leaves=7
num_cat=0
split_feature=56 56 58 58 45 50
split_gain=2118.67 1133.24 298.874 220.306 209.556 192.007
threshold=380.50000000000006 693.12500000000011 0.2773559445682206 0.49969819732855209 1.0000000180025095e-35 379.50000000000006
decision_type=8 10 10 10 2 10
left_child=4 2 5 -3 -1 -2
right_child=1 3 -4 -5 -6 -7
leaf_value=-0.00064930621168438757 -0.0045135075843679012 0.0022136731396001849 0.00037750039622901478 0.0048459503960395266 -0.0047743743154971419 -0.00087691255966693951
leaf_weight=12835.303405761719 15087.031494140625 74415.90185546875 417089.67260742188 46497.56640625 81226.885009765625 97546.918273925781
leaf_count=14 16 55 373 27 102 94
internal_value=-3.05038e-06 0.000605368 7.19422e-06 0.00322595 -0.0042115 -0.00136406
internal_weight=744699 650637 529724 120913 94062.2 112634
internal_count=681 565 483 82 116 110
is_linear=0
shrinkage=0.03


Tree=58
num_leaves=7
num_cat=0
split_feature=56 56 58 55 50 27
split_gain=2063.56 1095.46 290.328 217.15 214.227 212.324
threshold=380.50000000000006 693.12500000000011 0.2773559445682206 188.50000000000003 654.50000000000011 1.0000000180025095e-35
decision_type=8 10 10 10 10 2
left_child=3 2 -2 -1 -3 -4
right_child=1 4 5 -5 -6 -7
leaf_value=-0.0082505755537682912 -0.0013455988654056373 0.0020613726144198632 0.00048240571662761786 -0.0036554641648185544 0.0046044702495874733 -0.0037664662014083436
leaf_weight=10413.482849121094 112480.50616455078 68540.753051757812 406379.96295166016 83253.49072265625 52763.503540039062 10867.19580078125
leaf_count=14 110 52 363 102 30 10
internal_value=-3.04255e-06 0.000595966 7.08064e-06 -0.00416641 0.00316757 0.000371735
internal_weight=744699 651032 529728 93667 121304 417247
internal_count=681 565 483 116 82 373
is_linear=0
shrinkage=0.03


Tree=59
num_leaves=7
num_cat=0
split_feature=55 20 55 55 51 19
split_gain=1871.67 788.634 459.706 239.671 182.633 166.701
threshold=468.50000000000006 11.250000000000002 296.50000000000006 627.50000000000011 259.33333333333343 3.0000000000000004
decision_type=10 2 8 10 10 2
left_child=2 3 4 -2 -1 -6
right_child=1 -3 -4 -5 5 -7
leaf_value=-0.0087907718133190486 5.6466932323596092e-06 0.0042076409732241899 -0.0015046280798248015 0.001397485364509835 -0.0049190569707638328 -0.0009410030426161472
leaf_weight=8102.26171875 287344.21612548828 59633.283081054688 156606.60888671875 181792.60534667969 38657.597900390625 12561.905822753906
leaf_count=11 261 36 161 149 49 14
internal_value=-3.03425e-06 0.000958063 -0.00235658 0.000544992 -0.00460564 -0.00394345
internal_weight=744698 528770 215928 469137 59321.8 51219.5
internal_count=681 446 235 410 74 63
is_linear=0
shrinkage=0.03


Tree=60
num_leaves=7
num_cat=0
split_feature=56 56 59 56 55 58
split_gain=1966.45 1029.26 280.513 263.101 210.89 202.13
threshold=380.50000000000006 693.12500000000011 898.00000000000011 542.50000000000011 188.50000000000003 0.49969819732855209
decision_type=8 10 10 10 10 10
left_child=4 2 -2 -4 -1 -3
right_child=1 5 3 -5 -6 -7
leaf_value=-0.0081439822949303676 -0.0035062881069685458 0.0020954758341643976 -0.00059549917075521345 0.0007716073209691601 -0.003581799487358049 0.0046039347352891166
leaf_weight=10249.108337402344 19691.701416015625 74933.518188476562 234635.47375488281 275401.96520996094 82711.511657714844 47074.618408203125
leaf_count=14 20 55 222 241 102 27
internal_value=-3.02263e-06 0.000579198 7.03912e-06 0.000142689 -0.00408487 0.00306335
internal_weight=744698 651737 529729 510037 92960.6 122008
internal_count=681 565 483 463 116 82
is_linear=0
shrinkage=0.03


Tree=61
num_leaves=7
num_cat=0
split_feature=55 20 55 65 55 55
split_gain=1774.34 739.063 441.344 344.217 231.457 174.261
threshold=468.50000000000006 11.250000000000002 296.50000000000006 1.0000000180025095e-35 621.50000000000011 188.50000000000003
decision_type=10 2 8 2 10 10
left_child=2 3 5 4 -2 -1
right_child=1 -3 -4 -5 -6 -7
leaf_value=-0.0080887619070128449 0.00012016248203743047 0.0040625429071017589 -0.0014674569286755449 -0.0035679571326226087 0.0014989848802525233 -0.0037699388839491674
leaf_weight=10165.97900390625 265100.79168701172 60089.65234375 156173.15679931641 17757.337890625 186763.65405273438 48646.859191894531
leaf_count=14 241 36 161 16 153 60
internal_value=-3.01334e-06 0.000929887 -0.00230161 0.000529045 0.000690056 -0.00451659
internal_weight=744697 529711 214986 469622 451864 58812.8
internal_count=681 446 235 410 394 74
is_linear=0
shrinkage=0.03


Tree=62
num_leaves=7
num_cat=1
split_feature=58 69 50 19 48 48
split_gain=1642.85 825.14 400.955 395.555 308.245 212.832
threshold=0.27867540977773392 0 470.50000000000006 3.7500000000000004 -4.4999999999999991 -4.4999999999999991
decision_type=10 1 10 2 2 2
left_child=2 3 -1 -2 -4 -3
right_child=1 5 4 -5 -6 -7
leaf_value=-0.005177026338803876 0.0013165917707485242 -0.0031009191550774606 -0.0032712761311644088 0.0039350313294849865 -0.00050160550371552753 -6.3290343250720044e-06
leaf_weight=38544.71630859375 173616.78076171875 21479.260070800781 65319.524291992188 74078.287841796875 81022.802429199219 290635.49291992188
leaf_count=46 145 26 75 44 80 265
internal_value=-3.002e-06 0.000806773 -0.00245487 0.00209962 -0.00173785 -0.000219296
internal_weight=744697 559810 184887 247695 146342 312115
internal_count=681 480 201 189 155 291
cat_boundaries=0 1
cat_threshold=24
is_linear=0
shrinkage=0.03


Tree=63
num_leaves=7
num_cat=1
split_feature=58 69 24 51 4 59
split_gain=1596.95 798.561 437.563 479.287 381.014 226.092
threshold=0.27867540977773392 0 1.0000000180025095e-35 259.33333333333343 1.0000000180025095e-35 2096.0000000000005
decision_type=10 1 2 10 2 10
left_child=2 4 3 -1 -2 -3
right_child=1 5 -4 -5 -6 -7
leaf_value=-0.0073593439613028151 0.0038610710988995164 -0.00062720685861558493 -0.0048257236126098913 -0.00098488927971825124 0.0012952585218336599 0.0013700416809054258
leaf_weight=11617.784790039062 74370.3623046875 247814.52905273438 49835.486450195312 122980.77972412109 173845.51477050781 64231.883361816406
leaf_count=15 44 234 64 122 145 57
internal_value=-2.99149e-06 0.00079409 -0.00242431 -0.00153515 0.00206396 -0.000216082
internal_weight=744696 560262 184434 134599 248216 312046
internal_count=681 480 201 137 189 291
cat_boundaries=0 1
cat_threshold=24
is_linear=0
shrinkage=0.03


Tree=64
num_leaves=7
num_cat=0
split_feature=56 56 58 27 45 58
split_gain=1795.62 906.457 251.992 203.667 195.81 179.883
threshold=380.50000000000006 693.12500000000011 0.2773559445682206 1.0000000180025095e-35 1.0000000180025095e-35 0.49969819732855209
decision_type=8 10 10 2 2 10
left_child=4 2 -2 -4 -1 -3
right_child=1 5 3 -5 -6 -7
leaf_value=-0.00047353089033883879 -0.0012559167986397686 0.0019536712164497862 0.00045588862691318775 -0.0037147699617127729 -0.0044897851942304924 0.0043050704386029121
leaf_weight=12678.876586914062 111741.03631591797 75564.099609375 407081.82446289062 10816.953735351562 79005.7998046875 47807.290771484375
leaf_count=14 110 55 363 10 102 27
internal_value=-2.98233e-06 0.000549005 9.55274e-06 0.000347926 -0.0039344 0.00286488
internal_weight=744696 653011 529640 417899 91684.7 123371
internal_count=681 565 483 373 116 82
is_linear=0
shrinkage=0.03


Tree=65
num_leaves=7
num_cat=0
split_feature=55 20 51 58 24 63
split_gain=1605.07 644.021 413.632 520.438 270.019 211.26
threshold=468.50000000000006 11.250000000000002 259.33333333333343 0.35072838544495027 1.0000000180025095e-35 1.0000000180025095e-35
decision_type=10 2 10 8 2 2
left_child=2 5 -1 4 -4 -2
right_child=1 -3 3 -5 -6 -7
leaf_value=-0.0067852392585321959 0.00070613780729550824 0.0037795832346498208 -0.0014910584462406193 0.001509627013593207 -0.0039706875311153684 -0.001489441152916374
leaf_weight=16357.4404296875 426950.69903564453 61000.0283203125 93901.572326660156 34775.523803710938 68254.116149902344 43455.874389648438
leaf_count=21 371 36 94 33 87 39
internal_value=-2.96976e-06 0.000879398 -0.00220137 -0.0018206 -0.00253479 0.000503309
internal_weight=744695 531407 213289 196931 162156 470407
internal_count=681 446 235 214 181 410
is_linear=0
shrinkage=0.03


Tree=66
num_leaves=7
num_cat=0
split_feature=56 56 55 59 55 59
split_gain=1706.41 750.887 344.807 270.534 181.041 166.399
threshold=459.25000000000006 700.12500000000011 367.50000000000006 898.00000000000011 188.50000000000003 1595.0000000000002
decision_type=8 10 10 10 10 10
left_child=2 3 4 -2 -1 -3
right_child=1 5 -4 -5 -6 -7
leaf_value=-0.0078845928001559512 -0.0035969285451108316 0.0011166765629361203 -0.00098724433942247751 0.00030332848559808925 -0.0035835082800883731 0.0035510462245024375
leaf_weight=9869.9871215820312 16576.384704589844 36127.162109375 51937.069885253906 464236.68670654297 81843.682250976562 84103.7255859375
leaf_count=14 17 28 52 417 102 51
internal_value=-2.95864e-06 0.000699103 -0.00294041 0.000168857 -0.00404646 0.00281958
internal_weight=744695 601044 143651 480813 91713.7 120231
internal_count=681 513 168 434 116 79
is_linear=0
shrinkage=0.03


Tree=67
num_leaves=7
num_cat=0
split_feature=55 20 55 24 55 1
split_gain=1522.38 602.734 396.691 330.774 198.513 165.675
threshold=468.50000000000006 11.250000000000002 219.50000000000003 1.0000000180025095e-35 627.50000000000011 7.5000000000000009
decision_type=10 2 8 2 10 2
left_child=2 4 -1 5 -2 -4
right_child=1 -3 3 -5 -6 -7
leaf_value=-0.0063829179613840645 -2.5875900160089915e-06 0.0036488295683075704 -0.002031904334844163 -0.0034054136560107461 0.0012607217790192645 0.00016815542776424188
leaf_weight=18216.431701660156 287503.06561279297 61430.091552734375 56170.637939453125 69825.377868652344 183331.30505371094 68217.131164550781
leaf_count=25 261 36 58 86 149 66
internal_value=-2.94557e-06 0.00085397 -0.00215003 -0.00175297 0.000489316 -0.000825349
internal_weight=744694 532264 212430 194213 470834 124388
internal_count=681 446 235 210 410 124
is_linear=0
shrinkage=0.03


Tree=68
num_leaves=7
num_cat=0
split_feature=56 56 55 59 55 59
split_gain=1619.21 705.655 330.385 260.859 176.729 156.583
threshold=459.25000000000006 700.12500000000011 367.50000000000006 898.00000000000011 188.50000000000003 1595.0000000000002
decision_type=8 10 10 10 10 10
left_child=2 3 4 -2 -1 -3
right_child=1 5 -4 -5 -6 -7
leaf_value=-0.0077838287015681296 -0.0035432511447748122 0.001077093843612785 -0.00096262032132791618 0.00029536395726334805 -0.0035055586776818639 0.003434280612827276
leaf_weight=9730.1666870117188 16498.015319824219 36216.682006835938 51845.292053222656 464480.04962158203 81283.661315917969 84639.434692382812
leaf_count=14 17 28 52 417 102 51
internal_value=-2.93077e-06 0.000678624 -0.00287416 0.000163689 -0.00396302 0.00272792
internal_weight=744693 601834 142859 480978 91013.8 120856
internal_count=681 513 168 434 116 79
is_linear=0
shrinkage=0.03


Tree=69
num_leaves=7
num_cat=0
split_feature=56 56 58 51 51 56
split_gain=1576.78 780.366 233.315 191.359 189.118 174.635
threshold=380.50000000000006 693.12500000000011 0.2773559445682206 673.16666666666674 354.33333333333343 609.25000000000011
decision_type=8 10 10 10 10 8
left_child=3 2 4 -1 -2 -6
right_child=1 -3 -4 -5 5 -7
leaf_value=-0.0042534516389664797 -0.0046598701429053334 0.0026415524630935376 0.00033072566205343923 -9.3781707433443303e-05 -0.0012041810558676923 0.0029033950669360912
leaf_weight=78581.905456542969 12700.5869140625 124942.32214355469 418370.80053710938 11397.097534179688 88286.557373046875 10413.323608398438
leaf_count=103 14 82 373 13 86 10
internal_value=-2.91656e-06 0.000508841 5.85391e-06 -0.00372658 -0.00121421 -0.000770787
internal_weight=744693 654714 529771 89979 111400 98699.9
internal_count=681 565 483 116 110 96
is_linear=0
shrinkage=0.03


Tree=70
num_leaves=7
num_cat=1
split_feature=56 56 55 69 55 61
split_gain=1535.66 660.944 316.762 218.602 174.179 169.037
threshold=459.25000000000006 732.50000000000011 367.50000000000006 0 188.50000000000003 1592.4500000000003
decision_type=8 10 10 1 10 10
left_child=2 3 4 -2 -1 -5
right_child=1 -3 -4 5 -6 -7
leaf_value=-0.0076976901107979117 0.0012094488520637625 0.0029574532125513065 -0.0009369967172585767 -0.0014636508697712337 -0.0034259174415585919 0.0001579352137729774
leaf_weight=9613.7440795898438 145903.36785888672 94843.790649414062 51750.131164550781 72300.736877441406 80719.347229003906 289560.72418212891
leaf_count=14 123 58 52 69 102 263
internal_value=-2.90149e-06 0.000658606 -0.0028085 0.000229207 -0.00388062 -0.00016606
internal_weight=744692 602609 142083 507765 90333.1 361861
internal_count=681 513 168 455 116 332
cat_boundaries=0 1
cat_threshold=8
is_linear=0
shrinkage=0.03


Tree=71
num_leaves=7
num_cat=1
split_feature=48 57 20 59 62 69
split_gain=1001.56 629.106 653.913 306.173 228.88 218.516
threshold=-4.4999999999999991 0.23248511345972089 11.250000000000002 1291.5000000000002 1533.8750000000002 0
decision_type=2 10 2 10 10 1
left_child=4 -2 3 -3 -1 -5
right_child=1 2 -4 5 -6 -7
leaf_value=-0.003841204945756935 -0.0044242851545453392 -0.00088697369478072448 0.0034980164628122005 0.0016262068873763385 -0.00082926625825169482 0.00018466589889322709
leaf_weight=65324.773498535156 23156.505432128906 147831.14459228516 63430.822998046875 148160.05444335938 34805.98779296875 261981.76770019531
leaf_count=85 28 140 37 121 33 237
internal_value=-2.88588e-06 0.00043075 0.000611679 0.000283552 -0.00279426 0.000705456
internal_weight=744691 644560 621404 557973 100131 410142
internal_count=681 563 535 498 118 358
cat_boundaries=0 1
cat_threshold=8
is_linear=0
shrinkage=0.03


Tree=72
num_leaves=7
num_cat=0
split_feature=56 56 59 56 52 58
split_gain=1461.88 728.769 273.191 224.754 175.734 154.431
threshold=347.50000000000006 693.12500000000011 898.00000000000011 542.50000000000011 349.85714285714289 0.49969819732855209
decision_type=8 10 10 10 10 10
left_child=4 2 -2 -4 -1 -3
right_child=1 5 3 -5 -6 -7
leaf_value=-0.0082512888616590955 -0.0034514310902307222 0.0016707667513408625 -0.00055757764639788006 0.00069271060206051096 -0.0034078115756081078 0.0038255823801608513
leaf_weight=7444.5137329101562 20155.589050292969 76854.374755859375 242994.07659912109 276795.67944335938 71414.39892578125 49031.630859375
leaf_count=11 21 55 233 241 93 27
internal_value=-2.86997e-06 0.000454571 -2.46649e-05 0.000108219 -0.00386515 0.00251007
internal_weight=744690 665831 539945 519790 78858.9 125886
internal_count=681 577 495 474 104 82
is_linear=0
shrinkage=0.03


Tree=73
num_leaves=7
num_cat=1
split_feature=55 20 55 65 48 69
split_gain=1308.51 503.082 360.164 320.894 320.485 176.11
threshold=468.50000000000006 11.250000000000002 219.50000000000003 1.0000000180025095e-35 -4.4999999999999991 0
decision_type=10 2 8 2 2 1
left_child=2 3 -1 5 -4 -2
right_child=1 -3 4 -5 -6 -7
leaf_value=-0.0061100922733345851 0.001446019840534236 0.0033133888605212402 -0.0034196424586800797 -0.0035152481122641059 -0.00079391777953778545 0.00019006582821981375
leaf_weight=17650.832946777344 149999.22235107422 62561.6357421875 61469.641174316406 17675.102478027344 130981.12377929688 304351.93951416016
leaf_count=25 122 36 78 16 132 272
internal_value=-2.85457e-06 0.000785511 -0.00200879 0.000450463 -0.0016326 0.000604744
internal_weight=744689 534588 210102 472026 192451 454351
internal_count=681 446 235 410 210 394
cat_boundaries=0 1
cat_threshold=8
is_linear=0
shrinkage=0.03


Tree=74
num_leaves=7
num_cat=1
split_feature=56 56 56 59 69 59
split_gain=1390.34 582.57 296.331 246.481 184.627 189.759
threshold=459.25000000000006 732.50000000000011 268.50000000000006 898.00000000000011 0 2096.0000000000005
decision_type=8 10 10 10 1 10
left_child=2 3 -1 -2 -5 -6
right_child=1 -3 -4 4 5 -7
leaf_value=-0.0053656092728843361 -0.0034103986883434311 0.0027678488053690335 -0.0019805124152976875 0.0012397139480645593 -0.00046724841713501107 0.0011047386959805972
leaf_weight=29431.0576171875 16307.198913574219 95861.768188476562 111257.78253173828 144454.78601074219 252175.47619628906 95200.634643554688
leaf_count=41 17 58 127 121 231 86
internal_value=-2.83878e-06 0.000622774 -0.00268868 0.000218095 0.000338409 -3.64324e-05
internal_weight=744689 604000 140689 508138 491831 347376
internal_count=681 513 168 455 438 317
cat_boundaries=0 1
cat_threshold=8
is_linear=0
shrinkage=0.03


Tree=75
num_leaves=7
num_cat=0
split_feature=56 56 59 56 51 50
split_gain=1357.68 664.161 257.454 209.586 175.689 155.745
threshold=347.50000000000006 693.12500000000011 898.00000000000011 542.50000000000011 582.16666666666686 256.50000000000006
decision_type=8 10 10 8 10 10
left_child=4 2 -2 -4 -1 -5
right_child=1 -3 3 5 -6 -7
leaf_value=-0.0050363628404014081 -0.0033632996780861972 0.0023895692851437019 -0.00057895852692464408 -0.0026534996579038344 -0.0021751412004364311 0.0007810128883695063
leaf_weight=42865.492492675781 20001.575744628906 126763.53991699219 227064.82830810547 12407.866455078125 35158.581848144531 280425.99908447266
leaf_count=58 21 82 217 12 46 245
internal_value=-2.82237e-06 0.000435401 -2.34231e-05 0.000105075 -0.00374711 0.000635478
internal_weight=744688 666664 539900 519899 78024.1 292834
internal_count=681 577 495 474 104 257
is_linear=0
shrinkage=0.03


Tree=76
num_leaves=7
num_cat=0
split_feature=56 56 59 56 57 59
split_gain=1321.97 642.698 250.674 203.353 170.728 142.257
threshold=347.50000000000006 693.12500000000011 898.00000000000011 542.50000000000011 0.22971734997938112 1563.0000000000002
decision_type=8 10 10 8 10 10
left_child=4 2 -2 -4 -1 -3
right_child=1 5 3 -5 -6 -7
leaf_value=-0.0080846731344615536 -0.0033244431897043857 0.00064557705286899438 -0.00057066628091388108 0.00062560663673981974 -0.0032538204051766246 0.0029400627821005664
leaf_weight=7262.426513671875 19934.417419433594 32771.33740234375 226933.40557861328 293020.08404541016 70469.912658691406 94295.476684570312
leaf_count=11 21 25 217 257 93 57
internal_value=-2.80592e-06 0.000428713 -2.30826e-05 0.000103494 -0.00370526 0.00234831
internal_weight=744687 666955 539888 519953 77732.3 127067
internal_count=681 577 495 474 104 82
is_linear=0
shrinkage=0.03


Tree=77
num_leaves=7
num_cat=1
split_feature=48 51 20 52 69 24
split_gain=871.63 651.386 611.792 271.89 266.752 198.424
threshold=-4.4999999999999991 380.33333333333343 11.250000000000002 225.35714285714286 0 1.0000000180025095e-35
decision_type=2 10 2 10 1 2
left_child=5 3 4 -2 -3 -1
right_child=1 2 -4 -5 -6 -7
leaf_value=-0.00080186003584555509 -0.0061924275465993581 0.0014141283738984775 0.0035082239544705065 -0.0014322804872679399 -7.196574642269536e-05 -0.0036178578127090532
leaf_weight=34738.312438964844 15084.917541503906 152495.83862304688 61817.880249023438 38008.974914550781 378509.01995849609 64031.271362304688
leaf_count=33 20 124 35 37 347 85
internal_value=-2.78891e-06 0.000398563 0.000683674 -0.00278481 0.000354843 -0.00262746
internal_weight=744686 645917 592823 53093.9 531005 98769.6
internal_count=681 563 506 57 471 118
cat_boundaries=0 1
cat_threshold=8
is_linear=0
shrinkage=0.03


Tree=78
num_leaves=7
num_cat=0
split_feature=56 20 55 27 51 55
split_gain=1258.03 452.954 420.754 228.394 155.635 147.89
threshold=488.12500000000006 11.250000000000002 345.00000000000006 1.0000000180025095e-35 259.33333333333343 621.50000000000011
decision_type=10 2 8 2 10 10
left_child=2 3 4 5 -1 -2
right_child=1 -3 -4 -5 -6 -7
leaf_value=-0.007989753680873065 0.00012309045710477909 0.0031206110284675401 -0.00097850853605180288 -0.0026885646620495788 -0.0033369973407617625 0.0012259264848011103
leaf_weight=7162.6204833984375 260641.18200683594 64885.993774414062 136403.76965332031 20021.525085449219 66931.292175292969 188639.03552246094
leaf_count=11 236 37 139 18 88 152
internal_value=-2.77309e-06 0.000771257 -0.00196705 0.000446427 -0.00378688 0.000586139
internal_weight=744685 534188 210498 469302 74093.9 449280
internal_count=681 443 238 406 99 388
is_linear=0
shrinkage=0.03


Tree=79
num_leaves=7
num_cat=0
split_feature=56 56 59 56 51 50
split_gain=1226.44 585.96 240.03 190.164 171.97 147.773
threshold=347.50000000000006 693.12500000000011 898.00000000000011 542.50000000000011 595.16666666666686 256.50000000000006
decision_type=8 10 10 8 10 10
left_child=4 2 -2 -4 -1 -5
right_child=1 -3 3 5 -6 -7
leaf_value=-0.004644860608892379 -0.0032616503608317807 0.0022362975255221808 -0.00055128278697502817 -0.002604820321193095 -0.0016832806725405895 0.00074685138318349425
leaf_weight=49518.148742675781 19826.836486816406 127897.51794433594 226626.79022216797 12358.727111816406 27418.19677734375 281038.34759521484
leaf_count=68 21 82 217 12 36 245
internal_value=-2.75596e-06 0.000410501 -2.20574e-05 0.000101464 -0.00358946 0.000605661
internal_weight=744685 667748 539851 520024 76936.3 293397
internal_count=681 577 495 474 104 257
is_linear=0
shrinkage=0.03


Tree=80
num_leaves=7
num_cat=0
split_feature=56 56 59 56 51 58
split_gain=1194.02 567.125 233.685 184.51 168.743 138.149
threshold=347.50000000000006 693.12500000000011 898.00000000000011 542.50000000000011 582.16666666666686 0.49969819732855209
decision_type=8 10 10 8 10 10
left_child=4 2 -2 -4 -1 -3
right_child=1 5 3 -5 -6 -7
leaf_value=-0.0048281328868885164 -0.0032236380373660248 0.0014091509381734149 -0.00054337178773695017 0.00059627050545915986 -0.0020002177849213617 0.0034276206422094936
leaf_weight=41979.038146972656 19762.273742675781 78087.400146484375 226501.88800048828 293574.89654541016 34681.7216796875 50096.457397460938
leaf_count=58 21 55 217 257 46 27
internal_value=-2.73814e-06 0.000404206 -2.17366e-05 9.99377e-05 -0.00354881 0.00219802
internal_weight=744684 668023 539839 520077 76660.8 128184
internal_count=681 577 495 474 104 82
is_linear=0
shrinkage=0.03


Tree=81
num_leaves=7
num_cat=0
split_feature=56 56 55 27 52 59
split_gain=1162.44 395.464 394.063 218.659 152.428 140.945
threshold=488.12500000000006 732.50000000000011 345.00000000000006 1.0000000180025095e-35 349.85714285714289 1563.0000000000002
decision_type=10 10 8 2 10 10
left_child=2 3 4 -2 -1 -3
right_child=1 5 -4 -5 -6 -7
leaf_value=-0.0078680820542330401 0.0004931866921915485 -0.00020937793918113142 -0.00094243054618585258 -0.0028689343499075956 -0.0032248937800527194 0.0029522614880191649
leaf_weight=7038.6273803710938 419615.11053466797 14995.744140625 136051.12451171875 18161.915710449219 66288.478088378906 82531.756958007812
leaf_count=11 368 11 139 17 88 47
internal_value=-2.71982e-06 0.000738567 -0.00189792 0.000353697 -0.00367069 0.00246613
internal_weight=744683 535305 209378 437777 73327.1 97527.5
internal_count=681 443 238 385 99 58
is_linear=0
shrinkage=0.03


Tree=82
num_leaves=7
num_cat=1
split_feature=58 69 55 50 50 47
split_gain=1060.89 535.51 386.207 252.996 192.005 174.987
threshold=0.27867540977773392 0 345.00000000000006 654.50000000000011 345.00000000000006 3.7500000000000004
decision_type=8 1 10 10 10 2
left_child=2 3 -1 4 -2 -3
right_child=1 5 -4 -5 -6 -7
leaf_value=-0.004140686977810123 -0.0026490997943621657 -1.8965984128830144e-05 -0.0010654679829139363 0.0031624187563360781 0.0012816681073823922 -0.0025272230445219502
leaf_weight=57351.62890625 11911.101989746094 294330.24914550781 102340.35137939453 68370.3408203125 183019.78607177734 27358.393920898438
leaf_count=79 11 269 102 40 146 34
internal_value=-2.70172e-06 0.000588913 -0.00216992 0.00159216 0.00104147 -0.000232284
internal_weight=744682 584990 159692 263301 194931 321689
internal_count=681 500 181 197 157 303
cat_boundaries=0 1
cat_threshold=24
is_linear=0
shrinkage=0.03


Tree=83
num_leaves=7
num_cat=0
split_feature=56 55 50 59 53 56
split_gain=1103.48 518.828 228.934 194.869 161.131 140.944
threshold=347.50000000000006 627.50000000000011 654.50000000000011 898.00000000000011 294.81547619047626 536.62500000000011
decision_type=8 10 10 10 10 8
left_child=4 3 -3 -2 -1 -5
right_child=1 2 -4 5 -6 -7
leaf_value=-0.0077831702849806795 -0.0031724992880461317 0.00088204129978351601 0.0028754006757079134 -0.00064958765074124428 -0.002992034041867295 0.00047843408593589541
leaf_weight=6954.6074829101562 19676.076232910156 175770.55432128906 73552.583618164062 210135.2216796875 68920.35302734375 189671.61785888672
leaf_count=11 21 140 44 203 93 169
internal_value=-2.68501e-06 0.000386288 0.00147011 -0.000257892 -0.00343128 -0.000114445
internal_weight=744681 668806 249323 419483 75875 399807
internal_count=681 577 184 393 104 372
is_linear=0
shrinkage=0.03


Tree=84
num_leaves=7
num_cat=0
split_feature=56 56 50 56 27 18
split_gain=1074.17 503.721 180.564 184.07 221.592 164.774
threshold=347.50000000000006 693.12500000000011 182.00000000000003 497.00000000000006 1.0000000180025095e-35 1.0000000180025095e-35
decision_type=8 10 10 8 2 2
left_child=5 2 -2 -4 -5 -1
right_child=1 -3 3 4 -6 -7
leaf_value=-0.0048263755516998698 -0.0043762507193361331 0.0020629794337348037 -0.00090233816214632353 0.00051985337087593014 -0.0031179068031839787 -0.0020246389538709428
leaf_weight=36898.823608398438 8437.5795288085938 129204.50256347656 136615.27117919922 379114.16668701172 15693.427307128906 38716.314147949219
leaf_count=53 10 82 135 335 15 51
internal_value=-2.66634e-06 0.000380374 -2.23259e-05 4.6811e-05 0.000375246 -0.00339188
internal_weight=744680 669065 539860 531423 394808 75615.1
internal_count=681 577 495 485 350 104
is_linear=0
shrinkage=0.03


Tree=85
num_leaves=7
num_cat=0
split_feature=56 56 56 65 51 51
split_gain=1045.6 487.795 172.241 180.429 164.935 143.625
threshold=347.50000000000006 700.12500000000011 497.00000000000006 1.0000000180025095e-35 595.16666666666686 259.33333333333343
decision_type=8 10 10 2 10 10
left_child=4 2 5 -4 -1 -2
right_child=1 -3 3 -5 -6 -7
leaf_value=-0.0044012070005203987 -0.0047253257139255002 0.0020594358174690999 0.00046582994308119041 -0.0026300874796936881 -0.0014739026589499534 -0.00064223697198597372
leaf_weight=48368.651489257812 8181.5587768554688 125620.60278320312 369902.72784423828 17754.484252929688 26990.520324707031 147860.61096191406
leaf_count=68 10 79 325 17 36 146
internal_value=-2.64783e-06 0.000374553 -1.47392e-05 0.000324032 -0.0033528 -0.000856349
internal_weight=744679 669320 543699 387657 75359.2 156042
internal_count=681 577 498 342 104 156
is_linear=0
shrinkage=0.03


Tree=86
num_leaves=7
num_cat=0
split_feature=58 59 50 24 62 48
split_gain=964.89 373.936 253.253 240.291 235.267 163.688
threshold=0.27867540977773392 1356.0000000000002 470.50000000000006 1.0000000180025095e-35 1857.8750000000002 -1.2499999999999998
decision_type=8 10 10 2 10 2
left_child=2 -2 -1 -4 -3 -6
right_child=1 4 3 -5 5 -7
leaf_value=-0.0048304034584759504 -0.00071911755904560172 0.00034118675549163816 -0.00078630216641524216 -0.0036637929316423374 0.0005305707188490512 0.0023290991376950366
leaf_weight=25300.575073242188 152428.65075683594 226892.66528320312 97594.480102539062 35662.453308105469 67719.126586914062 139080.23474121094
leaf_count=34 143 209 97 50 56 92
internal_value=-2.62836e-06 0.000559035 -0.00207885 -0.0015564 0.00100826 0.00174015
internal_weight=744678 586121 158558 133257 433692 206799
internal_count=681 500 181 147 357 148
is_linear=0
shrinkage=0.03


Tree=87
num_leaves=7
num_cat=0
split_feature=58 20 55 51 62 59
split_gain=937.812 387.35 347.106 212.88 170.96 136.784
threshold=0.27867540977773392 11.250000000000002 345.00000000000006 380.33333333333343 1853.8750000000002 2096.0000000000005
decision_type=8 2 10 10 8 10
left_child=2 3 -1 -2 5 -5
right_child=1 -3 -4 4 -6 -7
leaf_value=-0.0039424351288650447 -0.0020201469008011399 0.0026758728266575312 -0.0010077019721447947 -0.00029499832465537987 0.0012058980374172234 0.0012515805710049213
leaf_weight=56313.734191894531 34104.058166503906 68192.560913085938 101914.72814941406 251583.97662353516 167865.12182617188 64703.060302734375
leaf_count=79 35 39 102 236 133 57
internal_value=-2.60941e-06 0.000550388 -0.0020522 0.00027071 0.000432084 2.13894e-05
internal_weight=744677 586449 158228 518256 484152 316287
internal_count=681 500 181 461 426 293
is_linear=0
shrinkage=0.03


Tree=88
num_leaves=7
num_cat=0
split_feature=56 55 50 51 50 58
split_gain=971.651 452.451 207.214 160.247 152.975 155.331
threshold=347.50000000000006 627.50000000000011 654.50000000000011 582.16666666666686 182.00000000000003 0.2773559445682206
decision_type=8 10 10 10 10 8
left_child=3 4 -3 -1 -2 -6
right_child=1 2 -4 -5 5 -7
leaf_value=-0.0045173657963292072 -0.0042640448501941293 0.00080753804908654928 0.0026958907994788835 -0.0017265459873478327 -0.001272517612915781 0.0001442762837828482
leaf_weight=40722.220581054688 8348.5347900390625 176604.39440917969 74303.068481445312 33961.072509765625 88874.684997558594 321862.30822753906
leaf_count=58 10 140 44 46 89 294
internal_value=-2.59033e-06 0.000359212 0.00136676 -0.00324832 -0.00024401 -0.00016229
internal_weight=744676 669993 250907 74683.3 419086 410737
internal_count=681 577 184 104 393 383
is_linear=0
shrinkage=0.03


Tree=89
num_leaves=7
num_cat=0
split_feature=58 20 55 57 65 55
split_gain=887.741 365.792 333.634 167.739 159.356 171.717
threshold=0.27867540977773392 11.250000000000002 345.00000000000006 0.26234587098985029 1.0000000180025095e-35 621.50000000000011
decision_type=8 2 10 10 2 8
left_child=2 3 -1 -2 5 -5
right_child=1 -3 -4 4 -6 -7
leaf_value=-0.0038632290832738714 -0.0028688089323223201 0.0025943301765759923 -0.00097823416247755021 4.2432416874870376e-06 -0.0022478853301081993 0.0011593739765701043
leaf_weight=55909.499206542969 14956.904663085938 68510.461181640625 101698.96795654297 290791.67041015625 20315.32568359375 192492.47705078125
leaf_count=79 17 39 102 271 19 154
internal_value=-2.57079e-06 0.000534124 -0.00200167 0.00026193 0.000354918 0.000464334
internal_weight=744675 587067 157608 518556 503599 483284
internal_count=681 500 181 461 444 425
is_linear=0
shrinkage=0.03


Tree=90
num_leaves=7
num_cat=0
split_feature=56 55 48 59 51 56
split_gain=923.07 423.84 184.233 178.503 156.183 124.501
threshold=347.50000000000006 627.50000000000011 1.2500000000000002 898.00000000000011 582.16666666666686 536.62500000000011
decision_type=8 10 2 10 10 8
left_child=4 3 -3 -2 -1 -5
right_child=1 2 -4 5 -6 -7
leaf_value=-0.0044359039676689013 -0.0030414491897886452 0.00069495223225575693 0.0023729239925798706 -0.00060339397336310065 -0.0016727264656405589 0.00045721994252945582
leaf_weight=40405.120849609375 19458.578125 157560.20532226562 94037.765014648438 209456.13726806641 33822.860717773438 189933.67059326172
leaf_count=58 21 129 55 203 46 169
internal_value=-2.55139e-06 0.000348895 0.00132212 -0.000235714 -0.00317687 -9.90089e-05
internal_weight=744674 670446 251598 418848 74228 399390
internal_count=681 577 184 393 104 372
is_linear=0
shrinkage=0.03


Tree=91
num_leaves=7
num_cat=1
split_feature=47 69 57 59 59 59
split_gain=620.578 471.289 349.14 321.942 309.621 170.547
threshold=3.7500000000000004 0 0.23655426594236151 1563.0000000000002 1985.5000000000002 2096.0000000000005
decision_type=2 1 8 10 10 10
left_child=1 3 -3 -1 -2 -4
right_child=4 2 5 -5 -6 -7
leaf_value=0.00010039328286037499 -0.0025277702188236935 -0.0074655527982194353 -0.00050898780190775669 0.0023300762370034801 0.0001542527610850535 0.0011491788882967572
leaf_weight=95274.998291015625 110999.67358398438 5963.0554809570312 251036.77294921875 150104.04034423828 59506.446960449219 71788.350708007812
leaf_count=79 134 9 236 101 58 64
internal_value=-2.53142e-06 0.000469409 -0.000273119 0.00146429 -0.00159175 -0.00014025
internal_weight=744673 574167 328788 245379 170506 322825
internal_count=681 489 309 180 192 300
cat_boundaries=0 1
cat_threshold=24
is_linear=0
shrinkage=0.03


Tree=92
num_leaves=7
num_cat=1
split_feature=56 20 56 51 69 51
split_gain=880.417 342.51 228.923 188.833 165.51 128
threshold=459.25000000000006 11.250000000000002 268.50000000000006 380.33333333333343 0 758.83333333333337
decision_type=8 2 10 10 1 10
left_child=2 3 -1 -2 -5 -4
right_child=1 -3 5 4 -6 -7
leaf_value=-0.004643528720552962 -0.0019175056836058183 0.0024739567640409675 -0.0019154582398002917 0.0011937200982467297 1.5808332154150862e-05 0.0015290925801512809
leaf_weight=27358.47607421875 34520.807067871094 68985.201232910156 97049.925048828125 154584.78186035156 351385.41430664062 10787.86328125
leaf_count=41 35 39 116 124 315 11
internal_value=-2.51403e-06 0.000483319 -0.00219268 0.000229242 0.000375711 -0.00157086
internal_weight=744672 609476 135196 540491 505970 107838
internal_count=681 513 168 474 439 127
cat_boundaries=0 1
cat_threshold=8
is_linear=0
shrinkage=0.03


Tree=93
num_leaves=7
num_cat=0
split_feature=56 55 48 53 21 56
split_gain=858.578 388.352 170.732 153.763 129.248 124.662
threshold=347.50000000000006 627.50000000000011 -1.2499999999999998 294.81547619047626 11.500000000000002 542.50000000000011
decision_type=8 10 2 10 2 10
left_child=3 4 -3 -1 5 -2
right_child=1 2 -4 -5 -6 -7
leaf_value=-0.0074357407731983462 -0.00053099508925100853 0.00012309185341369635 0.0017974154488376395 -0.0026466931420274856 -0.0020757147172326884 0.00056073643923130751
leaf_weight=6630.74755859375 225588.42352294922 80435.25439453125 172066.642578125 66977.52197265625 31432.457214355469 161540.41235351562
leaf_count=11 221 67 117 93 30 142
internal_value=-2.49381e-06 0.000334881 0.00126406 -0.00307819 -0.000225657 -7.54391e-05
internal_weight=744671 671063 252502 73608.3 418561 387129
internal_count=681 577 184 104 393 363
is_linear=0
shrinkage=0.03


Tree=94
num_leaves=7
num_cat=0
split_feature=56 55 59 52 45 51
split_gain=835.615 372.101 171.071 169.471 168.219 138.752
threshold=352.12500000000006 627.50000000000011 898.00000000000011 611.55952380952397 1.0000000180025095e-35 549.83333333333337
decision_type=8 10 10 10 2 10
left_child=4 2 -2 -3 -1 -6
right_child=1 3 -4 -5 5 -7
leaf_value=0.00098696675307976926 -0.0029705411913483696 0.00063619795951527693 -8.1342641982434574e-05 0.002236809642890998 -0.0052270648620574697 -0.0024218812233436954
leaf_weight=8511.9955444335938 19342.887756347656 156875.72290039062 396657.94909667969 95945.6279296875 25612.468444824219 41723.778137207031
leaf_count=10 21 124 369 60 38 59
internal_value=-2.47328e-06 0.000335951 -0.000215689 0.00124364 -0.00298663 -0.00348894
internal_weight=744670 668822 416001 252821 75848.2 67336.2
internal_count=681 574 390 184 107 97
is_linear=0
shrinkage=0.03


Tree=95
num_leaves=7
num_cat=1
split_feature=58 69 50 59 62 59
split_gain=777.744 389.776 226.714 222.37 176.947 152.036
threshold=0.27867540977773392 0 470.50000000000006 1563.0000000000002 1446.0000000000002 2096.0000000000005
decision_type=8 1 10 10 10 10
left_child=2 3 -1 -2 -4 -3
right_child=1 5 4 -5 -6 -7
leaf_value=-0.0045298923590561943 0.00018959963154526502 -0.00054868833777391016 -0.0031085248398840339 0.0019921648961299982 -0.00068626275766429099 0.0010411144994885927
leaf_weight=24567.198791503906 96238.783569335938 252210.12951660156 38268.029357910156 171098.59228515625 93352.544921875 68934.15283203125
leaf_count=34 78 242 54 119 93 61
internal_value=-2.45327e-06 0.000497024 -0.00188436 0.00134321 -0.00139054 -0.000207426
internal_weight=744669 588482 156188 267337 131621 321144
internal_count=681 500 181 197 147 303
cat_boundaries=0 1
cat_threshold=24
is_linear=0
shrinkage=0.03


Tree=96
num_leaves=7
num_cat=1
split_feature=58 69 59 59 59 57
split_gain=755.815 377.625 215.027 213.948 147.497 126.966
threshold=0.27867540977773392 0 1563.0000000000002 2010.5000000000002 2096.0000000000005 0.17332151072919227
decision_type=8 1 10 10 10 10
left_child=3 2 -2 5 -3 -1
right_child=1 4 -4 -5 -6 -7
leaf_value=-0.0065709701281664425 0.00018673941372549316 -0.00054081315770589122 0.0019585514892055092 -0.00010209582590509963 0.001024529383142878 -0.0023065286620969003
leaf_weight=6684.1983032226562 96257.032775878906 252071.7822265625 171439.78900146484 44523.114074707031 69005.958435058594 104686.61077880859
leaf_count=11 78 242 119 45 61 125
internal_value=-2.43434e-06 0.000489365 0.00132141 -0.00185984 -0.000204382 -0.00256253
internal_weight=744668 588775 267697 155894 321078 111371
internal_count=681 500 197 181 303 136
cat_boundaries=0 1
cat_threshold=24
is_linear=0
shrinkage=0.03


Tree=97
num_leaves=7
num_cat=0
split_feature=56 55 59 52 51 56
split_gain=778.712 344.855 163.304 158.61 147.362 108.032
threshold=347.50000000000006 627.50000000000011 898.00000000000011 611.55952380952397 582.16666666666686 536.62500000000011
decision_type=8 10 10 10 10 8
left_child=4 2 -2 -3 -1 -4
right_child=1 3 5 -5 -6 -7
leaf_value=-0.0041895063703603075 -0.002911331426358979 0.0006020714029428215 -0.00055345339693457221 0.0021473886218863511 -0.0014806040478294864 0.00043497010352325607
leaf_weight=39475.355346679688 19247.332763671875 157221.12866210938 208726.88916015625 96448.981079101562 33338.524597167969 190209.29418945312
leaf_count=58 21 124 203 60 46 169
internal_value=-2.41474e-06 0.00031696 -0.000212403 0.00118963 -0.00294925 -8.21818e-05
internal_weight=744668 671854 418184 253670 72813.9 398936
internal_count=681 577 393 184 104 372
is_linear=0
shrinkage=0.03


Tree=98
num_leaves=7
num_cat=0
split_feature=55 50 55 48 27 1
split_gain=705.259 268.603 259.012 248.957 174.12 129.804
threshold=468.50000000000006 168.50000000000003 1067.5000000000002 -4.4999999999999991 1.0000000180025095e-35 7.5000000000000009
decision_type=10 8 10 2 2 2
left_child=1 -1 4 -3 -2 -5
right_child=2 3 -4 5 -6 -7
leaf_value=-0.0075709204790834657 0.00047709796843659513 -0.0028103964743486135 0.0026986458242152021 -0.0014798565123491686 -0.0023485805550315297 0.00041976104209571471
leaf_weight=6380.4935913085938 475214.47003173828 66392.984924316406 46647.973754882812 66219.34521484375 20471.176147460938 63340.034240722656
leaf_count=10 404 91 24 72 18 62
internal_value=-2.39419e-06 -0.00151391 0.000561522 -0.00131665 0.000360397 -0.00055116
internal_weight=744666 202333 542334 195952 495686 129559
internal_count=681 235 446 225 422 134
is_linear=0
shrinkage=0.03


Tree=99
num_leaves=7
num_cat=0
split_feature=55 51 55 42 63 50
split_gain=685.076 303.27 250.433 183.608 173.563 154.666
threshold=468.50000000000006 259.33333333333343 1067.5000000000002 1.0000000180025095e-35 1.0000000180025095e-35 474.50000000000006
decision_type=10 10 10 2 2 10
left_child=1 -1 4 -3 -2 -6
right_child=2 3 -4 -5 5 -7
leaf_value=-0.005687850553871652 0.00053196786579628845 -0.00023451079745829656 0.002651224916573052 -0.0021114863278873124 -0.0033442398107232231 0.00019092360244685189
leaf_weight=14408.239501953125 450978.14617919922 93956.604736328125 46774.029907226562 93662.23193359375 20506.084716796875 24380.172058105469
leaf_count=21 382 95 24 119 19 21
internal_value=-2.3748e-06 -0.00149366 0.000552838 -0.00117153 0.000354896 -0.00142414
internal_weight=744666 202027 542638 187619 495864 44886.3
internal_count=681 235 446 214 422 40
is_linear=0
shrinkage=0.03


Tree=100
num_leaves=7
num_cat=0
split_feature=56 65 20 56 60 51
split_gain=724.091 284.465 316.924 202.062 136.111 117.045
threshold=459.25000000000006 1.0000000180025095e-35 11.250000000000002 268.50000000000006 1617.9000000000003 758.83333333333337
decision_type=8 2 2 10 10 10
left_child=3 2 4 -1 -2 -5
right_child=1 -3 -4 5 -6 -7
leaf_value=-0.0043461492811939237 -0.00049882815131794785 -0.0028328106510153049 0.0024815792392893906 -0.0017562317747557626 0.00060123395812314599 0.0015406875222199749
leaf_weight=26587.380493164062 137695.50311279297 23078.212646484375 68438.808166503906 95874.010864257812 382210.36657714844 10780.253112792969
leaf_count=41 126 21 38 116 328 11
internal_value=-2.35534e-06 0.000434349 0.00056251 -0.0020063 0.000309885 -0.00142298
internal_weight=744665 611423 588345 133242 519906 106654
internal_count=681 513 492 168 454 127
is_linear=0
shrinkage=0.03


Tree=101
num_leaves=7
num_cat=0
split_feature=58 59 55 20 59 55
split_gain=680.735 282.571 261.826 232.542 132.389 106.427
threshold=0.2773559445682206 1356.0000000000002 345.00000000000006 11.250000000000002 673.50000000000011 198.50000000000003
decision_type=8 10 10 2 10 10
left_child=2 4 5 -3 -2 -1
right_child=1 3 -4 -5 -6 -7
leaf_value=-0.0064041339934454806 -0.0041446882301821334 0.00053868064341476909 -0.00089785439000075772 0.0024385056653680481 -0.00043585905386082859 -0.0029003282683011948
leaf_weight=9572.8644409179688 9210.018798828125 374453.85552978516 95279.930358886719 68608.855102539062 145348.08721923828 42189.977661132812
leaf_count=16 10 325 96 38 136 60
internal_value=-2.33637e-06 0.000447588 -0.00183094 0.000832876 -0.000656891 -0.00354842
internal_weight=744664 597621 147043 443063 154558 51762.8
internal_count=681 509 172 363 146 76
is_linear=0
shrinkage=0.03


Tree=102
num_leaves=7
num_cat=0
split_feature=56 55 50 45 50 51
split_gain=690.306 303.724 157.641 155.803 134.04 130.898
threshold=352.12500000000006 627.50000000000011 654.50000000000011 1.0000000180025095e-35 182.00000000000003 549.83333333333337
decision_type=8 10 10 2 10 10
left_child=3 4 -3 -1 -2 -5
right_child=1 2 -4 5 -6 -7
leaf_value=0.001087821774170454 -0.0040070368125527398 0.00062996924518076368 0.0022598071830148411 -0.0049524199858790637 -0.00012199072478276773 -0.0021945817583855346
leaf_weight=8458.2853393554688 8151.4922485351562 178624.0078125 76191.631225585938 24905.126953125 407354.89581298828 40977.180236816406
leaf_count=10 10 140 44 38 380 59
internal_value=-2.31706e-06 0.000301866 0.00111731 -0.00274508 -0.000198218 -0.00323717
internal_weight=744663 670322 254816 74340.6 415506 65882.3
internal_count=681 574 184 107 390 97
is_linear=0
shrinkage=0.03


Tree=103
num_leaves=7
num_cat=0
split_feature=56 65 56 56 52 54
split_gain=674.425 263.231 245.905 237.797 155.973 126.507
threshold=488.12500000000006 1.0000000180025095e-35 659.20833333333337 268.50000000000006 225.35714285714286 282.82189039301483
decision_type=8 2 10 10 10 10
left_child=3 2 4 -1 -2 -5
right_child=1 -3 -4 5 -6 -7
leaf_value=-0.0042197646782616205 -0.0036344899869576483 -0.0026943719458901293 0.0016154616690228849 -0.0014244633749810375 0.00031976200484961655 0.0013738923819572341
leaf_weight=26272.674682617188 9202.96533203125 22088.712463378906 164059.52758789062 141742.58538818359 365094.46453857422 16200.682861328125
leaf_count=41 11 20 108 161 324 16
internal_value=-2.29684e-06 0.000515317 0.000647015 -0.00157704 0.000222528 -0.00113742
internal_weight=744662 560446 538357 184216 374297 157943
internal_count=681 463 443 218 335 177
is_linear=0
shrinkage=0.03


Tree=104
num_leaves=7
num_cat=0
split_feature=56 55 45 52 51 51
split_gain=656.443 286.096 149.714 134.84 128.247 119.705
threshold=352.12500000000006 626.50000000000011 1.0000000180025095e-35 611.55952380952397 549.83333333333337 259.33333333333343
decision_type=8 10 2 10 10 10
left_child=2 5 -1 -3 -4 -2
right_child=1 3 4 -5 -6 -7
leaf_value=0.0010692473300651867 -0.0036663257481302767 0.00053835462190292272 -0.004875009456956703 0.0019442212178666855 -0.0021362817944993772 -0.00012549105052092903
leaf_weight=8468.1261596679688 8780.30615234375 162623.9638671875 24712.760681152344 98645.63134765625 40789.971008300781 400639.91613769531
leaf_count=10 11 128 38 61 59 374
internal_value=-2.27813e-06 0.000293531 -0.00268433 0.00106916 -0.0031696 -0.000201436
internal_weight=744661 670690 73970.9 261270 65502.7 409420
internal_count=681 574 107 189 97 385
is_linear=0
shrinkage=0.03


Tree=105
num_leaves=7
num_cat=0
split_feature=56 65 55 56 50 54
split_gain=641.164 255.56 231.756 227.802 132.542 121.316
threshold=488.12500000000006 1.0000000180025095e-35 1037.5000000000002 268.50000000000006 256.50000000000006 282.82189039301483
decision_type=8 2 10 10 10 10
left_child=3 2 4 -1 -2 -5
right_child=1 -3 -4 5 -6 -7
leaf_value=-0.0041379991417818751 -0.001342915845143147 -0.0026650687927014961 0.0026324388626362961 -0.0013927683355835904 0.00057394424927034835 0.0013457800951318154
leaf_weight=26073.011962890625 34949.74609375 22035.796508789062 47481.315185546875 141409.92059326172 456481.1357421875 16228.723022460938
leaf_count=41 35 20 24 161 384 16
internal_value=-2.25761e-06 0.000501515 0.000630999 -0.00154048 0.000437618 -0.00111083
internal_weight=744660 560948 538912 183712 491431 157639
internal_count=681 463 443 218 419 177
is_linear=0
shrinkage=0.03


Tree=106
num_leaves=7
num_cat=1
split_feature=56 20 69 51 60 55
split_gain=624.181 271.497 163.504 146.354 132.949 92.4147
threshold=352.12500000000006 11.250000000000002 0 595.16666666666686 1617.9000000000003 198.50000000000003
decision_type=8 2 1 10 10 10
left_child=3 2 -2 5 -4 -1
right_child=1 -3 4 -5 -6 -7
leaf_value=-0.0065704005000154541 0.00085384333723544136 0.0020232827645166162 -0.0010987072740339114 -0.00090125118505573923 8.7177797375350246e-05 -0.0030400421362289137
leaf_weight=8103.19287109375 172924.95776367188 72200.188232421875 117494.63702392578 27675.934326171875 308427.83020019531 37831.954040527344
leaf_count=14 140 41 114 38 279 55
